<?xml version="1.0"?>
<opencv_storage>
<my_svm type_id="opencv-ml-svm">
  <svm_type>C_SVC</svm_type>
  <kernel><type>LINEAR</type></kernel>
  <C>1.0000000000000000e-02</C>
  <term_criteria><epsilon>1.1920928955078125e-07</epsilon>
    <iterations>1000</iterations></term_criteria>
  <var_all>1764</var_all>
  <var_count>1764</var_count>
  <class_count>2</class_count>
  <class_labels type_id="opencv-matrix">
    <rows>1</rows>
    <cols>2</cols>
    <dt>i</dt>
    <data>
      -1 1</data></class_labels>
  <sv_total>1</sv_total>
  <support_vectors>
    <_>
      4.32658521e-03 1.57272199e-03 -4.09000255e-02 -5.92345968e-02
      -1.06648661e-01 -4.48339283e-02 -2.04009302e-02 -7.81720597e-03
      -9.57594719e-03 1.60757974e-01 1.50679663e-01 5.26478589e-02
      -4.48115245e-02 -1.29051492e-01 -3.66418287e-02 3.11498959e-02
      6.13702424e-02 1.35848418e-01 -1.88407116e-02 8.14553574e-02
      4.80307899e-02 -1.14116766e-01 -2.02971041e-01 -1.30212486e-01
      -1.50712490e-01 -8.50859359e-02 -1.04487203e-01 -5.53377084e-02
      -7.84294233e-02 -9.10817087e-02 -3.29909399e-02 -4.47751656e-02
      -8.27281699e-02 -2.98049990e-02 8.31310917e-03 -9.13728774e-03
      5.39946370e-02 3.63546014e-02 -4.36014980e-02 -7.49229118e-02
      -1.06024303e-01 -4.54913042e-02 -1.23428535e-02 3.38547141e-03
      2.92989649e-02 1.18584707e-01 1.09140404e-01 1.09057054e-01
      3.87223735e-02 -7.53953010e-02 -1.74589101e-02 4.96397465e-02
      7.44029135e-02 1.12132207e-01 -1.68634821e-02 -5.19695692e-03
      -5.45291118e-02 -1.66047260e-01 -2.16863424e-01 -1.24755755e-01
      -1.20759204e-01 -6.19555786e-02 -5.16117923e-02 -1.29813820e-01
      -1.12276278e-01 -1.18451297e-01 -1.10291848e-02 -4.06619813e-03
      -3.59829292e-02 -1.22190053e-02 -2.05796529e-02 -1.00081883e-01
      8.63854140e-02 5.13838381e-02 -5.36568835e-02 -8.57137367e-02
      -1.26543105e-01 -3.93683277e-02 1.43529149e-02 3.59758921e-02
      7.47618005e-02 7.10168704e-02 1.11009941e-01 1.57620922e-01
      8.84290710e-02 -7.37877116e-02 -4.52046059e-02 9.73010715e-03
      4.20813188e-02 5.75003289e-02 -7.00824186e-02 -1.08100481e-01
      -1.38802812e-01 -1.56133905e-01 -1.32168680e-01 -1.06603220e-01
      -5.38857765e-02 -1.71648879e-02 -3.82457003e-02 -1.22033857e-01
      -4.70705181e-02 -6.31637052e-02 1.95030496e-02 -2.29047164e-02
      -5.54914512e-02 -7.75794610e-02 -1.03803627e-01 -1.54428869e-01
      9.47621688e-02 5.04867435e-02 -2.19931696e-02 -5.74411191e-02
      -1.28187433e-01 -6.21477421e-03 5.74923083e-02 7.16361851e-02
      9.98516381e-02 3.76795754e-02 9.76194143e-02 1.31264135e-01
      5.67002967e-02 -9.94303375e-02 -7.94794187e-02 -2.90381163e-02
      6.17934298e-03 7.44353840e-03 -1.22516260e-01 -1.20898575e-01
      -1.04253158e-01 -1.04734778e-01 -7.45922476e-02 -5.04258946e-02
      4.20149736e-04 -3.73115693e-03 -8.40656087e-02 -1.07849076e-01
      -3.80484574e-02 -7.24525601e-02 -1.68417804e-02 -8.04308578e-02
      -9.00355503e-02 -1.25788376e-01 -1.27435908e-01 -1.33406982e-01
      8.75491276e-02 4.73772809e-02 3.73876765e-02 3.70712369e-03
      -9.30980444e-02 2.21561156e-02 7.44482055e-02 9.44703147e-02
      1.04513161e-01 1.94657538e-02 5.26224487e-02 9.45963189e-02
      4.20033140e-03 -1.11055039e-01 -7.96263218e-02 -3.44040766e-02
      -1.07024722e-02 -1.19396821e-02 -9.74303931e-02 -7.60183856e-02
      -3.91881652e-02 -3.74560617e-02 -8.21894407e-02 -9.25735664e-03
      -2.61364765e-02 -3.02843135e-02 -1.08913489e-01 -5.65801635e-02
      -1.37950089e-02 -6.99907392e-02 -7.53444880e-02 -1.37431324e-01
      -7.47497305e-02 -7.86921009e-02 -1.03456572e-01 -9.36508775e-02
      6.22423664e-02 4.76245135e-02 8.97304192e-02 5.42383604e-02
      -3.50404344e-02 2.30227243e-02 6.71784654e-02 8.61389488e-02
      6.25470057e-02 1.02108717e-02 1.47573771e-02 6.50847405e-02
      -4.09159921e-02 -9.98597816e-02 -7.49610513e-02 -3.69504988e-02
      -1.26074478e-02 -1.25262588e-02 -6.62780255e-02 -4.97637540e-02
      -2.69423537e-02 1.42984390e-02 -8.47742781e-02 3.76928621e-03
      -4.93832864e-02 -3.98623347e-02 -8.58914107e-02 1.10900486e-02
      -8.09003948e-04 -6.90637529e-02 -1.27963156e-01 -1.06415771e-01
      -3.48472632e-02 -4.13848534e-02 -3.62463482e-02 -1.93612073e-02
      6.80657551e-02 7.28445053e-02 1.24670394e-01 5.67912459e-02
      -1.46005591e-02 1.27427550e-02 5.31225950e-02 6.43788129e-02
      4.41332981e-02 3.66017804e-03 -1.63915120e-02 7.10594421e-03
      -5.94996959e-02 -9.91808549e-02 -8.49219114e-02 -6.08702265e-02
      -2.35410873e-02 -9.22495034e-03 -7.47534912e-03 3.59937027e-02
      -2.80457232e-02 -5.94289834e-03 -8.08193535e-02 1.41106006e-02
      -1.89499892e-02 -3.10259610e-02 -5.42650595e-02 5.20734638e-02
      -3.01899258e-02 -1.10367328e-01 -1.45642698e-01 -1.12896375e-01
      -4.54788916e-02 -9.72925965e-03 3.60536538e-02 5.05315438e-02
      2.99095288e-02 3.93695533e-02 -2.83460109e-03 -3.15650292e-02
      -9.20185745e-02 -6.67337552e-02 -5.01895063e-02 -1.31271342e-02
      -4.07726358e-04 1.44386858e-01 1.46009594e-01 -9.73994099e-03
      -9.37058181e-02 -1.09311916e-01 -4.12125774e-02 3.72542851e-02
      8.64862129e-02 1.33606419e-01 -3.01938746e-02 4.29426767e-02
      2.76979581e-02 -6.30461574e-02 -1.96683541e-01 -1.03063770e-01
      -1.30382225e-01 -7.61723667e-02 -9.44306031e-02 2.13640910e-02
      -3.27193029e-02 -1.34176984e-01 -2.57513970e-02 -2.16260981e-02
      4.65928623e-03 2.22010501e-02 1.18449228e-02 2.67689917e-02
      8.32973048e-02 7.14783594e-02 -2.00836789e-02 -7.17374906e-02
      -1.09854370e-01 -6.45944029e-02 -3.25779989e-02 8.93634930e-03
      4.58349399e-02 6.84081465e-02 7.57609308e-02 5.14701521e-03
      -1.30854389e-02 -4.66320403e-02 3.32898437e-03 7.48588592e-02
      9.34077203e-02 7.98969269e-02 -1.84324663e-02 -2.37084236e-02
      -7.79840499e-02 -1.02470897e-01 -1.42823294e-01 -6.87268600e-02
      -7.79194906e-02 -4.39948738e-02 -5.48147112e-02 -2.69481204e-02
      -2.91937832e-02 -1.34747326e-01 -2.06312984e-02 -1.36645196e-03
      1.50567526e-02 2.93350779e-03 -1.55236116e-02 -2.72392407e-02
      9.17985067e-02 5.62132262e-02 -7.50876442e-02 -1.05047703e-01
      -1.19713724e-01 -4.90753390e-02 1.68920197e-02 5.83774745e-02
      8.57177898e-02 2.03940943e-02 8.34208801e-02 6.21118359e-02
      5.55533916e-02 -3.97632271e-02 -1.27009731e-02 2.07812022e-02
      4.15284298e-02 9.54680238e-03 -2.04729121e-02 -6.62917197e-02
      -1.35046989e-01 -9.68832076e-02 -5.72094545e-02 -3.98868583e-02
      -2.49455869e-02 -1.73892267e-02 -1.77710447e-02 -5.32379597e-02
      -1.11338580e-02 -4.83326092e-02 -1.17649128e-04 -1.43553838e-02
      -2.41238791e-02 -8.34115967e-02 -9.68073532e-02 -8.94009396e-02
      6.99576512e-02 2.65776962e-02 -7.03205392e-02 -7.35940561e-02
      -7.29610100e-02 2.09512320e-04 7.76925385e-02 9.25125852e-02
      8.35983232e-02 1.48640899e-02 1.08907185e-01 7.31528923e-02
      4.01052646e-02 -8.37721676e-02 -5.34672849e-02 -2.49958597e-02
      -2.00151961e-04 -2.54027024e-02 -5.14545254e-02 -6.54112101e-02
      -1.10901371e-01 -6.50264323e-02 -4.07080725e-02 -6.87990710e-03
      9.47335456e-03 -2.01134533e-02 -4.38063219e-02 -5.63811548e-02
      -1.01940171e-03 -3.00860219e-02 -1.03878742e-03 -4.59022075e-02
      -6.92900941e-02 -1.34903625e-01 -1.34490639e-01 -9.82416943e-02
      5.03324904e-02 2.22153328e-02 -5.39370254e-03 5.99148963e-03
      -2.76350919e-02 3.53294834e-02 8.38847160e-02 9.59153324e-02
      6.46417588e-02 2.71253921e-02 9.61452797e-02 6.58914149e-02
      -1.45089775e-02 -1.03815362e-01 -6.10391125e-02 -2.46914979e-02
      -2.85962317e-03 -1.76184252e-02 -5.60496077e-02 -4.55356278e-02
      -5.37597463e-02 -4.51177470e-02 -5.62410951e-02 8.39061849e-03
      -5.15228696e-02 -5.44439293e-02 -6.58861548e-02 -2.49390844e-02
      8.28582793e-03 2.79749557e-03 -2.91484259e-02 -8.85399505e-02
      -5.72457053e-02 -1.00305147e-01 -1.05455086e-01 -6.10471331e-02
      2.96748858e-02 4.79293540e-02 6.21132031e-02 5.77024184e-02
      -1.98320691e-02 2.06790380e-02 4.73911986e-02 6.57189116e-02
      2.51927450e-02 4.25438993e-02 7.10570663e-02 2.83200443e-02
      -5.88641539e-02 -9.36698094e-02 -4.18806449e-02 -1.07501019e-02
      1.02306148e-02 1.14535894e-02 -3.27727683e-02 -8.50993302e-03
      -3.39158787e-03 1.20120042e-03 -5.20940274e-02 -1.09981913e-02
      -9.53866020e-02 -8.11734274e-02 -6.48038685e-02 2.59813238e-02
      -9.66151059e-03 -2.44041178e-02 -7.08583891e-02 -7.40998238e-02
      -1.15090050e-02 -4.75623868e-02 -3.87464203e-02 3.11560207e-03
      5.84487021e-02 1.05871424e-01 1.14003628e-01 4.34217565e-02
      -3.87587845e-02 7.84081593e-03 3.33886109e-02 4.44209352e-02
      2.04511732e-02 3.48720029e-02 2.37456951e-02 -4.03046496e-02
      -8.51436853e-02 -9.59941223e-02 -5.10232523e-02 -2.05244515e-02
      1.42055657e-02 2.05473807e-02 2.62913723e-02 5.51838242e-02
      2.97074784e-02 4.99870395e-03 -5.12632206e-02 -2.02212557e-02
      -6.13354258e-02 -6.07733727e-02 -2.65711341e-02 6.45337105e-02
      -4.38259803e-02 -9.41595435e-02 -1.11763284e-01 -1.32902533e-01
      -1.39453011e-02 6.26818370e-03 2.73558255e-02 5.68591058e-02
      3.10568884e-02 6.67787716e-02 2.80452818e-02 -1.64840035e-02
      -8.46248940e-02 -7.82276765e-02 -1.08691417e-01 -3.69889699e-02
      -1.49484575e-02 8.47005472e-02 5.88478744e-02 -1.07317686e-01
      -1.41974241e-01 -9.14801881e-02 -4.15553339e-02 1.04490649e-02
      6.70669377e-02 8.96206945e-02 -2.69758683e-02 4.68976684e-02
      2.35915259e-02 2.75961533e-02 -1.19957842e-01 -4.25730683e-02
      -8.00480172e-02 -4.17998880e-02 -6.06410950e-02 2.12874841e-02
      1.17894113e-02 -1.18157633e-01 -1.13031548e-02 -1.24773802e-02
      4.80587967e-02 8.47945064e-02 1.30978404e-02 9.04046930e-03
      6.66068047e-02 6.07040823e-02 -1.42904669e-02 -7.83789009e-02
      -1.01054817e-01 -7.77251050e-02 -7.62512311e-02 -6.69544842e-03
      2.47603748e-02 1.41191315e-02 3.84126813e-03 -8.10982883e-02
      -6.73889816e-02 -1.82785951e-02 2.54289713e-02 6.24767989e-02
      7.02985004e-02 3.51386443e-02 -1.31460018e-02 -6.13007275e-03
      -6.39154837e-02 -1.13908025e-02 -6.12075552e-02 -2.51600984e-03
      -2.12750249e-02 -1.14539377e-02 -3.97714861e-02 9.53862182e-05
      1.43175991e-02 -1.08476780e-01 -4.07298505e-02 -2.34864354e-02
      3.06550190e-02 3.76757272e-02 -8.99250805e-03 -9.72653367e-03
      5.33267781e-02 1.08710453e-02 -1.07156821e-01 -1.26442283e-01
      -8.78076702e-02 -5.14102839e-02 -6.43603876e-03 4.64301705e-02
      5.85255921e-02 -1.54223721e-02 3.21314260e-02 8.72814190e-03
      4.13661636e-03 2.54221447e-03 2.38803308e-02 -4.91252402e-04
      6.49168622e-03 -3.14429663e-02 -2.29539839e-03 -1.37993740e-02
      -1.00670077e-01 -3.72638404e-02 -2.22757943e-02 1.27055887e-02
      3.50764804e-02 -1.19876862e-03 -1.26494486e-02 -1.42780188e-02
      4.29185443e-02 -4.59897518e-02 -4.02571261e-02 -6.96359808e-03
      -1.04363794e-02 -6.88816085e-02 -5.10860756e-02 -3.74088250e-02
      2.64510382e-02 -2.38284655e-02 -1.04408547e-01 -9.04471129e-02
      -2.49745864e-02 1.26619358e-02 6.85851648e-02 7.68553987e-02
      4.98993993e-02 2.76798964e-03 7.93253854e-02 2.63678338e-02
      1.31438160e-02 -5.69748916e-02 -3.03245336e-02 -6.00795709e-02
      -3.72217447e-02 -4.76268791e-02 -2.49554310e-02 -9.18812770e-03
      -8.88484418e-02 -5.42099923e-02 -4.41455096e-02 1.45855956e-02
      4.12513837e-02 -1.69609878e-02 -2.82960273e-02 -1.05070462e-02
      5.96988834e-02 1.83089264e-02 -6.96031330e-03 7.36898091e-03
      -4.53339256e-02 -9.94655415e-02 -7.71399140e-02 -3.52902152e-02
      1.50068924e-02 -8.59018695e-03 -2.05753893e-02 -1.23696476e-02
      3.44788260e-03 5.24549559e-02 5.31576164e-02 5.72763309e-02
      2.53184196e-02 4.23620939e-02 9.78139117e-02 1.43207228e-02
      -3.28965597e-02 -8.59510750e-02 -4.87743206e-02 -5.41593656e-02
      -2.56576706e-02 -1.03545506e-02 -3.19197960e-02 1.84362549e-02
      -4.11164984e-02 -6.02383912e-02 -4.58530188e-02 -1.33183168e-03
      -5.03733940e-02 -3.40136923e-02 -3.81964669e-02 9.24975798e-03
      4.61025797e-02 4.08631787e-02 2.39868392e-03 2.74715043e-04
      -4.15904969e-02 -7.03276694e-02 -4.28854451e-02 -9.76837520e-03
      1.25190681e-02 4.34695445e-02 4.91255894e-02 4.04776856e-02
      -1.64164715e-02 1.77442115e-02 -3.65385413e-03 1.32329408e-02
      -1.03961052e-02 8.35937709e-02 8.80245045e-02 -1.33876307e-02
      -7.47235939e-02 -7.62110874e-02 -2.39740591e-02 -3.01303007e-02
      1.37065360e-02 4.20292579e-02 2.25960437e-04 4.85570543e-02
      2.13437006e-02 -3.03016156e-02 -1.72735769e-02 -3.17497067e-02
      -7.37905726e-02 -5.03436401e-02 -1.58577766e-02 3.57961841e-02
      -3.33754881e-03 -2.09791195e-02 -3.98975872e-02 -2.73389686e-02
      3.58429854e-03 -2.33020168e-02 -5.48760872e-03 3.57874893e-02
      6.45251423e-02 1.20608449e-01 6.92376345e-02 1.46700479e-02
      -5.88197000e-02 -2.35133176e-03 -1.10341320e-02 6.15624385e-03
      8.52864794e-03 8.83510858e-02 3.46459299e-02 -9.57142413e-02
      -1.04442142e-01 -8.39032754e-02 -3.14883664e-02 -5.49285905e-03
      4.39488553e-02 6.31084666e-02 4.62716855e-02 6.64379373e-02
      7.39740133e-02 1.25105940e-02 8.22771247e-03 -3.74603868e-02
      -6.30849898e-02 -2.72304993e-02 2.02983320e-02 6.14414848e-02
      -5.19500785e-02 -9.36895981e-02 -1.19873688e-01 -7.13683590e-02
      2.83762831e-02 1.66948475e-02 2.88169403e-02 6.91508278e-02
      3.42188781e-04 6.43940791e-02 5.69766127e-02 -1.39650209e-02
      -9.81855914e-02 -7.73930401e-02 -1.22932680e-01 -6.45185784e-02
      -4.62504178e-02 4.94414195e-02 2.72362586e-03 -1.10344753e-01
      -9.71269757e-02 -2.80256178e-02 -1.61028747e-02 5.54373767e-03
      2.62496974e-02 4.58219387e-02 -2.74925530e-02 4.33233343e-02
      4.50646095e-02 6.44456372e-02 -7.49419862e-03 -5.29865676e-04
      -5.32119349e-02 6.80428557e-03 -2.67878901e-02 -5.22155277e-02
      -4.68568355e-02 -9.82933566e-02 -2.68142503e-02 -2.38924213e-02
      3.46962661e-02 8.94062817e-02 4.28431015e-03 -3.20002921e-02
      1.92268975e-02 2.85531301e-02 -2.29401551e-02 -6.83801472e-02
      -8.47052261e-02 -6.30805790e-02 -7.45559782e-02 -2.59296633e-02
      -1.19310543e-02 1.61561593e-02 -2.07152721e-02 -7.75016695e-02
      -6.14231601e-02 2.15358641e-02 4.38322276e-02 4.47781831e-02
      2.79821027e-02 2.30080653e-02 -3.25975157e-02 -1.34171471e-02
      -5.51369302e-02 1.02117173e-02 9.41479113e-03 3.00526638e-02
      9.58217960e-03 2.28062235e-02 -3.08915824e-02 -1.38213392e-02
      4.84196091e-04 -9.86471921e-02 -7.07178041e-02 -4.94033173e-02
      6.53284928e-03 4.26307060e-02 -6.45877048e-03 -2.11021695e-02
      3.27902921e-02 -1.34163434e-02 -1.09874159e-01 -9.92197245e-02
      -3.74701619e-02 -2.74446569e-02 -9.79516096e-03 3.00766807e-02
      3.67719308e-02 4.46044374e-03 2.60560680e-02 -4.10433306e-04
      -8.41262098e-03 2.35530008e-02 3.46219130e-02 -2.15806887e-02
      -3.05096768e-02 -2.70721577e-02 -1.63305830e-02 -1.90080423e-02
      -7.53286928e-02 -3.86835188e-02 -1.43918060e-02 2.68669389e-02
      4.43910956e-02 2.25275811e-02 -1.02781635e-02 1.73068605e-02
      5.71467690e-02 -5.18692359e-02 -6.97712749e-02 -3.27463262e-02
      -2.67522689e-02 -4.04600650e-02 -2.29586698e-02 -1.39470492e-02
      2.70313025e-02 -2.96934750e-02 -9.81988907e-02 -8.87565091e-02
      1.69538707e-03 3.47199254e-02 5.73970713e-02 4.46693450e-02
      3.94572169e-02 1.95661020e-02 6.35078698e-02 2.32729781e-02
      6.00590417e-03 -1.74625274e-02 -2.38388516e-02 -9.05045569e-02
      -6.90990016e-02 -3.72884460e-02 -1.69402640e-02 1.21726207e-02
      -8.12724233e-02 -7.07432032e-02 -5.73287420e-02 2.13427600e-04
      3.24620344e-02 4.80344141e-04 -2.91160457e-02 3.12650017e-02
      8.81257877e-02 3.69686112e-02 -2.47007236e-02 -6.76573906e-03
      -3.82155403e-02 -3.79638933e-02 -3.25276665e-02 2.65475782e-03
      2.01129895e-02 -2.13891244e-03 -1.14754373e-02 -3.58875208e-02
      3.76283424e-03 5.20624183e-02 1.03423437e-02 9.37142782e-03
      1.08640427e-02 5.55345118e-02 6.43228143e-02 3.01747229e-02
      -1.71533730e-02 -4.20458205e-02 -3.63175757e-02 -6.44565299e-02
      -3.66723090e-02 -3.93728586e-03 -3.52795282e-03 5.15133813e-02
      -4.86164168e-02 -7.97530934e-02 -7.73348808e-02 -2.63451878e-02
      -3.70420963e-02 -1.37423985e-02 -1.77614633e-02 2.84762550e-02
      5.09518310e-02 4.75320853e-02 4.67206445e-03 2.46247295e-02
      -4.50745896e-02 -1.00591294e-02 1.60396900e-02 1.57010369e-02
      2.50183549e-02 4.99534011e-02 4.19995859e-02 9.79028735e-03
      -1.79437771e-02 8.23692535e-04 -5.67721352e-02 -3.75896953e-02
      -1.84926111e-02 9.08592865e-02 4.13105078e-02 -7.49591552e-03
      -4.95171919e-02 -5.86452335e-02 6.49112044e-03 -9.98521969e-03
      1.74236037e-02 5.20262010e-02 2.17942372e-02 7.53195956e-02
      3.59595716e-02 -3.33025567e-02 -4.18502465e-02 -5.01725227e-02
      -3.28197442e-02 -1.32033415e-02 6.95690606e-03 2.61316821e-02
      -1.82381123e-02 -4.57734875e-02 -2.68939082e-02 3.12090106e-02
      -1.07419137e-02 1.35771176e-02 4.14952934e-02 5.14449552e-02
      7.27221146e-02 9.43875536e-02 5.06496429e-02 1.27556105e-03
      -3.97019535e-02 -1.22846868e-02 -4.09862064e-02 -2.27053314e-02
      1.01335431e-02 9.98702422e-02 -6.96585001e-03 -9.25665945e-02
      -9.78775993e-02 -1.02809757e-01 6.07623253e-03 3.26307118e-02
      4.63982634e-02 8.43985155e-02 3.71123664e-02 6.60330579e-02
      6.75563738e-02 2.15528868e-02 5.72473463e-03 -3.72430123e-02
      -3.13488604e-03 2.89651528e-02 3.45718339e-02 5.40264659e-02
      -5.83447479e-02 -1.41729251e-01 -1.07663400e-01 6.99048163e-03
      2.30220854e-02 3.90860066e-02 5.07090576e-02 7.70149827e-02
      -4.67209928e-02 4.52780351e-02 5.91290258e-02 2.48357952e-02
      -1.04669377e-01 -6.41127080e-02 -1.13712490e-01 -8.05978850e-02
      -8.26657861e-02 -2.24690442e-03 4.16567503e-03 -8.06709677e-02
      -3.31354886e-02 -7.95299001e-03 1.09461136e-02 2.68973056e-02
      -9.47365165e-03 -3.26865241e-02 -3.28390524e-02 2.02105343e-02
      6.96960166e-02 1.03595570e-01 7.08408579e-02 -1.39852543e-03
      -1.92096289e-02 3.12807262e-02 -1.27431778e-02 -1.33345574e-01
      -1.48545176e-01 -9.97010618e-02 -3.45792472e-02 -2.13229433e-02
      -1.47481347e-02 2.39844285e-02 -1.45249432e-02 -7.21516088e-02
      -2.94515342e-02 -4.50800930e-04 -2.04939395e-02 -7.15590781e-03
      -5.02763130e-02 -2.96877660e-02 -5.98732419e-02 -3.49793695e-02
      -5.12959622e-02 4.37852973e-03 1.39057534e-02 -6.09014928e-02
      -4.42152210e-02 -4.25866619e-03 3.61996293e-02 4.52568382e-02
      3.01930122e-03 -2.68759904e-03 -6.07377142e-02 -6.76151365e-02
      -7.54245371e-02 3.06260642e-02 6.65459260e-02 1.38124786e-02
      1.28333429e-02 3.01709380e-02 -2.12446898e-02 -3.90673764e-02
      -7.17969537e-02 -1.02077499e-01 -7.04228207e-02 -5.17546758e-02
      -2.86472794e-02 1.76131248e-03 -2.58280765e-02 -1.61694083e-02
      1.25530502e-02 1.27900275e-03 -7.21735135e-02 -3.25905159e-02
      -4.86359326e-03 6.35242648e-03 1.37831578e-02 1.37319108e-02
      7.96342734e-03 1.01090353e-02 5.46179824e-02 -5.18453680e-03
      -3.42455432e-02 -1.69122638e-03 7.35687278e-03 -2.88868397e-02
      -2.31816396e-02 -1.02711823e-02 -5.63281998e-02 -8.34730864e-02
      -9.59590301e-02 -3.33936326e-02 1.30740190e-02 9.41441953e-03
      9.41323489e-03 2.20874548e-02 -9.54650901e-03 2.03748886e-02
      1.47481784e-02 -6.95238039e-02 -5.85410520e-02 -4.48587537e-02
      -4.96429056e-02 -3.44156362e-02 -4.48951125e-02 -6.37765881e-03
      2.31790058e-02 1.41426157e-02 -6.24458119e-02 -5.90768643e-02
      -1.44160064e-02 4.16806601e-02 6.02920242e-02 2.65296958e-02
      2.40365453e-02 2.05926690e-02 6.44433871e-02 4.18500528e-02
      -9.03089251e-03 -4.51339409e-04 -3.41472812e-02 -8.21721554e-02
      -4.41306308e-02 -1.35534834e-02 -1.34963347e-02 -3.54779512e-02
      -9.24588889e-02 -7.79363587e-02 -4.45375927e-02 -2.57057603e-02
      -1.94334192e-03 -3.83788976e-03 -1.03256507e-02 4.51254006e-03
      5.21585159e-02 2.16297284e-02 3.76924081e-03 -1.51031846e-02
      -4.59238552e-02 -1.45153860e-02 -3.74892503e-02 -2.41251737e-02
      1.86056998e-02 4.45995927e-02 -1.19059989e-02 -5.08752614e-02
      -2.42124107e-02 2.77833100e-02 -4.60832706e-03 -5.21836663e-03
      7.82641210e-03 3.85530256e-02 4.85439524e-02 6.73356950e-02
      2.13324116e-03 2.74679041e-03 -3.13664749e-02 -5.47993556e-02
      -2.37196796e-02 1.39459809e-02 1.54967560e-02 2.92603746e-02
      -5.94081730e-02 -7.36767277e-02 -5.77450395e-02 -4.66334298e-02
      -3.66126560e-02 -2.85288244e-02 -5.60762873e-03 -3.48260663e-02
      -9.39310528e-03 3.29303779e-02 2.18571760e-02 2.92255078e-02
      -1.61230844e-02 4.52054366e-02 2.33487394e-02 -1.38558121e-02
      2.74312552e-02 5.92037663e-02 4.80171889e-02 -1.80790145e-02
      -1.51388356e-02 -1.71004105e-02 -6.42338693e-02 -4.17648889e-02
      -9.67486575e-03 5.52402623e-02 3.25237052e-03 2.21783761e-03
      -2.31560655e-02 -2.90000029e-02 1.90238860e-02 8.84117838e-03
      1.75202619e-02 5.60215637e-02 6.07146928e-03 4.37268689e-02
      1.85226314e-02 -3.60557064e-03 -3.22057195e-02 -5.07550500e-02
      -8.89355503e-03 -1.95159819e-02 -1.29118031e-02 -1.14947325e-02
      -8.62909779e-02 -5.94452955e-02 -3.07009468e-04 4.68624458e-02
      3.34091410e-02 5.87529652e-02 6.41280934e-02 3.27731781e-02
      5.08056842e-02 5.17041609e-02 7.13717416e-02 1.15884636e-02
      -5.49558317e-03 -1.29068717e-02 -4.57817949e-02 -2.36921553e-02
      1.92734767e-02 7.40302578e-02 -5.12843244e-02 -8.15275460e-02
      -1.00326717e-01 -8.41821730e-02 4.58530933e-02 4.44690250e-02
      4.75671589e-02 8.53262618e-02 -3.03321686e-02 1.10977106e-02
      4.01980057e-02 3.74964662e-02 3.33267190e-02 3.59578826e-03
      5.13257906e-02 3.33565772e-02 -1.19896578e-02 5.16879149e-02
      -9.54693109e-02 -2.15381265e-01 -5.50092682e-02 6.60945624e-02
      5.96175119e-02 8.29273909e-02 6.03805631e-02 7.24181682e-02
      -9.32317898e-02 1.08921975e-02 7.23306313e-02 8.47578496e-02
      -3.81881744e-02 -3.75371277e-02 -1.16774499e-01 -8.17566216e-02
      -1.15773112e-01 -1.11186720e-01 -7.08283409e-02 -7.81424940e-02
      3.96955386e-03 -3.53502817e-02 7.24927988e-03 4.99266014e-02
      -6.00943379e-02 -1.06671035e-01 -3.58369052e-02 -7.16406479e-03
      1.07814215e-01 1.80307597e-01 7.24893138e-02 -1.21725509e-02
      1.58587638e-02 3.94911245e-02 -3.52694094e-03 -1.16935261e-01
      -1.70893490e-01 -1.29678845e-01 1.68056842e-02 3.41775939e-02
      -6.11817315e-02 -4.91659902e-02 -1.93133932e-02 -4.58343253e-02
      -8.84202719e-02 -3.96132469e-02 -1.71511769e-02 5.55104911e-02
      -7.35601597e-03 1.48362329e-03 -5.19018061e-02 -4.16672528e-02
      -9.88820717e-02 -5.16033880e-02 -1.73651669e-02 -7.42658079e-02
      -3.82083692e-02 -3.69295068e-02 -5.05423220e-03 3.00945360e-02
      -1.84283126e-02 -5.46976253e-02 -5.96854836e-02 -1.08388931e-01
      -7.97013044e-02 1.15603901e-01 6.80380687e-02 2.92374776e-03
      5.74792782e-03 4.32961285e-02 -1.15151713e-02 -5.22647612e-03
      -8.70828480e-02 -1.09121725e-01 -2.39476040e-02 1.44143729e-02
      -7.34204724e-02 -4.55401838e-02 -4.02913280e-02 1.62550714e-02
      -4.69573550e-02 -2.95464136e-02 -5.76374158e-02 -1.16702041e-03
      -6.25723926e-03 1.56896412e-02 2.04219390e-02 -6.08026516e-03
      -4.18037139e-02 2.96468934e-05 4.64386083e-02 -3.99208926e-02
      -5.33324331e-02 -2.41451561e-02 -2.79305689e-02 -5.03092818e-02
      -7.06603145e-03 -1.31915463e-02 -4.39578965e-02 -1.15332440e-01
      -1.16571702e-01 3.25338058e-02 6.24758713e-02 -4.95842053e-03
      -2.12205779e-02 2.12952681e-02 1.10923024e-02 3.31340842e-02
      2.08119489e-03 -6.16936348e-02 -6.37813658e-03 6.52034907e-03
      -8.28782618e-02 -4.90872078e-02 -7.22817630e-02 -2.83804117e-03
      -1.36585291e-02 1.17891338e-02 -6.80088326e-02 -5.32769524e-02
      -3.65629233e-02 1.79611500e-02 3.74007151e-02 6.95241150e-03
      -2.13894080e-02 2.46390924e-02 7.19024390e-02 4.64928411e-02
      -1.41491340e-02 -3.64162959e-03 -3.96772698e-02 -5.30368164e-02
      -2.24981643e-02 8.85247905e-03 1.10928053e-02 -5.79499379e-02
      -1.07811019e-01 -3.30327787e-02 2.51192264e-02 -4.40195240e-02
      -3.84036675e-02 -1.15856612e-02 1.96329523e-02 -3.74326110e-02
      1.86377130e-02 -2.37159408e-03 5.58334254e-02 4.72700298e-02
      -4.17401157e-02 -1.47742992e-02 -6.81178942e-02 -6.42231256e-02
      -5.14105521e-03 4.96455058e-02 -2.69707739e-02 -6.92896023e-02
      -4.77727205e-02 -3.46642430e-03 -3.88431102e-02 2.23729949e-04
      -1.52945397e-02 2.05586031e-02 4.85541113e-02 5.99250235e-02
      2.62161046e-02 3.84489968e-02 -2.07605902e-02 -2.03649178e-02
      1.17716519e-02 1.01544671e-02 2.80532781e-02 6.10898854e-03
      -5.90549633e-02 -3.71092893e-02 4.28165449e-03 -6.16351292e-02
      -3.85752432e-02 -4.56212871e-02 -6.60406565e-03 -1.05677441e-01
      -6.29399717e-02 4.14668471e-02 5.84534332e-02 8.95378217e-02
      3.11099049e-02 3.24143991e-02 -4.79471730e-03 -5.57479374e-02
      5.54559007e-03 5.16914725e-02 4.93506864e-02 -2.46334746e-02
      -2.67995093e-02 -2.52812076e-02 -5.32114878e-02 -2.78764144e-02
      -1.37876151e-02 1.41074657e-02 -1.46423867e-02 -2.15588287e-02
      -1.88647546e-02 3.09226476e-02 1.46285612e-02 3.33886370e-02
      4.08141650e-02 4.17523347e-02 -3.38635854e-02 1.70074627e-02
      -3.98915773e-03 4.26357277e-02 5.05761579e-02 -3.16789262e-02
      -1.36418454e-02 -5.06075323e-02 -5.76506928e-02 -6.35822117e-02
      -1.42367348e-01 -3.70346792e-02 1.71403717e-02 1.02307826e-01
      9.45303142e-02 7.29049146e-02 5.24651185e-02 1.30004743e-02
      6.34258054e-03 3.14020663e-02 6.19456172e-02 3.22335400e-02
      2.55182162e-02 1.73185242e-03 -1.51856421e-02 -1.45832903e-03
      -8.79658794e-04 3.96940820e-02 -7.24824816e-02 -1.23928227e-01
      -1.34857878e-01 -1.02607356e-02 4.68288362e-02 5.43146878e-02
      5.38365915e-02 7.91713372e-02 -1.21021718e-01 -4.38020863e-02
      2.09791493e-02 8.00082013e-02 1.17190927e-01 5.26164025e-02
      4.20122631e-02 4.46584262e-03 -7.35506341e-02 4.47111316e-02
      -1.27331883e-01 -1.50449023e-01 -3.64866555e-02 9.60185751e-02
      1.06369235e-01 1.05035856e-01 6.21359535e-02 6.30492195e-02
      -1.29847124e-01 -2.86903325e-02 7.83316270e-02 1.46350533e-01
      6.59278259e-02 -1.31159956e-02 -1.33816019e-01 -8.30096304e-02
      -1.29894421e-01 -2.29594171e-01 -2.32241973e-01 -8.75798613e-02
      2.17935685e-02 -7.70366713e-02 -5.98021261e-02 -2.74591590e-03
      -6.27774522e-02 -1.54435813e-01 -2.41569914e-02 -5.87664638e-03
      1.46834761e-01 2.26020783e-01 9.08957943e-02 -1.30500523e-02
      1.38817336e-02 2.73525715e-02 6.49799826e-03 -4.41754572e-02
      -1.26268193e-01 -1.40741214e-01 9.45235342e-02 8.68009329e-02
      -7.86838010e-02 -1.09735481e-01 -1.47923455e-02 5.69793954e-03
      -1.57436803e-01 -1.08872361e-01 -2.93748938e-02 9.17274952e-02
      6.26330376e-02 9.71567165e-03 -6.88184872e-02 -6.13820851e-02
      -1.27959862e-01 -9.08344015e-02 -1.48973882e-01 -7.63579682e-02
      -1.72154829e-02 -3.97161469e-02 -5.10451570e-02 -3.96199748e-02
      -4.43453304e-02 -3.66165452e-02 -3.95611711e-02 -1.01620100e-01
      -2.83866841e-02 1.97089165e-01 1.20808125e-01 8.45512934e-03
      3.81313218e-03 4.18468080e-02 8.38201493e-03 2.79249605e-02
      -4.07977886e-02 -1.20457813e-01 3.46115530e-02 7.37782940e-02
      -9.67954025e-02 -1.13511078e-01 -6.72245026e-02 2.82122307e-02
      -1.33839652e-01 -1.25233084e-01 -5.69120273e-02 1.52695384e-02
      8.28835927e-03 2.73504527e-03 -2.41988450e-02 -3.07423528e-02
      -7.91350752e-02 2.47092899e-02 -1.74772423e-02 -6.21196181e-02
      -2.90611833e-02 -1.82667784e-02 -4.08923663e-02 -6.73354194e-02
      -5.45954928e-02 5.09208068e-03 -8.06353521e-03 -1.03719369e-01
      -1.16937526e-01 1.22889526e-01 1.37162238e-01 5.98501926e-03
      -3.15449499e-02 2.77838558e-02 2.43212618e-02 3.79825495e-02
      2.68421602e-02 -6.83785677e-02 3.96831743e-02 7.56874830e-02
      -7.25046843e-02 -8.03553611e-02 -8.51495638e-02 -1.26039227e-02
      -7.43587613e-02 -8.49741623e-02 -7.66762495e-02 -5.54166101e-02
      -3.05061080e-02 -8.70989449e-03 -2.73283832e-02 -2.66860854e-02
      -4.48326357e-02 3.00192107e-02 5.74035086e-02 3.26779187e-02
      1.63189135e-02 1.38159264e-02 -1.83332209e-02 -3.95456031e-02
      -6.91268891e-02 -2.61199102e-02 3.15654017e-02 -5.28446957e-02
      -1.39189228e-01 3.43709476e-02 1.04807205e-01 -2.59448849e-02
      -7.15309605e-02 -1.86566133e-02 2.63298824e-02 -4.15439233e-02
      2.33220439e-02 1.03672715e-02 8.91086534e-02 1.28145427e-01
      -4.75990586e-03 -4.79189232e-02 -6.28440604e-02 -5.32899722e-02
      -2.10178383e-02 -3.36350538e-02 -5.61341681e-02 -6.62612170e-02
      -4.38002013e-02 -1.42568583e-02 -6.67619631e-02 -4.69021089e-02
      -3.25180553e-02 -4.27152254e-02 8.88621900e-03 4.13910337e-02
      6.38428405e-02 7.13773146e-02 1.45161543e-02 3.57240625e-02
      4.96878475e-03 -4.02539484e-02 1.91318952e-02 7.93260615e-03
      -9.57348496e-02 6.26189914e-03 8.41545239e-02 -3.76474150e-02
      -6.26731068e-02 -5.53058200e-02 -1.36089781e-02 -8.16688687e-02
      -4.19635214e-02 3.16337049e-02 9.06668678e-02 1.76618144e-01
      7.04537556e-02 -7.67286122e-03 -1.73947401e-02 -3.46367136e-02
      -1.46001186e-02 4.76682605e-03 1.32520255e-02 -1.38464412e-02
      -2.00655423e-02 -1.60284303e-02 -5.05603589e-02 -8.70395377e-02
      -6.25660792e-02 -5.53303175e-02 -8.79954994e-02 -6.51434362e-02
      1.80720687e-02 8.85211974e-02 4.92826328e-02 8.30514431e-02
      6.93465397e-02 -7.22512603e-03 -5.78497685e-02 1.51362782e-02
      -2.23675743e-02 6.42119125e-02 1.26347840e-01 5.65369660e-03
      -4.54719886e-02 -5.70288636e-02 -7.13167489e-02 -5.23219034e-02
      -9.43198204e-02 -8.67611915e-03 3.62870768e-02 1.69447586e-01
      1.13667279e-01 5.93220517e-02 3.65017354e-02 -9.95663553e-03
      -6.22648709e-02 -9.82161146e-03 1.91578325e-02 5.26667573e-02
      4.15511653e-02 3.03999111e-02 2.63611898e-02 -2.69658547e-02
      -7.95585066e-02 -3.19785834e-03 -1.30605012e-01 -2.10283831e-01
      -1.02164760e-01 7.73212612e-02 6.82488531e-02 8.17238986e-02
      5.96640967e-02 5.62418699e-02 -1.37795299e-01 -5.57041653e-02
      1.47802643e-02 1.11189947e-01 1.98897019e-01 8.50443840e-02
      4.42442996e-03 -1.46252001e-02 -7.61623010e-02 2.07931288e-02
      -7.72007182e-02 -7.58537874e-02 -2.19104663e-02 1.35531962e-01
      1.06213704e-01 9.64038074e-02 5.49868606e-02 3.22740935e-02</_></support_vectors>
  <decision_functions>
    <_>
      <sv_count>1</sv_count>
      <rho>-5.4235821151733399e+00</rho>
      <alpha>
        1.</alpha>
      <index>
        0</index></_></decision_functions></my_svm>
</opencv_storage>
