<?xml version="1.0"?>
<opencv_storage>
<my_svm type_id="opencv-ml-svm">
  <svm_type>C_SVC</svm_type>
  <kernel><type>LINEAR</type></kernel>
  <C>1.0000000000000000e-02</C>
  <term_criteria><epsilon>1.1920928955078125e-07</epsilon>
    <iterations>1000</iterations></term_criteria>
  <var_all>1764</var_all>
  <var_count>1764</var_count>
  <class_count>2</class_count>
  <class_labels type_id="opencv-matrix">
    <rows>1</rows>
    <cols>2</cols>
    <dt>i</dt>
    <data>
      -1 1</data></class_labels>
  <sv_total>1</sv_total>
  <support_vectors>
    <_>
      -4.86118235e-02 4.17936221e-02 1.06314220e-01 -1.57665310e-03
      -1.79095231e-02 -2.31328625e-02 -5.27492687e-02 -6.87644929e-02
      -7.10439235e-02 -6.86910227e-02 -1.75018251e-01 -2.76220798e-01
      -2.16749571e-02 1.24460928e-01 3.51107456e-02 -3.00047304e-02
      -7.20738694e-02 -5.84916770e-02 -1.57626513e-02 5.97431660e-02
      5.25664426e-02 1.59806162e-01 5.10707758e-02 2.22054087e-02
      -2.67435908e-02 -6.66488484e-02 -4.53697816e-02 1.10064797e-01
      -2.79141832e-02 1.67449899e-02 8.54031444e-02 8.88041779e-02
      9.69000906e-02 2.17663012e-02 4.64441394e-03 1.14765421e-01
      -5.23329675e-02 4.80053574e-02 4.23648432e-02 -1.11222519e-02
      1.68008544e-02 -1.92822109e-03 -5.77288121e-02 -8.93074945e-02
      -9.03939083e-02 -1.04157135e-01 -1.76302493e-01 -1.91661671e-01
      1.33056371e-02 1.05393030e-01 1.76114738e-02 -5.98344207e-03
      -3.52907218e-02 -7.18533695e-02 1.64565984e-02 1.84753630e-02
      -9.52679440e-02 1.07305303e-01 1.21277168e-01 5.30904382e-02
      -4.10798453e-02 -8.71741846e-02 -5.63085154e-02 7.87807852e-02
      5.32786958e-02 1.05555005e-01 7.55115524e-02 1.76324975e-02
      4.67625447e-02 3.78196128e-02 2.76816543e-02 8.26846510e-02
      -4.46233265e-02 -1.92996021e-02 -1.01669803e-01 -1.77828930e-02
      6.04801103e-02 2.14329828e-02 -3.86104956e-02 -7.23860264e-02
      -6.62657693e-02 -1.08467564e-01 -7.42213279e-02 -9.64251906e-02
      2.29663327e-02 -1.03671644e-02 -4.04973105e-02 -1.55225769e-02
      -2.54421104e-02 -9.38241705e-02 5.01208827e-02 -4.48935619e-03
      -5.49211726e-03 7.34293908e-02 1.44241646e-01 6.15693778e-02
      -1.12457676e-02 -3.36216576e-02 -8.60943738e-03 7.52234608e-02
      8.07594806e-02 6.81824684e-02 3.76129039e-02 -7.55804479e-02
      -4.58515286e-02 -3.96199748e-02 -5.70490118e-03 4.88678440e-02
      -6.31452203e-02 -9.01639163e-02 -1.79729402e-01 -2.05532517e-02
      5.98110445e-02 2.15422884e-02 -2.75618653e-03 -3.27964723e-02
      -6.10093065e-02 -1.69837140e-02 4.67825085e-02 -1.27001135e-02
      5.60922967e-03 -1.30059496e-01 -7.96111375e-02 -3.82588319e-02
      -9.72626731e-03 -4.69684377e-02 4.26038727e-02 1.66911036e-02
      5.58603667e-02 3.45090292e-02 5.29097430e-02 4.34907973e-02
      2.36999393e-02 1.59544256e-02 1.10202786e-02 7.01835603e-02
      2.61614262e-03 -1.85253285e-02 9.55804251e-03 -1.17837586e-01
      -1.13440081e-01 -8.90449584e-02 -1.52510032e-02 7.19919428e-02
      -9.27415788e-02 -1.14235342e-01 -1.67052805e-01 -3.64561491e-02
      -2.50897855e-02 -1.85226463e-02 4.19846596e-03 -7.48482160e-03
      -6.54531792e-02 7.14410618e-02 9.10424888e-02 4.93022986e-02
      -1.30546773e-02 -1.78900272e-01 -6.45575225e-02 1.06800571e-02
      4.78871092e-02 4.15312797e-02 2.83955932e-02 2.90454309e-02
      2.46866215e-02 -4.36324952e-03 -9.25718620e-02 -3.67366821e-02
      -3.73366214e-02 -5.20235952e-03 8.57429951e-03 2.83066537e-02
      -2.61311550e-02 -1.68021545e-02 -9.35961306e-03 -1.00278847e-01
      -8.89240205e-02 -1.66937504e-02 1.91640444e-02 5.16773984e-02
      -9.16271284e-02 -8.77918527e-02 -1.16560563e-01 -5.00676930e-02
      -1.42424092e-01 -6.06470890e-02 -2.50992808e-03 2.52387412e-02
      -5.52644879e-02 9.86773893e-02 5.95615432e-02 4.24115360e-02
      -1.77903678e-02 -9.80920196e-02 -4.66611097e-03 8.21925700e-02
      9.12612900e-02 1.00578949e-01 3.41193266e-02 -2.89082713e-02
      -4.36422564e-02 -1.15621788e-02 -1.61787167e-01 -1.14594094e-01
      -8.20464417e-02 1.85848272e-03 3.54777910e-02 -1.39230276e-02
      -4.17071432e-02 -4.59808111e-02 -1.58230904e-02 5.06880470e-02
      6.47476036e-03 3.55879292e-02 4.87974249e-02 1.11172041e-02
      -5.42107448e-02 -3.06869261e-02 -4.43260893e-02 -7.34270364e-02
      -2.28824750e-01 -7.00707287e-02 1.52593507e-02 4.89116870e-02
      -4.36590686e-02 5.18861040e-02 -2.40455382e-02 -7.42958114e-03
      -4.53238422e-03 4.06711064e-02 4.33404744e-02 1.32590383e-01
      1.09502003e-01 9.00427401e-02 -2.53045205e-02 -1.06492154e-01
      -6.74592406e-02 3.61634465e-03 -1.12735748e-01 -1.10561348e-01
      -4.50831912e-02 1.26315672e-02 1.12879202e-02 -8.87439400e-02
      -1.21474348e-01 -8.76114219e-02 8.27001315e-03 6.62526786e-02
      7.02384040e-02 1.30420223e-01 1.03941120e-01 -3.81796136e-02
      -1.02071546e-01 1.37336645e-02 1.59800783e-01 3.14094797e-02
      -1.40054850e-02 -2.77376026e-02 -7.64902830e-02 -9.49326754e-02
      -1.08371094e-01 -9.66944247e-02 -2.30969518e-01 -1.73516035e-01
      -7.82758277e-03 1.19423807e-01 4.61870208e-02 -3.63826789e-02
      -7.96037093e-02 -6.76883981e-02 -5.14116399e-02 3.80112864e-02
      1.31406441e-01 1.92006961e-01 8.73614028e-02 6.31277487e-02
      6.68558329e-02 -2.40798369e-02 -7.56429657e-02 -1.15671838e-02
      -1.37414550e-03 6.68463996e-03 2.08015610e-02 -1.86666474e-02
      5.43863736e-02 2.55348021e-03 -6.00598417e-02 -5.14766462e-02
      -1.04414396e-01 -2.09593847e-02 1.58062503e-02 2.23179962e-02
      4.80578952e-02 6.56790659e-03 -7.55043626e-02 -1.14771239e-01
      -1.17595345e-01 -8.76272544e-02 -1.41481504e-01 -4.84259427e-02
      1.84693653e-02 7.77100399e-02 3.37484032e-02 1.52260149e-02
      -3.16019766e-02 -5.82585633e-02 -4.31453586e-02 3.32772769e-02
      2.45317277e-02 1.29992366e-01 1.32463649e-01 8.53199959e-02
      4.69091572e-02 -3.37517820e-02 -8.19100589e-02 1.85868964e-02
      3.53900604e-02 2.26514339e-02 6.66466029e-03 -5.49420565e-02
      4.65679029e-03 6.34580525e-03 -1.35477846e-02 -1.73669904e-02
      -7.74105936e-02 -8.92039910e-02 -9.83060822e-02 1.23745212e-02
      9.84376818e-02 3.58163677e-02 -3.92922461e-02 -7.62887821e-02
      -6.73959851e-02 -6.19674549e-02 -3.97921540e-02 -1.73590295e-02
      1.44806718e-02 -3.59187238e-02 -2.05058008e-02 -1.03050433e-02
      -2.71751098e-02 -6.27211630e-02 -1.16788205e-02 2.50628795e-02
      4.43408564e-02 6.75981045e-02 8.95059407e-02 6.89270571e-02
      3.50073688e-02 -1.41260633e-02 -5.77804372e-02 6.81486279e-02
      5.64251952e-02 1.56852901e-02 7.16597633e-03 -9.56556350e-02
      -5.54396063e-02 -1.88562293e-02 -3.21586058e-03 2.48550028e-02
      -7.55770802e-02 -1.17788665e-01 -9.82451439e-02 4.00234676e-05
      8.02833587e-02 3.85935046e-02 2.13543493e-02 -2.25347560e-02
      -4.88303676e-02 4.05472657e-03 2.38346327e-02 -3.11498009e-02
      -1.00088865e-02 -1.34070694e-01 -6.17167205e-02 -4.38476689e-02
      -2.22797431e-02 -2.39927080e-02 3.65677546e-03 2.85348780e-02
      2.30377223e-02 3.51074501e-03 -9.88757424e-03 2.46301647e-02
      1.53226173e-02 1.75249588e-03 -3.31540555e-02 8.61011446e-02
      4.60508466e-02 1.94297675e-02 1.64442677e-02 -1.05234616e-01
      -8.08686614e-02 -3.27115580e-02 4.45312355e-04 6.17725067e-02
      -7.14589730e-02 -9.76247564e-02 -7.29764402e-02 -2.58403160e-02
      -2.50575542e-02 -4.54093388e-04 6.05159206e-03 -7.59478565e-03
      -4.57577892e-02 6.01452515e-02 1.00816125e-02 -3.34971258e-03
      -2.56058685e-02 -1.51999384e-01 -4.48217355e-02 3.50283389e-03
      2.89218538e-02 4.25450541e-02 2.07090806e-02 1.55252796e-02
      -1.98667776e-02 -3.80354337e-02 -1.17488332e-01 -5.48328385e-02
      -2.16769148e-02 -4.91766166e-03 -9.58445389e-03 4.22797501e-02
      1.74591299e-02 5.38778268e-02 2.26421561e-02 -6.15811236e-02
      -4.22050469e-02 -1.13917459e-02 -2.29247985e-03 2.71359757e-02
      -5.39220870e-02 -6.90307096e-02 -7.64467567e-02 -5.75665981e-02
      -1.37041882e-01 -4.63077128e-02 -2.67920159e-02 1.76048244e-03
      -3.61972749e-02 5.07012196e-02 -4.53007445e-02 -1.09968493e-02
      -1.50974700e-02 -6.20154291e-02 2.07306910e-02 7.87882581e-02
      7.98189715e-02 7.95129612e-02 4.41834964e-02 -1.70313623e-02
      -3.49861495e-02 -2.10395902e-02 -1.27476841e-01 -9.19014961e-02
      -4.29738462e-02 -1.22719929e-02 1.34101454e-02 -4.06017080e-02
      -4.02569510e-02 3.91148170e-03 4.00251634e-02 4.65841107e-02
      1.37215052e-02 2.51942361e-03 -1.05373263e-02 -4.31153588e-02
      -3.68395709e-02 -7.59212822e-02 -7.95264393e-02 -9.64609534e-02
      -1.82118803e-01 -5.22741601e-02 -2.51569115e-02 1.06940707e-02
      -2.49869339e-02 -1.41624836e-02 -1.14573270e-01 -4.69712839e-02
      1.54546900e-02 7.98933133e-02 7.68547058e-02 1.53544769e-01
      1.03238605e-01 5.10669835e-02 1.49971154e-02 -3.77414413e-02
      -5.26724441e-04 -4.65056114e-03 -9.39190760e-02 -7.26246387e-02
      -3.53103764e-02 -5.02910726e-02 -1.43056130e-02 -1.42868817e-01
      -1.17348842e-01 -4.02505659e-02 6.85204491e-02 7.97317028e-02
      7.14490339e-02 6.45926744e-02 -4.16783942e-03 -1.29217595e-01
      -1.24777921e-01 -4.23899926e-02 1.48430899e-01 8.66144001e-02
      2.71496624e-02 -3.72825959e-03 -4.98788282e-02 -9.12479609e-02
      -1.17504142e-01 -8.87864307e-02 -1.39485434e-01 -9.17993337e-02
      -2.19878033e-02 6.21160455e-02 3.77148874e-02 -4.28741314e-02
      -8.39065984e-02 -1.15276463e-01 -1.23164482e-01 -6.05362020e-02
      1.45328656e-01 1.86972961e-01 1.38555989e-01 8.38896483e-02
      1.35147572e-01 2.05688141e-02 -9.19847414e-02 -1.18559323e-01
      -4.64399271e-02 -2.45795236e-03 -1.13204299e-02 -2.04097144e-02
      3.59724164e-02 2.48499848e-02 -6.95915893e-02 -1.42610386e-01
      -1.20499082e-01 -6.02623522e-02 -4.25648764e-02 6.91052824e-02
      9.04725492e-02 3.04295681e-02 -4.67109717e-02 -1.06922492e-01
      -1.28393933e-01 -4.61226404e-02 -4.09143493e-02 2.43326258e-02
      -1.72370989e-02 -4.47702268e-03 2.79526971e-02 2.64808745e-03
      -2.31079161e-02 -5.44498414e-02 -1.18707970e-01 -4.71528508e-02
      4.83015962e-02 1.43809095e-01 1.55687630e-01 9.55831036e-02
      1.09827071e-01 6.21447386e-03 -9.91259813e-02 -2.77921371e-02
      1.86905172e-02 1.26652932e-02 -2.04560091e-03 -3.46965194e-02
      -1.13926046e-02 -2.20378768e-03 -4.10971493e-02 -6.76930174e-02
      -7.11662397e-02 -8.33291709e-02 -5.90006933e-02 3.29349190e-02
      1.02407925e-01 4.44295630e-02 -2.17718743e-02 -6.57807067e-02
      -8.16199705e-02 -1.19213713e-02 -6.08092640e-03 -2.35594134e-03
      -1.68381929e-02 -8.60655606e-02 -2.58001350e-02 -1.38832889e-02
      -1.71401501e-02 -2.03163363e-02 -7.27260858e-02 9.11734998e-03
      5.96139692e-02 7.25521222e-02 7.32672811e-02 6.86180368e-02
      7.31422752e-02 -3.86013277e-03 -8.15897807e-02 5.79347648e-02
      6.49820715e-02 7.22353486e-03 -8.03800486e-03 -8.55525807e-02
      -5.51210456e-02 -2.50771791e-02 -6.73400564e-03 -5.68191893e-03
      -4.21218202e-02 -7.02517927e-02 -1.38086295e-02 -2.34475010e-03
      3.80645953e-02 3.30817625e-02 1.60267577e-02 -2.17908751e-02
      -5.04973531e-02 3.49350423e-02 -2.65580658e-02 -3.83755378e-02
      -2.66403034e-02 -1.17988423e-01 -6.83556199e-02 -4.74279523e-02
      -1.87599268e-02 2.44189817e-02 -1.19337142e-02 2.86085382e-02
      2.10120548e-02 9.31465998e-03 -1.07520130e-02 1.31551428e-02
      1.81490034e-02 -1.80271044e-02 -6.19729087e-02 5.96386679e-02
      5.58956116e-02 4.63376865e-02 -1.13058817e-02 -1.03078708e-01
      -5.94012439e-02 -2.94120032e-02 1.75759438e-02 2.87792198e-02
      -2.51837764e-02 -4.00583036e-02 -1.99323222e-02 -3.59807834e-02
      -7.62266666e-02 -1.68620385e-02 -6.32748567e-03 -1.15666119e-02
      -2.23361012e-02 4.23734337e-02 -5.53492904e-02 -3.18378806e-02
      -2.72544678e-02 -8.33157226e-02 -3.95397171e-02 -1.15360478e-02
      1.38630876e-02 5.26713282e-02 3.77234705e-02 4.74200621e-02
      -2.38499064e-02 -3.42214257e-02 -9.90851894e-02 -5.98487146e-02
      -3.81740890e-02 -1.88991390e-02 -3.15972455e-02 -2.85770861e-03
      9.85570345e-03 7.10911229e-02 2.47081444e-02 -4.25636917e-02
      -2.37012580e-02 -1.38329333e-02 -9.38077737e-03 -7.53415423e-03
      -1.64338630e-02 -6.99882880e-02 -6.49006739e-02 -5.73666133e-02
      -1.40524238e-01 -6.97924271e-02 -3.56551819e-02 -1.70577876e-02
      -1.46342739e-02 9.51532216e-04 -8.97137746e-02 -3.89199369e-02
      6.79538213e-03 -6.03932748e-03 2.79290192e-02 6.29838109e-02
      5.30551411e-02 4.84462827e-02 5.48050031e-02 2.91202739e-02
      -7.16252485e-04 -3.88842300e-02 -1.17822751e-01 -9.28252712e-02
      -6.33919165e-02 -2.20460314e-02 -7.97535665e-03 -7.81266019e-02
      -5.37682883e-02 3.54414023e-02 7.18541220e-02 3.60888056e-02
      3.38924974e-02 -6.56580273e-03 -5.36222644e-02 -8.05345252e-02
      -3.16353627e-02 -1.21803477e-01 -7.83345476e-02 -8.28301236e-02
      -1.11783378e-01 -6.83197379e-02 -3.57973613e-02 -2.09543463e-02
      -7.44317146e-03 -6.63762987e-02 -1.40343606e-01 -5.66340163e-02
      5.35141192e-02 1.27804145e-01 9.55109894e-02 1.46631524e-01
      7.32735619e-02 -4.37784754e-03 -4.58101463e-03 -3.43866670e-03
      3.54267247e-02 -1.29395612e-02 -7.74216354e-02 -6.74980208e-02
      -6.17956668e-02 -6.35000616e-02 -3.49121168e-02 -1.63304880e-01
      -1.32357895e-01 -5.29386010e-03 1.12148032e-01 1.08468100e-01
      7.05140084e-02 -4.23469959e-04 -8.93813148e-02 -1.76490292e-01
      -1.30906343e-01 -5.22471666e-02 1.36617705e-01 1.36453301e-01
      8.71204734e-02 4.17418554e-02 3.92877832e-02 -3.84967178e-02
      -1.09340601e-01 -1.47170186e-01 -1.11918971e-01 -7.45929182e-02
      -3.69781964e-02 2.07774644e-03 3.25489566e-02 -1.22833494e-02
      -6.56108335e-02 -1.59750134e-01 -1.30618960e-01 -1.51143998e-01
      4.32773493e-02 1.53678179e-01 1.79847285e-01 7.93022886e-02
      1.60021886e-01 5.27642220e-02 -6.99996725e-02 -1.33600637e-01
      -6.44605383e-02 -2.56376453e-02 2.28057299e-02 4.09965217e-02
      3.73839401e-02 4.82297502e-02 -5.40263504e-02 -1.20159484e-01
      -1.30240142e-01 -4.18730564e-02 -1.03538856e-02 1.05677225e-01
      1.32375941e-01 6.69249445e-02 2.94509847e-02 -4.96013761e-02
      -1.28937081e-01 -6.61276877e-02 -2.97035743e-02 -9.67256539e-03
      -4.36563194e-02 -4.25839722e-02 6.94330316e-03 -1.16101641e-03
      -1.57723110e-02 -7.10155964e-02 -1.31073773e-01 -1.10450245e-01
      4.16378118e-03 1.39771059e-01 1.77871287e-01 8.44541267e-02
      1.27430961e-01 2.28123609e-02 -7.99970403e-02 -4.37296852e-02
      1.82225555e-02 1.03095965e-02 2.35884804e-02 -1.27504894e-03
      -4.57603205e-03 1.13235451e-02 -6.07437827e-02 -6.47428557e-02
      -9.08360407e-02 -4.88458611e-02 -1.73874013e-02 4.20859195e-02
      8.99433270e-02 5.58454134e-02 2.36139279e-02 -2.67828479e-02
      -1.02269895e-01 4.04303893e-03 -1.11407023e-02 -2.15019602e-02
      -2.24406775e-02 -8.39726627e-02 -3.76863405e-02 -1.61061697e-02
      -4.13523149e-03 -2.82018702e-03 -8.33546147e-02 -1.49632655e-02
      4.57314439e-02 8.91036689e-02 9.61813852e-02 5.59349656e-02
      7.85663351e-02 -1.61202960e-02 -6.94031268e-02 -6.54160371e-03
      2.46324930e-02 1.03506790e-02 -1.48653518e-02 -6.82157427e-02
      -3.45827565e-02 -6.63962262e-03 -2.36928333e-02 -3.45073305e-02
      -5.46428487e-02 -2.88983136e-02 -9.61786136e-03 -1.36658195e-02
      -5.39774541e-03 2.25952920e-02 9.71216429e-03 -1.04577020e-02
      -6.96165860e-02 4.99580540e-02 -2.06396878e-02 -1.86114069e-02
      -1.41432136e-02 -7.88965151e-02 -6.51137456e-02 -3.28834504e-02
      -3.75800719e-03 4.77908254e-02 -3.36368904e-02 2.89606284e-02
      3.02920453e-02 3.14867347e-02 2.23772391e-03 6.62352517e-03
      2.02809554e-02 -5.06943613e-02 -7.36328885e-02 2.62812967e-03
      1.38251539e-02 1.99183468e-02 -4.52668704e-02 -1.04105368e-01
      -4.32647690e-02 -4.27654060e-03 1.45576270e-02 -4.26441524e-03
      -1.81336645e-02 -1.89422630e-02 -3.55020054e-02 -3.92401591e-02
      -9.28472057e-02 -4.15661223e-02 -2.83268914e-02 -1.74826514e-02
      -2.95713078e-02 3.36982198e-02 -3.57474759e-02 3.28269764e-03
      5.25293732e-03 -2.18216721e-02 -3.78151648e-02 -1.44608654e-02
      8.76693986e-03 3.74976136e-02 -2.86502182e-03 3.16867791e-02
      7.44330557e-03 -3.36949192e-02 -8.90764222e-02 -5.11631258e-02
      -2.90068481e-02 -4.23794352e-02 -5.85065819e-02 -2.24572867e-02
      -1.61434300e-02 3.06743477e-02 4.79000882e-04 -5.93695007e-02
      -1.20459544e-02 1.73606153e-03 -2.11724043e-02 -2.12627035e-02
      8.63390043e-04 -5.22571020e-02 -5.17787151e-02 -4.43749689e-02
      -1.07931435e-01 -9.35704261e-02 -5.68394288e-02 -3.08290552e-02
      -7.39190029e-03 -2.98830271e-02 -7.20103234e-02 -1.90715957e-02
      4.64429632e-02 4.25977260e-02 3.58112380e-02 4.10053506e-02
      1.70688462e-02 -2.41405778e-02 7.27227051e-03 6.92391628e-03
      9.41950886e-04 -7.15654418e-02 -1.26457304e-01 -8.68746936e-02
      -4.88616154e-02 -2.35066973e-02 -2.80138478e-02 -7.98633099e-02
      -6.87376484e-02 2.41739079e-02 7.00084046e-02 3.61770131e-02
      3.59084718e-02 -5.09093888e-03 -7.63595030e-02 -8.17036480e-02
      -1.33573385e-02 -6.63040355e-02 -3.71689238e-02 -3.83732617e-02
      -5.41617498e-02 -7.03985468e-02 -5.28823808e-02 -3.64788845e-02
      -1.49051603e-02 -1.16861999e-01 -1.42636463e-01 -3.50979976e-02
      9.76832286e-02 1.64319858e-01 1.01351738e-01 1.03133366e-01
      1.47496443e-02 -9.95686576e-02 -1.98434517e-02 -1.59449708e-02
      -2.80539575e-03 -5.49865849e-02 -1.03937946e-01 -5.84103316e-02
      -3.81988399e-02 -5.90500906e-02 -3.66096497e-02 -1.56864330e-01
      -1.38131157e-01 9.06964578e-03 1.34747088e-01 1.28858045e-01
      4.97282334e-02 -4.42094989e-02 -1.25459805e-01 -1.69221282e-01
      -1.48071483e-01 -7.18419626e-02 1.54348731e-01 1.68740764e-01
      1.45690113e-01 8.48080143e-02 1.33360893e-01 2.79786494e-02
      -8.22222382e-02 -1.50290117e-01 -9.63158011e-02 -4.43910472e-02
      -1.16477748e-02 -4.28605033e-03 3.80352400e-02 3.49223725e-02
      -4.34586480e-02 -1.51139274e-01 -9.39182863e-02 -1.81731224e-01
      -1.18876025e-01 8.46956596e-02 1.45523772e-01 6.11629486e-02
      1.51601434e-01 6.66092411e-02 -3.55763547e-02 -1.48153812e-01
      -7.50110969e-02 -5.25462888e-02 4.65258025e-02 8.81693363e-02
      5.54511547e-02 7.72938654e-02 -3.52977253e-02 -9.18449759e-02
      -1.45582989e-01 -6.03740774e-02 2.71594115e-02 1.39844134e-01
      1.67091772e-01 9.50492769e-02 1.08300224e-01 1.42170750e-02
      -1.01886570e-01 -4.33045141e-02 -2.06822548e-02 -8.64051096e-03
      -1.46458028e-02 -2.68705357e-02 -9.77995712e-03 8.59403145e-03
      -1.65864807e-02 -7.12276548e-02 -9.43415165e-02 -1.36284873e-01
      -7.25478157e-02 9.72718820e-02 1.65491506e-01 6.72725216e-02
      1.19413540e-01 3.12214643e-02 -4.27686051e-02 -8.72995406e-02
      -2.47882232e-02 1.83838271e-02 3.42401974e-02 2.68887002e-02
      2.63856035e-02 4.02095318e-02 -5.22357896e-02 -6.64094016e-02
      -1.02103569e-01 -4.35144119e-02 1.79746468e-02 7.09026605e-02
      8.91193524e-02 6.41512871e-02 7.02566504e-02 4.04599635e-03
      -9.26183164e-02 3.51885632e-02 1.37435161e-02 -2.52884738e-02
      -8.37026909e-03 -6.52119964e-02 -4.32656594e-02 -2.00869665e-02
      4.92090266e-03 -8.19322746e-03 -7.17956424e-02 -3.67062986e-02
      1.73571147e-02 8.94878358e-02 1.15446538e-01 4.83497083e-02
      7.13388026e-02 -2.21471898e-02 -5.24696782e-02 -5.61595671e-02
      -3.51046547e-02 -1.08430339e-02 -2.12631244e-02 -4.27429043e-02
      2.41595670e-04 2.51346566e-02 -2.92897057e-02 -4.43888791e-02
      -4.95060906e-02 -1.79551560e-02 -7.97139853e-03 4.27819788e-03
      -5.55712450e-03 6.63196575e-03 1.42150633e-02 -1.06559657e-02
      -7.59995058e-02 6.63704500e-02 1.23061743e-02 1.23254126e-02
      -5.53848082e-03 -7.17146471e-02 -5.85624352e-02 -3.33209522e-02
      2.19681617e-02 3.11937686e-02 -5.20616323e-02 6.23422954e-03
      4.14752364e-02 4.63890880e-02 2.46598031e-02 1.00666471e-02
      2.37013567e-02 -6.59131855e-02 -7.44884089e-02 -2.32267696e-02
      -2.61916686e-02 -2.75439527e-02 -5.79107217e-02 -8.42537805e-02
      -1.23639116e-02 2.17709132e-02 2.36238143e-03 -1.36013143e-02
      -1.88941567e-03 1.10043157e-02 -2.80097332e-02 -3.30192633e-02
      -8.73051062e-02 -6.68381155e-02 -5.22640906e-02 -1.81755964e-02
      -4.00660075e-02 1.99018028e-02 -2.44979262e-02 4.37582768e-02
      2.84784008e-02 -1.84924994e-02 -2.70708762e-02 -1.41766611e-02
      5.07283537e-03 5.65208902e-04 -4.14019451e-02 -1.13738338e-02
      2.72507104e-03 -4.36911881e-02 -7.54768029e-02 -3.28739434e-02
      -3.79130151e-03 -5.83095588e-02 -6.70033395e-02 -6.69313315e-03
      -2.74179019e-02 -2.83920933e-02 -1.32771563e-02 -3.05234566e-02
      8.84299283e-04 2.00025514e-02 -2.62732375e-02 -1.53636150e-02
      2.54372172e-02 -3.79147939e-03 -8.98492895e-03 -4.79931384e-02
      -1.12703614e-01 -1.15936421e-01 -8.27152431e-02 -1.86613295e-02
      -1.88237336e-02 -6.30734265e-02 -6.93252534e-02 1.77122671e-02
      7.56465942e-02 5.26578054e-02 4.46033105e-02 2.26425659e-02
      -2.77572311e-02 -8.27324092e-02 -3.28400768e-02 -3.16756926e-02
      -3.48652601e-02 -8.94398019e-02 -1.22358955e-01 -5.29843085e-02
      -9.39371809e-03 -3.24194990e-02 -5.15983887e-02 -4.15398553e-02
      -3.52076031e-02 -4.12588846e-03 6.30483776e-02 5.73975705e-02
      2.35240981e-02 -8.74267612e-03 -7.88339674e-02 -6.28535450e-02
      -1.13351038e-02 -4.23391871e-02 1.03075048e-02 -2.23891269e-02
      -7.69607723e-02 -7.66464323e-02 -5.86051270e-02 -3.70311923e-02
      -5.17428480e-02 -1.44932255e-01 -1.46329299e-01 -1.42219979e-02
      1.32949471e-01 1.71813264e-01 9.16489959e-02 4.49034944e-02
      -5.37032150e-02 -1.60622910e-01 -2.28724498e-02 -4.18952927e-02
      -6.02412149e-02 -7.69304186e-02 -8.50404426e-02 -2.95979418e-02
      -2.00630748e-03 -4.78736982e-02 -3.80075723e-02 -1.14996269e-01
      -5.05295843e-02 5.57808578e-02 1.26011118e-01 1.23040594e-01
      2.18804963e-02 -6.17132820e-02 -1.24877624e-01 -1.51770964e-01
      -1.23182975e-01 -1.33314312e-01 1.08136103e-01 1.66867360e-01
      1.90234661e-01 1.10800356e-01 2.04984277e-01 1.01413220e-01
      -2.19886638e-02 -7.72711262e-02 -7.52102956e-02 -5.71416132e-02
      4.61508632e-02 6.33855388e-02 6.15594760e-02 8.03775042e-02
      -1.17500843e-02 -7.66808689e-02 -4.89180498e-02 -1.88716590e-01
      -2.27042332e-01 -4.04573884e-03 6.29600137e-02 3.52805853e-02
      1.10917591e-01 6.89730123e-02 1.09734312e-02 -1.66508332e-01
      -1.32058442e-01 -7.80644789e-02 4.46314886e-02 5.51682264e-02
      7.38051087e-02 8.97445828e-02 -1.76023263e-02 -8.33139047e-02
      -9.84783992e-02 -9.07084048e-02 7.53560523e-03 1.46509260e-01
      1.94068953e-01 1.07760049e-01 1.61688194e-01 6.27236217e-02
      -3.57888006e-02 1.36693865e-02 6.65793894e-03 -3.81021537e-02
      3.31144072e-02 2.97703985e-02 1.21445954e-02 3.61520499e-02
      -1.94151774e-02 -2.78810058e-02 -6.76163957e-02 -1.58183783e-01
      -1.56755030e-01 2.23653801e-02 1.01728246e-01 4.96178009e-02
      9.48930681e-02 2.46572495e-02 -2.86584403e-02 -1.06953390e-01
      -8.47893581e-02 -2.81780213e-02 3.33049893e-02 4.55969125e-02
      5.30187562e-02 7.07531646e-02 -3.63777354e-02 -6.60266727e-02
      -4.85694110e-02 -2.55963933e-02 1.62088908e-02 9.25531685e-02
      1.13416247e-01 6.81848899e-02 1.01550013e-01 1.64858382e-02
      -3.41880955e-02 5.53890504e-02 1.73743237e-02 -2.19523106e-02
      -5.99797769e-03 -5.90509549e-02 -3.18521373e-02 6.51909388e-04
      5.20905107e-03 6.76482450e-03 -5.93211725e-02 -9.01190490e-02
      -4.19626422e-02 4.91796806e-02 8.14255849e-02 4.23849598e-02
      6.40037581e-02 -2.42877584e-02 -5.45594394e-02 -6.98241964e-02
      -7.20144138e-02 -5.18046096e-02 -2.15545762e-02 -8.87507666e-03
      1.89882275e-02 5.03702089e-02 -1.18729761e-02 -4.50651497e-02
      4.21002880e-03 2.13171244e-02 8.71069171e-03 2.84982156e-02
      1.38101941e-02 8.16475414e-03 2.97201015e-02 -2.35996041e-02
      -2.93390993e-02 4.93729971e-02 8.42962821e-04 1.24295307e-02
      -3.66715640e-02 -9.54392850e-02 -4.93631996e-02 -7.29741901e-03
      3.57585736e-02 3.62632461e-02 -5.36353216e-02 -4.97371331e-02
      -4.06877929e-03 2.47055497e-02 1.33917835e-02 7.95278046e-03
      2.69160755e-02 -6.32324144e-02 -7.63682872e-02 -2.70306934e-02
      -3.76845933e-02 -7.82386437e-02 -5.42543642e-02 -4.78805378e-02
      -4.53841686e-03 3.62648182e-02 8.03695340e-03 -9.23179835e-03
      3.88189889e-02 3.25774699e-02 4.99560917e-03 -4.23702523e-02
      -1.04325622e-01 -6.65554330e-02 -3.66937555e-02 -2.30482742e-02
      -1.72501560e-02 7.99250603e-03 -2.31446102e-02 2.19725408e-02
      -2.17001024e-03 -5.88535443e-02 -1.96782425e-02 3.76655138e-03
      4.00310848e-03 1.33640664e-02 -5.67447171e-02 -4.56266403e-02
      -4.21972126e-02 -5.39823957e-02 -6.14963584e-02 -3.06605455e-02
      4.75807441e-03 -5.14839254e-02 -8.43866169e-02 -1.12393657e-02
      2.39579175e-02 -4.82939631e-02 -1.66981630e-02 -2.10474860e-02
      -4.25012782e-03 2.40051728e-02 -1.62187330e-02 -7.18866801e-03
      3.04233488e-02 -2.68943748e-03 6.36021700e-03 -8.30857158e-02
      -1.58033594e-01 -1.09635837e-01 -5.73482625e-02 -2.71736924e-03
      -5.18019777e-03 -5.97606003e-02 -6.23362660e-02 2.14805007e-02
      6.65315688e-02 4.52227816e-02 4.30884175e-02 1.42420204e-02
      -4.25578952e-02 -5.25323264e-02 -5.87351918e-02 -5.28605320e-02
      -8.81623998e-02 -1.00080460e-01 -1.03438571e-01 -4.91390675e-02
      1.87190436e-03 -2.58400925e-02 -6.35368749e-02 -4.34047431e-02
      4.71140034e-02 3.16614062e-02 4.92106006e-02 3.30499597e-02
      3.15997214e-03 -6.79029757e-03 -6.36023879e-02 -5.49095720e-02
      -1.18253585e-02 -3.33787575e-02 2.46553472e-03 -5.15985973e-02
      -1.24619380e-01 -6.63964525e-02 -2.95064077e-02 -2.40779836e-02
      -2.70817019e-02 -1.35640904e-01 -1.40453517e-01 1.14757568e-02
      1.45884499e-01 1.73324987e-01 7.07104802e-02 1.44735401e-04
      -8.50412473e-02 -1.28949508e-01 -3.91438976e-02 -3.46187651e-02
      -1.02603517e-01 -8.85940120e-02 -7.20932111e-02 -3.32676210e-02
      6.80178311e-03 -3.02177835e-02 -4.00896445e-02 -1.02902830e-01
      2.96735298e-02 1.23505265e-01 9.37223434e-02 6.65377900e-02
      -1.55853562e-03 -5.08686565e-02 -1.01301283e-01 -1.33873329e-01
      -5.07036410e-02 -1.66374117e-01 -4.11564559e-02 1.17666557e-01
      1.80022746e-01 1.10054225e-01 2.63202071e-01 1.68121397e-01
      7.04724342e-02 -1.79160628e-02 -1.92725174e-02 -5.18823043e-02
      6.01563081e-02 1.24367133e-01 9.67805237e-02 1.38168529e-01
      2.06234958e-02 -1.43152513e-02 -1.55518185e-02 -2.13436499e-01
      -2.85473049e-01 -6.58175051e-02 -2.44458504e-02 8.95546656e-03
      5.83779328e-02 5.34913838e-02 4.36619557e-02 -1.64540499e-01
      -2.07901031e-01 -1.44192278e-01 1.11480383e-02 1.57684423e-02
      7.84123391e-02 8.56076777e-02 -6.08093292e-03 -8.61753449e-02
      -1.15507049e-02 -8.85356367e-02 -6.34375438e-02 1.11869961e-01
      1.88954428e-01 1.03204630e-01 1.96493864e-01 1.03411995e-01
      4.62320484e-02 1.17810909e-02 1.32437348e-02 -1.25153335e-02
      3.42440233e-02 5.39206900e-02 5.23546375e-02 7.21106976e-02
      7.12262758e-04 1.05728600e-02 -5.54079451e-02 -2.14476213e-01
      -2.37813517e-01 -4.59305979e-02 1.84991118e-02 2.63494290e-02
      5.97893037e-02 2.06768550e-02 7.12077273e-03 -1.00735128e-01
      -1.12259328e-01 -1.07335843e-01 -2.00532726e-03 1.29187712e-02
      4.64927442e-02 6.89182505e-02 -1.59225743e-02 -6.22967184e-02
      2.52051337e-04 -2.01208470e-03 1.30967945e-02 9.19646546e-02
      1.41007453e-01 7.13784769e-02 1.32083744e-01 3.63141298e-02
      3.05883773e-02 2.46673133e-02 -1.00942524e-02 -3.37601118e-02
      -3.28677557e-02 -5.25062494e-02 -2.90004769e-04 2.19824091e-02
      1.11206872e-02 4.25185673e-02 -6.13958463e-02 -1.72639325e-01
      -1.58399269e-01 -1.92546379e-02 1.43225929e-02 2.54543200e-02
      5.05243838e-02 -1.07775936e-02 -2.57390775e-02 -5.65791465e-02
      -4.88428697e-02 -9.88487005e-02 -4.71611321e-02 -3.49848047e-02
      1.15380637e-04 5.02860919e-02 6.51128823e-03 -2.92173326e-02
      1.32550793e-02 2.77115479e-02 4.18023877e-02 3.60778756e-02
      3.34160887e-02 1.84713937e-02 5.08802719e-02 -2.49768421e-02
      2.15704422e-02 4.08604741e-02 -2.57585719e-02 -4.12026346e-02
      -8.53709131e-02 -1.09013475e-01 -1.76264886e-02 1.35476207e-02
      4.97980975e-02 7.32064322e-02 -5.51537983e-02 -1.07676722e-01
      -1.07755497e-01 -3.35812941e-02 -3.41440849e-02 -6.81377808e-03
      1.98149607e-02 -4.13741879e-02 -5.72152361e-02 -2.43596584e-02
      8.37110821e-03 -8.13203901e-02 -6.48270026e-02 -6.92172348e-02
      -2.49600168e-02 3.05861328e-02 1.56286173e-02 -4.49923985e-03
      1.71940550e-02 2.71441322e-03 1.81065183e-02 -6.98020458e-02
      -9.76395383e-02 -4.65663634e-02 -1.27758123e-02 -2.79195979e-02
      2.73421668e-02 4.27681319e-02 -2.58070398e-02 -2.26346478e-02
      -5.62284365e-02 -5.78401424e-02 1.72012963e-03 2.90043931e-02
      2.30411496e-02 6.97005093e-02 -6.50176555e-02 -6.31215200e-02
      -1.02631219e-01 -8.50841627e-02 -9.73590836e-02 -4.86363396e-02
      -4.49767010e-03 -4.31895889e-02 -7.29432553e-02 -1.59935374e-02
      5.94512150e-02 -3.26709822e-03 -3.31993327e-02 -6.41450956e-02
      -2.57270262e-02 1.29271131e-02 -1.29180308e-02 -2.19770614e-02
      1.17619745e-02 -1.35439802e-02 -2.10858136e-02 -1.29003167e-01
      -1.64380699e-01 -7.97093660e-02 -2.41426490e-02 1.99437165e-03
      2.74052955e-02 -1.43797009e-03 -2.93114167e-02 -3.37845460e-03
      2.72858087e-02 4.04965095e-02 3.40372548e-02 1.38835600e-02
      -2.04306487e-02 1.45830559e-02 -7.05722570e-02 -5.23953289e-02
      -1.20779485e-01 -1.17130421e-01 -1.33922458e-01 -7.29892775e-02
      -1.50435977e-02 -2.77368017e-02 -7.23312795e-02 -3.73235047e-02
      7.22632483e-02 9.63534191e-02 1.93745289e-02 -3.01090572e-02
      -1.78719275e-02 -4.21845773e-03 -4.93275374e-02 -7.18140379e-02
      4.99248598e-03 -3.03796008e-02 -4.04428244e-02 -1.06448062e-01
      -1.13627948e-01 -5.11197001e-02 -3.21491132e-03 -8.74140300e-03
      2.16364302e-02 -7.88295791e-02 -9.00359154e-02 2.54111197e-02
      1.25373513e-01 1.25451371e-01 3.78647782e-02 -2.81965770e-02
      -7.79626220e-02 -7.03558475e-02 -5.91393970e-02 -1.06392931e-02
      -1.09764807e-01 -1.04780354e-01 -1.31635353e-01 -6.78216219e-02
      -1.16639901e-02 -2.94410959e-02 -6.98651969e-02 -6.17432296e-02
      3.30742821e-02 1.17859662e-01 5.32749780e-02 -2.01935042e-03
      -1.53417820e-02 -3.10258213e-02 -7.96276703e-02 -1.13462269e-01</_></support_vectors>
  <decision_functions>
    <_>
      <sv_count>1</sv_count>
      <rho>-4.7285572277911774e+00</rho>
      <alpha>
        1.</alpha>
      <index>
        0</index></_></decision_functions></my_svm>
</opencv_storage>
