<?xml version="1.0"?>
<opencv_storage>
<my_svm type_id="opencv-ml-svm">
  <svm_type>C_SVC</svm_type>
  <kernel><type>LINEAR</type></kernel>
  <C>1.0000000000000000e-02</C>
  <term_criteria><epsilon>1.1920928955078125e-07</epsilon>
    <iterations>1000</iterations></term_criteria>
  <var_all>1764</var_all>
  <var_count>1764</var_count>
  <class_count>2</class_count>
  <class_labels type_id="opencv-matrix">
    <rows>1</rows>
    <cols>2</cols>
    <dt>i</dt>
    <data>
      -1 1</data></class_labels>
  <sv_total>1</sv_total>
  <support_vectors>
    <_>
      2.00825110e-02 6.13647737e-02 6.38272390e-02 5.04908599e-02
      1.32299304e-01 7.19284788e-02 4.21767943e-02 -1.87058395e-05
      -3.34362104e-03 -6.66964129e-02 4.42963690e-02 -6.05144678e-03
      5.80036119e-02 9.24802348e-02 3.44317518e-02 -2.02346165e-02
      -6.73034191e-02 -1.05448797e-01 -6.29098415e-02 -5.96370734e-02
      1.16085894e-01 1.10274702e-01 3.42253149e-02 1.20439433e-01
      1.26234755e-01 4.06388193e-02 -1.58354957e-02 -1.56729192e-01
      -1.47400767e-01 -1.43816499e-02 -1.33303227e-02 -9.95664299e-02
      6.51360452e-02 3.73730548e-02 -6.31909743e-02 -1.22833557e-01
      -1.78007614e-02 5.65779209e-02 5.65026551e-02 7.86493272e-02
      1.70060456e-01 8.05961192e-02 3.13302800e-02 -2.71503013e-02
      -4.90648746e-02 -3.46018188e-02 4.84334789e-02 1.52306342e-02
      1.24988994e-02 -3.38705853e-02 -2.99122613e-02 -5.47345169e-02
      -7.06157833e-02 -6.77899420e-02 -7.28650540e-02 -8.82642493e-02
      1.57517027e-02 1.18527547e-01 5.70378602e-02 1.25644296e-01
      1.20520487e-01 1.15090040e-02 -4.62849736e-02 -8.87905657e-02
      -4.40080836e-02 6.84556440e-02 2.12669987e-02 -6.34418279e-02
      6.47854386e-03 -6.27134964e-02 -9.24392864e-02 -6.60581887e-02
      -3.56387682e-02 5.25215752e-02 5.07592075e-02 8.72772560e-02
      1.64606243e-01 5.89125417e-02 5.60884690e-03 -5.13374247e-02
      -7.35375956e-02 6.88178185e-03 6.90477341e-02 4.21292819e-02
      -3.27115580e-02 -1.53466567e-01 -7.65404478e-02 -8.86704773e-02
      -4.12359051e-02 -2.33796369e-02 -6.45009130e-02 -5.71257770e-02
      4.07128036e-02 1.09355107e-01 6.27613962e-02 1.29192978e-01
      1.12022772e-01 -6.78070076e-03 -3.52722742e-02 -3.86853851e-02
      -7.02171761e-04 4.12312262e-02 -4.20857407e-02 -9.09412801e-02
      -7.48452619e-02 -8.59621391e-02 -5.04167303e-02 -2.86401063e-02
      -1.82276517e-02 5.43533303e-02 4.89381738e-02 5.33317514e-02
      6.91212863e-02 9.37386230e-03 -2.89758276e-02 -5.77857159e-02
      -5.40926307e-02 5.32580614e-02 8.70363936e-02 5.33875600e-02
      -5.11171259e-02 -1.67211816e-01 -7.49406293e-02 -5.84972352e-02
      2.54937122e-03 4.40768376e-02 -2.38190368e-02 -6.15484407e-03
      9.27155986e-02 9.02054310e-02 1.09380595e-02 7.14206323e-02
      2.92186961e-02 -3.26681435e-02 1.61546748e-04 -2.25694589e-02
      7.29424693e-03 -5.11447676e-02 -1.19576976e-01 -1.31007299e-01
      -1.31430745e-01 -3.35590094e-02 -4.00350243e-02 -4.87991385e-02
      2.06725821e-02 6.01795353e-02 4.93971445e-02 -1.11157419e-02
      -6.14820160e-02 -3.18345167e-02 -4.98970337e-02 -3.12693454e-02
      -5.75874653e-03 6.39974475e-02 8.05021748e-02 4.58512679e-02
      -3.28050032e-02 -1.22939408e-01 -3.62324677e-02 -4.56639333e-03
      6.29204661e-02 8.02525356e-02 8.53220280e-03 3.29918191e-02
      7.44517148e-02 -2.22590659e-03 -7.41915703e-02 -3.94556932e-02
      -3.86600606e-02 -1.64942667e-02 1.43589685e-02 -2.47230288e-02
      -9.89152677e-03 -1.05330497e-01 -1.42640367e-01 -1.51674122e-01
      -1.32290989e-01 -5.49436100e-02 -8.13240483e-02 -5.88394254e-02
      6.27554283e-02 6.69113398e-02 4.37253863e-02 -5.83830476e-02
      -1.35364354e-01 -4.11840901e-02 -3.62806991e-02 2.96729021e-02
      6.52918443e-02 1.74394567e-02 5.78455888e-02 3.55728976e-02
      -7.56640034e-03 -6.49598986e-02 1.78406108e-03 3.94320227e-02
      6.67571425e-02 4.28112708e-02 -1.09240832e-03 3.67446952e-02
      -2.43719779e-02 -9.89214107e-02 -1.27257749e-01 -1.14240699e-01
      -1.39003806e-02 -2.47318931e-02 -3.48333120e-02 -4.24460880e-02
      -1.08444644e-02 -1.06685281e-01 -1.51154086e-01 -1.21980563e-01
      -1.42629534e-01 -1.04204290e-01 -8.06123689e-02 -3.56540605e-02
      7.71024972e-02 5.58310337e-02 2.11572032e-02 -7.32453987e-02
      -1.45443782e-01 -2.88580675e-02 1.44335357e-02 1.01544224e-01
      1.21229023e-01 -2.55330857e-02 3.26498635e-02 1.25880931e-02
      -1.55890375e-04 -1.77419204e-02 2.63445992e-02 3.91729176e-02
      2.51717251e-02 -3.26941162e-02 2.30198316e-02 3.52169015e-02
      -9.65206772e-02 -1.48664623e-01 -1.20377496e-01 -1.34475544e-01
      -4.58414219e-02 -5.76829575e-02 -2.59395782e-02 -8.00050199e-02
      -2.29663439e-02 -1.05482064e-01 -1.70774236e-01 -1.28616661e-01
      -1.32299453e-01 -5.86356111e-02 -6.32562339e-02 -7.39514604e-02
      -1.27658863e-02 6.58187121e-02 1.36569411e-01 5.31884767e-02
      1.04193494e-01 8.81989300e-02 5.91072254e-02 1.13568094e-03
      -2.00404339e-02 -1.33751184e-01 -7.37117976e-02 -1.70584414e-02
      6.27365783e-02 9.06997174e-02 3.65744829e-02 2.66733783e-04
      -5.86082712e-02 -1.16491310e-01 -5.04189990e-02 -5.93514144e-02
      3.02150715e-02 4.09311652e-02 -2.45095207e-03 4.78275381e-02
      9.01508778e-02 6.15921430e-02 2.21176017e-02 -9.93858874e-02
      -7.89189190e-02 -7.56444130e-03 -2.45214999e-02 -4.75822054e-02
      7.29417847e-03 2.75290273e-02 -6.71697501e-03 -7.46999308e-02
      -6.20610267e-02 3.37861069e-02 9.73866731e-02 9.18061212e-02
      1.45311862e-01 8.80390555e-02 3.99879701e-02 -2.99718026e-02
      -7.41531774e-02 -9.80638787e-02 -1.36370948e-02 2.80966796e-02
      1.80045776e-02 -3.22525688e-02 -3.74535471e-02 -5.08909337e-02
      -6.91383481e-02 -8.84185210e-02 -5.52390665e-02 -6.85629472e-02
      -1.50847053e-02 2.18792073e-02 -1.71957761e-02 4.17959280e-02
      7.69432485e-02 3.42293680e-02 -4.59605036e-03 -2.75528803e-02
      -1.65512636e-02 5.47094308e-02 3.49515788e-02 4.45175059e-02
      3.20199281e-02 -2.82046339e-03 -4.03384678e-02 -2.75413748e-02
      -8.53245035e-02 -4.48789494e-03 6.86610043e-02 9.73885208e-02
      1.45956472e-01 5.82322367e-02 1.19500486e-02 -5.27164191e-02
      -9.24198553e-02 -3.93726230e-02 4.50276509e-02 2.78582405e-02
      -4.66360860e-02 -1.59577370e-01 -1.02192245e-01 -1.04160748e-01
      -5.72396554e-02 -5.02053127e-02 -3.81849036e-02 -4.69348356e-02
      1.67573672e-02 4.10612337e-02 2.26026401e-02 6.01204596e-02
      7.03997090e-02 2.00650953e-02 -1.32496571e-02 2.94409748e-02
      1.74689032e-02 3.21907811e-02 2.09693052e-02 4.83766571e-02
      3.80960777e-02 1.67058278e-02 -1.19747361e-02 2.61407848e-02
      -7.66910762e-02 5.94509020e-03 5.45123145e-02 5.59476502e-02
      5.19946739e-02 1.89625297e-03 -2.78979912e-02 -6.44574314e-02
      -6.94731846e-02 1.54107148e-02 6.00463860e-02 -1.00221774e-02
      -9.76539999e-02 -2.32605487e-01 -1.33691207e-01 -1.00943610e-01
      -2.59277280e-02 -9.54688061e-03 -3.49514442e-03 2.51523074e-04
      5.48259206e-02 5.96723370e-02 5.56381196e-02 5.33982851e-02
      3.50646861e-02 -1.59841112e-03 3.96638224e-03 4.91308831e-02
      2.39887442e-02 -1.91301201e-02 -2.46316530e-02 1.66884847e-02
      1.12316571e-02 4.84828651e-02 2.93823760e-02 4.47058976e-02
      -3.08952630e-02 3.95232067e-02 4.66775261e-02 -3.01583335e-02
      -9.30584222e-02 -5.38755096e-02 -6.18326887e-02 -4.66897599e-02
      -3.19669619e-02 2.55254302e-02 5.28415330e-02 -3.39785665e-02
      -8.87769163e-02 -2.16074646e-01 -1.05067410e-01 -4.66506109e-02
      2.23903842e-02 2.97061801e-02 3.54784057e-02 2.06055138e-02
      4.08636965e-02 2.47532614e-02 2.92167701e-02 2.63974555e-02
      2.92895995e-02 7.68608181e-04 4.17974219e-02 2.71766149e-02
      4.35445784e-03 -4.58524562e-02 -2.83039678e-02 -1.18773626e-02
      -3.58189195e-02 -2.33395379e-02 -1.60087682e-02 2.46009696e-02
      3.00568379e-02 5.69127575e-02 7.35259941e-03 -8.92082229e-02
      -1.96817726e-01 -8.33236203e-02 -7.69767910e-02 -5.18277567e-03
      1.42678209e-02 -1.64088253e-02 4.52692620e-02 -1.42731462e-02
      -5.51967546e-02 -1.62003055e-01 -6.92391172e-02 7.75712729e-03
      3.46415453e-02 2.19267816e-03 5.49321361e-02 2.63443924e-02
      -1.29790120e-02 -3.66845950e-02 8.27095285e-03 1.77501794e-02
      6.32073134e-02 2.55946461e-02 4.62896526e-02 1.37713552e-02
      -2.60166451e-02 -8.43401253e-02 -7.60012046e-02 -4.09497805e-02
      -1.06536508e-01 -1.02390297e-01 -5.11119738e-02 1.26458947e-02
      6.01285473e-02 5.07162586e-02 -2.54749469e-02 -1.06864266e-01
      -2.22907498e-01 -9.31295455e-02 -3.06325369e-02 6.14164062e-02
      7.19930381e-02 -4.92209159e-02 2.79880706e-02 -1.92485619e-02
      -3.75956856e-02 -1.25202969e-01 -5.12664281e-02 1.84814241e-02
      -1.03522670e-02 -6.59021288e-02 7.47515485e-02 2.54752114e-02
      -3.96721102e-02 -4.61571850e-02 -7.61828944e-03 -2.60576345e-02
      -2.51888763e-02 3.86524596e-03 6.20519444e-02 -4.34641121e-03
      -4.95640300e-02 -1.04933329e-01 -1.40406281e-01 -8.64518657e-02
      -9.09785628e-02 -7.43604451e-02 -4.44108546e-02 -1.08721228e-02
      -2.76802145e-02 4.49645668e-02 1.75038293e-01 4.86959778e-02
      4.36507463e-02 7.98789933e-02 8.20490867e-02 1.75528899e-02
      -5.90850553e-03 -1.17812939e-01 -1.16372280e-01 1.04274517e-02
      4.65769023e-02 4.66894992e-02 4.04960476e-02 4.17553857e-02
      -3.18195932e-02 -7.52242729e-02 -2.66204514e-02 -4.42651846e-02
      -1.30827483e-02 -3.72073427e-02 -4.89685126e-02 -9.13025625e-03
      5.16280234e-02 6.42981902e-02 4.87973578e-02 -4.45053317e-02
      -2.42312513e-02 2.46957671e-02 -5.90705387e-02 -3.00436392e-02
      -6.15085699e-02 -2.48498507e-02 1.64401717e-02 -3.10271084e-02
      -5.92664517e-02 -2.10453123e-02 1.02802031e-01 8.00919533e-02
      8.18206742e-02 7.39634484e-02 5.70500717e-02 -1.16476165e-02
      -5.29032201e-02 -6.12462759e-02 -3.52020636e-02 4.78780158e-02
      1.01448810e-02 -6.41600695e-03 -1.45283798e-02 -1.64089762e-02
      -5.09750769e-02 -5.13917990e-02 -2.45061144e-02 -1.37423910e-02
      7.92861916e-03 -5.88993132e-02 -7.36688823e-02 -3.45492363e-02
      1.84225999e-02 4.85067740e-02 3.13990898e-02 4.04133461e-03
      2.45888382e-02 8.09443742e-02 3.22101638e-02 5.08189052e-02
      4.36278572e-03 -4.77249501e-03 -5.45293512e-03 -6.86805742e-03
      -7.07276389e-02 -5.09073883e-02 6.04005828e-02 7.64236972e-02
      9.59303752e-02 4.95087244e-02 3.35593112e-02 -3.49144898e-02
      -6.06167912e-02 -7.98598398e-03 2.47993972e-02 1.42640639e-02
      -4.61713299e-02 -8.88539925e-02 -7.62194544e-02 -6.81312978e-02
      -3.89571972e-02 -2.29018573e-02 -6.42220117e-03 1.73099395e-02
      4.25753966e-02 -2.40334813e-02 -1.02397054e-02 -2.55078562e-02
      1.29010770e-02 2.56854109e-02 1.64668057e-02 4.59746346e-02
      3.41623127e-02 6.55909330e-02 6.21122047e-02 8.06600377e-02
      5.52310720e-02 3.77987660e-02 1.64849928e-03 3.49965431e-02
      -5.62320948e-02 -2.94237193e-02 4.58114073e-02 2.90802401e-02
      2.76492517e-02 1.05805770e-02 -3.49659566e-03 -5.34998551e-02
      -4.18264978e-02 3.32162194e-02 4.03093770e-02 -4.68125902e-02
      -1.02023415e-01 -1.72383830e-01 -1.14608742e-01 -6.79608807e-02
      -8.13820772e-03 4.34114831e-03 1.31804692e-02 3.69660370e-02
      7.24036321e-02 2.94226222e-02 4.78225015e-02 -5.55648049e-03
      1.10396845e-02 1.20712258e-02 1.06042419e-02 5.62007651e-02
      4.49588969e-02 3.44064906e-02 4.13195752e-02 7.48558119e-02
      7.67199993e-02 7.08390400e-02 3.92487384e-02 6.70777932e-02
      -1.65827759e-02 8.00951011e-03 1.61007084e-02 -4.03169058e-02
      -7.97772929e-02 -4.19489667e-02 -4.11160029e-02 -3.92109901e-02
      -1.30694378e-02 1.89200621e-02 3.25254239e-02 -7.52048790e-02
      -1.06699735e-01 -1.74881414e-01 -1.18995845e-01 -6.10072725e-02
      -3.79037461e-03 1.48546305e-02 4.40301970e-02 1.73297524e-02
      5.60358129e-02 4.27863263e-02 6.33792207e-02 2.85486896e-02
      2.54362822e-02 7.29798339e-03 4.23183553e-02 4.71801162e-02
      3.49648818e-02 1.76773891e-02 4.79993224e-02 3.09876595e-02
      3.86363119e-02 3.96942943e-02 4.38285060e-02 6.69929162e-02
      2.76156366e-02 2.82655545e-02 -3.93112451e-02 -9.78529155e-02
      -1.54525101e-01 -8.33876058e-02 -5.50516658e-02 -3.58744664e-03
      1.75301433e-02 -1.76344402e-02 2.74714641e-02 -6.74595386e-02
      -8.90143886e-02 -1.57976687e-01 -1.02108307e-01 -3.57098803e-02
      -1.16266496e-02 -1.85080990e-02 6.03501312e-02 2.84594521e-02
      1.42464563e-02 1.37042496e-02 8.25439170e-02 7.40960166e-02
      5.11829704e-02 3.10950354e-02 6.01517484e-02 3.32485475e-02
      -1.94214992e-02 -5.17937057e-02 -8.68166238e-03 -2.89468328e-04
      -3.21043022e-02 -1.83681808e-02 1.35738505e-02 5.23108132e-02
      4.08886112e-02 3.53159569e-02 -6.70737103e-02 -1.06557459e-01
      -1.77025571e-01 -1.03480563e-01 -5.64795583e-02 2.72107385e-02
      4.40570191e-02 -4.17157561e-02 1.59459412e-02 -6.20080642e-02
      -7.89731294e-02 -1.72891498e-01 -8.93910304e-02 -1.23949647e-02
      -4.08880524e-02 -6.65321797e-02 6.23725466e-02 2.80343778e-02
      1.31339319e-02 2.87292823e-02 3.30718942e-02 5.12342826e-02
      4.49643396e-02 4.25446369e-02 8.25422406e-02 3.45042609e-02
      -4.13719602e-02 -9.67421532e-02 -8.31642300e-02 -4.07365710e-02
      -3.86969596e-02 -3.25839445e-02 2.43820134e-03 3.41012292e-02
      -1.04861688e-02 2.35083159e-02 1.18563406e-01 3.92521173e-02
      2.03435142e-02 3.75129431e-02 7.57274479e-02 4.66170013e-02
      3.02500445e-02 -5.37160486e-02 -6.93681315e-02 5.77623630e-03
      2.06034612e-02 3.46630672e-03 9.01130401e-03 4.63858694e-02
      2.35716696e-03 -2.13787537e-02 2.13161204e-03 -4.09858301e-02
      -4.72334586e-02 -1.29141659e-01 -1.04899883e-01 -9.71527305e-03
      6.79957718e-02 6.11768924e-02 5.41537255e-02 3.88859361e-02
      4.32562195e-02 6.83153421e-02 -8.75253305e-02 -6.31660819e-02
      -8.74754861e-02 -5.57015464e-02 -6.28246577e-04 3.49277556e-02
      -3.06153279e-02 -1.52109759e-02 5.19016162e-02 4.49111201e-02
      1.38404649e-02 2.01984774e-02 4.80986610e-02 1.67708173e-02
      -1.37081817e-02 -6.11140300e-03 -9.91875399e-03 4.54516225e-02
      1.27570191e-02 2.57003438e-02 5.88634517e-04 8.24370049e-03
      -1.74888540e-02 -3.82694975e-03 2.43531745e-02 8.63071810e-03
      2.36417819e-02 -1.15509309e-01 -1.20874763e-01 -5.11980653e-02
      -1.62389450e-04 4.97400239e-02 6.43250868e-02 4.46535163e-02
      6.60666823e-02 1.36017218e-01 3.48698609e-02 -1.36261750e-02
      -2.31861249e-02 -3.61763760e-02 -1.33772800e-02 1.80729870e-02
      -3.33428942e-02 -3.20752189e-02 3.03105842e-02 4.22440730e-02
      2.38659587e-02 5.30426344e-03 3.22611742e-02 -9.90257226e-03
      -2.70481929e-02 3.32729816e-02 2.45236140e-02 7.04922574e-03
      -2.02220269e-02 1.42233055e-02 -1.65230297e-02 -4.61129611e-03
      -5.34636574e-03 3.18240821e-02 4.74836230e-02 5.36197536e-02
      7.51067773e-02 -7.69451484e-02 -6.95210472e-02 -8.32863897e-02
      -3.29452232e-02 5.72634814e-03 4.99029979e-02 4.40812446e-02
      4.44622040e-02 1.31049290e-01 1.03290424e-01 4.64604013e-02
      1.82168595e-02 -9.75380279e-03 6.40989805e-04 3.46451961e-02
      -2.45631002e-02 -3.61249447e-02 3.02361492e-02 1.68185886e-02
      9.67889745e-03 5.06686280e-03 8.86541326e-03 -2.55770963e-02
      -2.51870323e-02 5.68855293e-02 3.20016257e-02 -4.81050797e-02
      -6.16886988e-02 -2.72775628e-02 -3.43471728e-02 1.68296583e-02
      2.67907549e-02 5.20220697e-02 4.69139367e-02 6.38279617e-02
      1.15162909e-01 7.11142202e-04 -3.02254651e-02 -6.26458824e-02
      -3.96453701e-02 -5.88183897e-03 2.36616675e-02 5.22145964e-02
      3.91713120e-02 8.61820802e-02 9.73937884e-02 7.79199675e-02
      5.94773144e-02 1.01184128e-02 1.64695960e-02 4.59968708e-02
      -1.09581556e-03 -1.80445220e-02 -2.19634436e-02 -2.96016708e-02
      -3.12922290e-03 -1.54260229e-02 -3.91149940e-03 -2.78830267e-02
      -3.44907661e-04 2.93109771e-02 1.45735415e-02 -7.68964440e-02
      -6.31737188e-02 -5.80936112e-02 -7.49097094e-02 -3.99087258e-02
      1.06326537e-02 3.26871090e-02 4.09393609e-02 3.35166045e-02
      1.11237258e-01 6.37921244e-02 4.04948182e-02 -3.14921536e-03
      -3.25531028e-02 -6.56156428e-03 2.90424544e-02 2.99730934e-02
      3.10999975e-02 5.16152531e-02 6.85769469e-02 4.61231060e-02
      6.31741732e-02 4.44057584e-02 3.66741605e-02 4.53634337e-02
      2.90734414e-02 4.45074122e-03 -6.26220778e-02 -7.68840536e-02
      -3.06854509e-02 -3.32467370e-02 -2.17124121e-03 3.04727396e-03
      2.68473830e-02 -2.45926715e-03 -1.15715684e-02 -1.03568852e-01
      -7.87162036e-02 -6.72684908e-02 -9.24911872e-02 -6.97949827e-02
      -2.01363489e-02 -1.06793093e-02 4.07411121e-02 2.95388307e-02
      4.80718464e-02 7.01446384e-02 8.43679830e-02 5.31671718e-02
      -6.39876956e-03 6.49625622e-03 4.15498912e-02 2.98346467e-02
      -1.44836456e-02 -2.19690241e-02 3.22510488e-02 2.17170902e-02
      2.75924802e-02 3.12533639e-02 3.60817239e-02 5.52207753e-02
      3.61131802e-02 1.52911888e-02 -7.83396289e-02 -6.41921014e-02
      -6.08519427e-02 -5.98616749e-02 -2.69883927e-02 1.89365335e-02
      3.87507305e-02 -1.73396245e-02 -3.15708518e-02 -1.22471154e-01
      -1.13992743e-01 -1.21782973e-01 -8.20818767e-02 -5.75152114e-02
      -4.25268188e-02 -4.59443554e-02 3.35847661e-02 1.26722464e-02
      4.13019992e-02 6.83221966e-02 6.20552264e-02 7.49189630e-02
      4.63125259e-02 4.39246818e-02 4.64240871e-02 4.79972586e-02
      -3.24400738e-02 -8.45607892e-02 -2.03848071e-02 1.59268938e-02
      4.69065271e-03 1.14203449e-02 1.96787212e-02 5.75571246e-02
      2.50973962e-02 2.09156852e-02 3.04010231e-02 -6.91764336e-03
      -3.55629879e-03 -1.78553723e-02 5.54560758e-02 6.78672045e-02
      7.63266981e-02 1.79668088e-02 1.53504647e-02 1.91106889e-02
      -3.52159254e-02 -1.31942201e-02 -4.58139777e-02 -1.04130572e-03
      2.24228222e-02 3.18894945e-02 1.80897471e-02 -3.22978646e-02
      -8.57182816e-02 -2.02245921e-01 -1.72036871e-01 3.71410362e-02
      1.17714033e-01 8.46273303e-02 5.14739715e-02 1.37174532e-01
      1.32259369e-01 9.26781893e-02 -8.94461200e-02 -1.28979772e-01
      -6.34765550e-02 -3.31125781e-02 1.04662543e-02 9.93949324e-02
      2.50577717e-03 1.84981655e-02 8.59443657e-03 -3.79830711e-02
      -5.41180931e-02 -4.98365536e-02 1.13263698e-02 3.71419080e-02
      3.30924913e-02 2.52123475e-02 3.77961397e-02 6.30820096e-02
      8.58923420e-03 3.18147391e-02 -6.60859328e-03 -1.61050018e-02
      -6.11977186e-03 1.32735446e-02 6.99935481e-02 3.84945497e-02
      2.16077082e-02 -1.41012043e-01 -1.73524395e-01 -1.35960821e-02
      3.22652794e-02 7.42139742e-02 9.22034383e-02 8.90693814e-02
      1.41850725e-01 1.94863111e-01 4.24360819e-02 -7.72881806e-02
      -4.61031646e-02 -3.51636820e-02 -1.34900399e-02 3.92750353e-02
      -1.53782070e-02 4.47944691e-03 2.69517042e-02 -3.18528898e-02
      -4.31069992e-02 -6.37172088e-02 -6.01850078e-03 6.10042457e-03
      -2.79671792e-03 2.76201367e-02 1.98662207e-02 2.91536115e-02
      2.60520913e-02 5.19673191e-02 2.64542773e-02 8.41666944e-03
      -4.96790046e-03 2.59896833e-02 1.06954463e-01 1.12305798e-01
      9.49305147e-02 -9.26764011e-02 -1.45151421e-01 -7.45706856e-02
      -4.18687351e-02 9.95067228e-03 8.63049775e-02 4.68901508e-02
      8.65059718e-02 2.09018603e-01 1.37976900e-01 9.76820849e-03
      -4.36285464e-03 -3.02893445e-02 7.48714525e-03 3.44830081e-02
      -2.45304108e-02 -1.13389920e-02 2.42139027e-02 -1.73118468e-02
      -8.82679131e-03 -3.82445119e-02 -1.53223360e-02 -8.54396913e-03
      -2.28003711e-02 2.81055756e-02 6.92972681e-03 -1.23275938e-02
      1.03570847e-02 4.43691723e-02 3.68454605e-02 4.54243459e-02
      2.28111316e-02 3.92859466e-02 7.98326805e-02 1.26526430e-01
      1.70021147e-01 1.39262469e-03 -1.02100380e-01 -7.73647353e-02
      -5.01028337e-02 -2.60765813e-02 2.91679576e-02 4.57836054e-02
      3.86090688e-02 1.30674750e-01 1.43668160e-01 7.95932040e-02
      3.86873037e-02 -3.16874310e-02 9.45871323e-03 3.46862748e-02
      -1.01970714e-02 -3.39296870e-02 -2.24745870e-02 -2.30414309e-02
      3.64177190e-02 -1.05969841e-02 -1.14534795e-02 -1.56110283e-02
      -7.81734940e-03 8.93207919e-03 -1.74541734e-02 -4.65151779e-02
      1.09031852e-02 -2.43922928e-03 -2.27299216e-03 1.33908214e-02
      1.71408672e-02 2.76564546e-02 3.99006270e-02 8.75631422e-02
      1.78146198e-01 8.82760361e-02 -1.17075136e-02 -2.41134316e-02
      -4.41180132e-02 -1.53065706e-02 1.18836835e-02 2.19778176e-02
      2.24982388e-02 5.47822416e-02 9.15686488e-02 8.32157433e-02
      6.11281134e-02 1.83865875e-02 2.49835365e-02 1.45924957e-02
      4.86903451e-03 -1.37120541e-02 -4.97953668e-02 -2.44227517e-02
      4.78238910e-02 1.82600562e-02 2.21363548e-02 -3.46639869e-03
      1.33104604e-02 -1.95982307e-03 -5.80071732e-02 -1.14183970e-01
      -4.58146818e-02 -2.94098444e-02 -4.54797223e-02 -3.91185209e-02
      -8.06241669e-03 6.60747383e-03 2.42079645e-02 3.57121676e-02
      1.08234532e-01 1.26463532e-01 8.48675072e-02 2.57279854e-02
      -2.34329160e-02 5.16264327e-03 1.57972071e-02 1.46036502e-02
      -1.38590643e-02 -2.70970743e-02 3.95510718e-02 6.12430871e-02
      4.92007099e-02 3.74983363e-02 3.74126919e-02 3.65186892e-02
      1.41704939e-02 -2.10274477e-02 -5.44180237e-02 5.68415783e-03
      1.54520161e-02 1.34942001e-02 2.70545799e-02 1.36969378e-02
      2.66423281e-02 1.99502008e-03 -8.00533146e-02 -1.60429969e-01
      -1.23486295e-01 -7.60013014e-02 -5.29595129e-02 -4.50217351e-02
      -2.08003819e-02 -1.07970973e-02 3.11618540e-02 1.13393208e-02
      5.57615347e-02 1.07042424e-01 1.05305076e-01 7.47856051e-02
      3.94830853e-02 4.30235490e-02 2.77777929e-02 4.43718322e-02
      -3.97029631e-02 -6.40501156e-02 1.77061893e-02 5.43169938e-02
      2.28786934e-02 2.28062924e-02 2.38575097e-02 5.46766855e-02
      4.17912975e-02 1.63319223e-02 -4.60797101e-02 -1.13439694e-01
      -5.18821627e-02 -4.17031683e-02 7.37240538e-02 8.82942379e-02
      9.27666798e-02 8.97601098e-02 1.00918442e-01 4.75505032e-02
      -9.48558599e-02 -4.77723479e-02 -7.39822388e-02 -5.37430979e-02
      1.35138771e-02 7.37811923e-02 1.87084209e-02 -1.75902918e-02
      -1.30933255e-01 -2.53270060e-01 -2.04814091e-01 7.12417662e-02
      1.78023949e-01 1.15632869e-01 4.67363074e-02 1.83930829e-01
      1.88442230e-01 9.72224474e-02 -9.12199244e-02 -1.71770111e-01
      -6.50786329e-03 1.02114072e-02 4.42727022e-02 1.42022923e-01
      3.76502723e-02 3.26956101e-02 -1.91243198e-02 -1.39735997e-01
      -1.16899095e-01 -9.03210267e-02 -1.67360324e-02 4.87194657e-02
      6.89033940e-02 6.21363074e-02 9.81487483e-02 1.21318206e-01
      1.09016206e-02 -2.10466702e-02 -2.81755328e-02 -5.08693606e-02
      -2.14552507e-02 2.45374180e-02 9.34847519e-02 6.88905343e-02
      9.38328356e-03 -1.76298082e-01 -1.97076663e-01 2.96186972e-02
      9.88806859e-02 1.15265496e-01 1.14719287e-01 1.11112282e-01
      1.91412002e-01 2.31215104e-01 2.59729680e-02 -1.03464186e-01
      -2.75495350e-02 -1.23158330e-02 -9.50019620e-03 5.83652146e-02
      2.85573062e-02 4.51031327e-02 2.84789279e-02 -1.18823715e-01
      -9.99466479e-02 -1.12163201e-01 -5.75831085e-02 -2.47922936e-03
      3.06396261e-02 1.49217993e-02 2.69157272e-02 9.91744623e-02
      7.63777792e-02 1.71560962e-02 3.02996230e-03 -3.58173028e-02
      -2.18189266e-02 1.70451391e-03 1.43933669e-01 1.57134727e-01
      9.10592079e-02 -1.14502355e-01 -1.85654894e-01 -3.13041918e-02
      -2.39596777e-02 3.73742133e-02 1.19653895e-01 4.76107672e-02
      1.21100344e-01 2.62910247e-01 1.32789537e-01 7.45506724e-03
      3.35640344e-03 -6.79241540e-03 2.79491004e-02 3.59107070e-02
      -7.10394583e-04 2.20553987e-02 6.97717145e-02 -4.79038768e-02
      -6.98985383e-02 -8.30219761e-02 -6.60453364e-02 -2.07624435e-02
      -1.57709382e-02 -1.51916698e-03 -1.15266233e-03 4.74626794e-02
      7.44214505e-02 5.86800799e-02 3.94988433e-02 -1.08687142e-02
      -1.76514275e-02 -3.98464408e-03 1.02332801e-01 1.77362800e-01
      1.88892007e-01 -2.08806749e-02 -1.43754750e-01 -5.10774143e-02
      -2.96176132e-02 -2.74578929e-02 4.27014194e-02 3.91346440e-02
      4.24742810e-02 1.65708795e-01 1.61968276e-01 9.29731876e-02
      3.36828604e-02 -1.32596993e-04 2.35075299e-02 3.79381739e-02
      -1.30367493e-02 -2.07534786e-02 4.51728739e-02 1.72952786e-02
      -4.00242023e-03 -3.26301865e-02 -5.97845614e-02 -4.28196676e-02
      -2.06221342e-02 -2.86727250e-02 -1.11469822e-02 4.05886443e-03
      5.42585365e-02 3.17944176e-02 3.63290422e-02 1.84188895e-02
      7.42627308e-04 -1.76941622e-02 3.44433151e-02 1.30526468e-01
      2.18064189e-01 7.71229342e-02 -3.99408713e-02 -2.80543696e-02
      -1.22242738e-02 -1.21070510e-02 4.64468589e-03 2.23542098e-02
      1.42062157e-02 5.92668355e-02 1.10466197e-01 1.23057865e-01
      4.45798896e-02 1.56999752e-02 2.19505969e-02 2.04092246e-02
      -1.97782349e-02 -2.35028882e-02 -1.38711315e-02 4.53681760e-02
      6.03738986e-02 2.32670270e-02 -2.69017387e-02 -4.56700884e-02
      -2.97867283e-02 -3.33502926e-02 -5.82111590e-02 -8.06872696e-02
      2.33987835e-03 -4.77517955e-03 1.01020308e-02 4.03171265e-03
      -3.13037564e-03 1.15886563e-03 1.81660671e-02 5.69049232e-02
      1.59469828e-01 1.35347471e-01 7.00032115e-02 1.49965826e-02
      1.01625388e-02 2.10393481e-02 2.11132150e-02 7.47343479e-03
      -1.93268079e-02 -6.05167542e-03 5.26313297e-02 8.47620964e-02
      3.08997091e-02 1.68180913e-02 2.79120877e-02 2.40500122e-02
      -2.39155125e-02 -3.02223079e-02 -2.56444272e-02 5.20920828e-02
      5.17779775e-02 5.54023720e-02 2.29838844e-02 -2.81211664e-03
      -1.61479041e-02 3.39892856e-03 -8.64786729e-02 -1.62854224e-01
      -7.39876181e-02 -3.71149182e-02 -2.17549293e-03 -8.65293574e-03
      -7.93650746e-03 1.17850788e-02 3.65611911e-02 1.61424223e-02
      8.31944346e-02 1.33665308e-01 1.27644911e-01 5.88047542e-02
      4.41198014e-02 5.09222783e-02 4.02045734e-02 3.20491046e-02
      -4.08098884e-02 -3.83212268e-02 2.50357073e-02 6.94007948e-02
      1.65685005e-02 1.16467159e-02 2.44605374e-02 3.33288610e-02
      4.50497568e-02 1.09835900e-02 -9.18021873e-02 -2.47446001e-01
      -1.79005921e-01 -2.59982180e-02 1.22144155e-01 1.20511562e-01
      9.51476097e-02 2.02907860e-01 2.11334497e-01 6.27829432e-02
      -1.38127893e-01 -9.22826454e-02 -4.93445545e-02 -3.26400474e-02
      2.31353263e-03 1.26686499e-01 1.14851771e-02 -7.01715332e-03
      -1.66438863e-01 -2.98516661e-01 -2.17190444e-01 6.39068112e-02
      2.13376924e-01 1.31268233e-01 3.59000117e-02 2.01736972e-01
      1.83576018e-01 9.38522145e-02 -1.37839183e-01 -1.71918839e-01
      5.86736538e-02 7.16263130e-02 9.14105549e-02 1.76110104e-01
      9.12593380e-02 6.44884780e-02 -4.12004292e-02 -2.20426798e-01
      -1.87020510e-01 -7.23610520e-02 -4.59662359e-03 7.42785558e-02
      1.13727383e-01 1.17658347e-01 1.91627905e-01 1.73152819e-01
      3.44993576e-04 -1.00443050e-01 -6.26294985e-02 -3.00741084e-02
      -9.20186657e-03 4.50889245e-02 9.48589146e-02 7.32884780e-02
      -3.39236371e-02 -2.54348636e-01 -2.22159043e-01 3.27056609e-02
      1.58042356e-01 1.39940977e-01 1.16643324e-01 1.32473558e-01
      1.85770616e-01 2.27926284e-01 -2.05117147e-02 -1.05381675e-01
      2.06665564e-02 8.67716968e-03 1.06378561e-02 7.88781568e-02
      1.12004541e-01 1.21930405e-01 4.19675820e-02 -1.57047510e-01
      -1.78968415e-01 -1.13775618e-01 -6.98190555e-02 -1.64992511e-02
      7.99366608e-02 2.17800159e-02 7.02425987e-02 1.89540833e-01
      1.24027222e-01 -3.58356871e-02 -4.30973284e-02 -5.52276783e-02
      -5.00412146e-03 1.29591422e-02 1.54278666e-01 1.53897330e-01
      5.85933402e-02 -1.88703671e-01 -2.38650680e-01 -6.02934975e-03
      3.47938277e-02 6.91482276e-02 1.34216920e-01 3.52899581e-02
      1.19331181e-01 2.66000986e-01 9.31916311e-02 -1.33576756e-03
      3.27493101e-02 1.34282308e-02 3.16668302e-02 2.47094892e-02
      5.50929680e-02 1.12319954e-01 1.26356274e-01 -4.42539528e-02
      -1.48307309e-01 -1.05300993e-01 -7.85458758e-02 -3.50238904e-02
      5.54101355e-03 8.17787368e-03 2.18706597e-02 1.18720181e-01
      1.28482834e-01 3.43716815e-02 1.01983482e-02 -5.95617853e-02
      -1.62649564e-02 -6.22961996e-03 1.16523653e-01 1.76693246e-01
      1.62615627e-01 -8.78840163e-02 -1.90530047e-01 -2.41758861e-02
      -1.87115148e-02 -1.00840889e-02 6.32040724e-02 1.95856113e-02
      4.30448353e-02 1.80656642e-01 1.38702199e-01 7.02895448e-02
      4.07473892e-02 1.95872374e-02 3.66390944e-02 2.27841027e-02
      -7.01839919e-04 3.71895507e-02 1.25530362e-01 5.37466444e-02
      -6.30874634e-02 -6.57404736e-02 -8.98357928e-02 -4.06471640e-02
      -1.23684518e-02 -2.45304387e-02 -2.25245603e-03 4.19450179e-02
      9.68192592e-02 5.88466339e-02 3.79627943e-02 4.66792757e-04
      4.01994307e-03 -4.36132699e-02 3.80131453e-02 1.38031796e-01
      2.12679267e-01 1.99801289e-02 -8.87163207e-02 -1.19129689e-02
      -9.44652501e-03 -1.12694679e-02 -2.65579927e-03 8.07674136e-03
      1.22450590e-02 5.96454740e-02 1.05816871e-01 9.69198570e-02
      3.19885798e-02 1.11642247e-02 1.65776126e-02 1.63931549e-02
      -2.42406726e-02 -5.12474496e-03 4.83090542e-02 9.73557979e-02
      3.07436325e-02 -9.38267075e-03 -7.85670727e-02 -4.79548350e-02
      -4.27753069e-02 -3.68263163e-02 -5.44909090e-02 -5.06531186e-02
      4.25004549e-02 3.53740305e-02 3.83606330e-02 2.27662791e-02
      1.06750336e-02 -4.25581867e-03 2.51118722e-03 6.97735399e-02
      1.94361553e-01 1.04788132e-01 1.44482339e-02 1.75297465e-02
      1.91460587e-02 2.23912112e-02 2.59181089e-03 7.72471912e-03
      -8.21750518e-03 9.15630534e-03 5.84764928e-02 8.83472115e-02
      2.00437326e-02 5.31649776e-03 1.40898656e-02 1.02990884e-02
      -4.81230095e-02 -1.54324798e-02 -3.72683257e-03 8.82659554e-02
      6.71953410e-02 5.10298051e-02 -5.90603286e-03 -1.12985512e-02
      -6.32799789e-02 2.76971376e-03 -7.71431327e-02 -1.36160567e-01
      3.15040466e-03 2.58843042e-02 2.29713265e-02 9.51404404e-03
      1.00135047e-04 2.51081176e-02 2.06925981e-02 2.61388719e-02
      1.10655747e-01 1.27053440e-01 8.01559389e-02 3.76471467e-02
      3.05398609e-02 4.00044732e-02 3.18256207e-02 1.91122270e-03
      -3.95369418e-02 -4.97411145e-03 2.83637419e-02 6.52073845e-02
      1.02691054e-02 8.42771307e-03 1.87355857e-02 1.55590684e-03</_></support_vectors>
  <decision_functions>
    <_>
      <sv_count>1</sv_count>
      <rho>-1.3952986802616407e+00</rho>
      <alpha>
        1.</alpha>
      <index>
        0</index></_></decision_functions></my_svm>
</opencv_storage>
