<?xml version="1.0"?>
<opencv_storage>
<my_svm type_id="opencv-ml-svm">
  <svm_type>C_SVC</svm_type>
  <kernel><type>LINEAR</type></kernel>
  <C>1.0000000000000000e-02</C>
  <term_criteria><epsilon>1.1920928955078125e-07</epsilon>
    <iterations>1000</iterations></term_criteria>
  <var_all>1764</var_all>
  <var_count>1764</var_count>
  <class_count>2</class_count>
  <class_labels type_id="opencv-matrix">
    <rows>1</rows>
    <cols>2</cols>
    <dt>i</dt>
    <data>
      -1 1</data></class_labels>
  <sv_total>1</sv_total>
  <support_vectors>
    <_>
      5.01197912e-02 -3.90299559e-02 -7.65475109e-02 -2.33056415e-02
      3.45780775e-02 3.05345841e-02 3.41437794e-02 3.89829986e-02
      7.76812360e-02 -4.63851504e-02 -1.11747282e-02 -3.95167880e-02
      -2.23301444e-02 4.99616489e-02 -1.55554852e-02 -8.09597969e-02
      -3.53551060e-02 -5.88962175e-02 5.99794742e-03 -7.06608444e-02
      -9.64003727e-02 -2.45462041e-02 1.83691345e-02 9.09570903e-02
      7.75187537e-02 6.29005730e-02 6.64740428e-02 9.20012221e-03
      3.59378709e-03 -1.30287921e-02 1.40198488e-02 3.96379940e-02
      3.71288769e-02 5.46988938e-03 -7.22154453e-02 -1.00401156e-01
      1.55487508e-02 -5.70791103e-02 -6.60184473e-02 -1.84485782e-02
      4.87234667e-02 3.13508920e-02 1.28700919e-02 3.32622603e-02
      5.12105785e-02 4.95308777e-03 2.80237123e-02 -5.70670664e-02
      -1.81271043e-02 3.36258411e-02 -6.21751770e-02 -1.43089026e-01
      -8.49377289e-02 -5.37860096e-02 -2.82744020e-02 -2.10694782e-02
      5.05820895e-03 2.24407073e-02 7.46938214e-02 7.47774392e-02
      4.48635742e-02 1.86281074e-02 -1.25440769e-02 -1.46599382e-03
      1.24933384e-02 1.21185193e-02 -6.34049671e-03 -2.01153965e-03
      9.41827055e-03 -6.45429790e-02 -1.35262564e-01 -1.02374248e-01
      -2.05609575e-02 -3.48524451e-02 -3.05425841e-02 -4.21488425e-03
      5.02598174e-02 -3.35796899e-03 -6.06545061e-02 -1.13214320e-02
      -1.40910791e-02 5.51292039e-02 -1.13114621e-02 -1.14844821e-01
      -2.98216306e-02 3.06353476e-02 -6.84193447e-02 -1.30442679e-01
      -6.69829920e-02 1.28753437e-02 -3.71571928e-02 1.43276220e-02
      2.84777973e-02 6.55320361e-02 1.09553158e-01 2.91254353e-02
      -2.79100575e-02 -4.91113178e-02 -7.93129578e-02 3.96228541e-04
      -1.62387080e-02 -2.82126777e-02 -1.38282645e-02 -2.26264019e-02
      2.02189200e-02 -4.94396314e-02 -5.63648455e-02 -2.77702268e-02
      -1.12378132e-02 1.42576371e-03 -1.32251903e-02 3.24054109e-03
      3.31218876e-02 -5.70506789e-02 -1.28969684e-01 -6.50516748e-02
      -4.17119227e-02 4.47559915e-02 -7.45960400e-02 -1.56825691e-01
      -3.21085565e-02 5.97351342e-02 -3.10711358e-02 -6.78346753e-02
      -3.40966391e-03 5.02485186e-02 -1.55961430e-02 1.23415794e-02
      1.17326947e-02 6.45039156e-02 8.20288882e-02 -1.60173550e-02
      -5.94161078e-02 -8.67020935e-02 -8.78796503e-02 -2.41454784e-02
      -8.54188725e-02 -5.02457060e-02 -4.03166423e-03 2.75370926e-02
      6.60507381e-02 2.60854438e-02 3.23524065e-02 6.28137682e-03
      3.16286981e-02 6.19417662e-03 -5.26654460e-02 -2.60202819e-03
      1.14509361e-02 -8.92200321e-02 -1.52593136e-01 -7.11978897e-02
      -4.05317126e-03 -1.38510121e-02 -1.06943861e-01 -1.42822221e-01
      -4.77330526e-03 8.66276845e-02 1.39277158e-02 1.33607797e-02
      3.71434353e-02 2.71415263e-02 -1.43204136e-02 -1.56875066e-02
      -3.36131603e-02 4.88389544e-02 4.20308597e-02 -7.30854785e-03
      -6.55291677e-02 -5.53125888e-02 -1.66458506e-02 -4.05978300e-02
      -1.27316490e-01 -3.92166749e-02 3.48664559e-02 1.11116454e-01
      8.76892656e-02 6.37658760e-02 2.92550828e-02 -3.66880149e-02
      2.63185743e-02 -4.17829789e-02 -1.19818650e-01 -9.07067861e-03
      2.17324160e-02 -7.42210969e-02 -1.17459603e-01 -2.94031277e-02
      2.69009080e-02 -4.86515947e-02 -6.73825145e-02 -8.11909959e-02
      2.58978195e-02 6.25263080e-02 2.30940562e-02 3.13287824e-02
      2.81887390e-02 -4.41653514e-03 -4.53386344e-02 -7.80662969e-02
      -7.87372664e-02 2.17593517e-02 2.88009383e-02 3.40052955e-02
      1.99077595e-02 1.72214899e-02 -1.01888075e-03 -3.86250205e-02
      -1.03452466e-01 3.43682393e-02 3.34615745e-02 4.65286411e-02
      5.44297732e-02 -3.32062431e-02 -7.74565563e-02 -5.60917072e-02
      -2.57174615e-02 -9.21407193e-02 -1.44429654e-01 7.12516368e-04
      5.61555065e-02 -2.50558034e-02 -3.70342731e-02 1.86111219e-02
      1.63681433e-02 -9.65178106e-03 3.76287438e-02 3.57606895e-02
      4.32691127e-02 1.84756387e-02 -3.45990923e-03 -6.01709913e-03
      5.35526825e-03 -7.39193708e-03 -4.55587357e-02 -9.60645899e-02
      -5.76102659e-02 3.19545716e-02 7.58905932e-02 5.72238229e-02
      5.94697222e-02 1.95681560e-03 -5.52042201e-02 -1.46180969e-02
      -1.40231643e-02 1.02472551e-01 6.27325568e-03 -4.65175547e-02
      -3.07892729e-02 -1.86831787e-01 -1.45462185e-01 -2.91488394e-02
      6.15754798e-02 -1.96737573e-02 -6.22802712e-02 -2.66387835e-02
      5.40838577e-02 4.46932316e-02 4.82959077e-02 4.74536680e-02
      8.52109194e-02 -3.98550257e-02 1.23555595e-02 -3.88814486e-03
      -2.57839123e-03 6.41526431e-02 -2.39859968e-02 -8.01615715e-02
      -5.45981564e-02 -7.17855468e-02 8.69893469e-03 -4.49599922e-02
      -9.22341049e-02 -6.83592781e-02 -1.64331831e-02 3.88342552e-02
      1.38103608e-02 2.23871917e-02 2.97442917e-02 1.12988567e-02
      1.62229482e-02 5.43470727e-04 -3.46336775e-02 2.68356525e-03
      -8.84064659e-03 8.43217713e-05 -5.24012931e-02 -5.56168295e-02
      2.08841264e-02 -2.47740969e-02 -2.79188585e-02 -1.86773762e-02
      6.18358552e-02 3.76966447e-02 1.13168396e-02 2.91306898e-02
      4.73790690e-02 4.12749965e-03 2.80757826e-02 -2.35381089e-02
      1.73680228e-03 3.38373259e-02 -7.30567351e-02 -1.38213798e-01
      -1.00929148e-01 -6.31498247e-02 -3.17725725e-02 -2.36588456e-02
      -1.42319156e-02 -2.92874463e-02 3.06896698e-02 2.17450205e-02
      -8.28143489e-03 -1.71411969e-02 -2.67993417e-02 3.81496357e-04
      1.53776938e-02 1.58962291e-02 -1.03199016e-02 -3.82347852e-02
      -2.85113119e-02 -2.12771092e-02 -6.80756718e-02 -6.27939999e-02
      -3.52447084e-03 7.26743368e-03 6.82443008e-03 6.72690477e-03
      5.64423352e-02 -1.34616597e-02 -7.32367858e-02 -3.34841274e-02
      -2.44150795e-02 2.78789215e-02 -1.44590326e-02 -6.56547397e-02
      -1.85632184e-02 3.06283850e-02 -6.58220500e-02 -1.05653539e-01
      -5.87720014e-02 8.90325475e-03 -3.80970351e-02 1.80810113e-02
      1.41568864e-02 1.29913930e-02 4.35520932e-02 -6.12986879e-03
      -3.73361185e-02 -5.40632345e-02 -6.07142076e-02 -2.34021954e-02
      -5.20378025e-03 -1.73339806e-02 -2.56479122e-02 -7.87057430e-02
      -1.67884696e-02 -1.31141860e-02 -3.58765237e-02 -4.42510732e-02
      1.47773223e-02 2.66945325e-02 7.70204188e-03 1.75848454e-02
      3.17712016e-02 -7.02808127e-02 -1.28600210e-01 -8.16846192e-02
      -4.04680409e-02 -5.31159341e-03 -8.49062949e-02 -1.05878524e-01
      -3.00360154e-02 7.09462240e-02 -1.71177145e-02 -3.86158042e-02
      7.90925696e-03 3.31699848e-02 -2.49005463e-02 8.19327030e-03
      8.12141225e-03 3.22225876e-02 1.86047312e-02 -3.43723260e-02
      -2.42028013e-02 -4.83800098e-02 -5.47916330e-02 -3.99484597e-02
      -5.47608286e-02 -4.91549522e-02 -2.90226117e-02 -2.71054022e-02
      2.95242704e-02 3.77355814e-02 2.42651440e-03 -3.82989421e-02
      2.98674181e-02 5.22975018e-03 -4.92995456e-02 1.66518753e-03
      1.71360262e-02 -7.92394653e-02 -1.19520754e-01 -6.72372431e-02
      6.15757564e-03 -6.40124753e-02 -1.12662919e-01 -9.38065350e-02
      -1.72228962e-02 1.08060867e-01 2.88727935e-02 1.67771112e-02
      3.13847326e-02 -1.58010703e-02 -3.23893875e-02 -1.60567425e-02
      -2.67696790e-02 1.60723757e-02 -2.47099139e-02 -1.71899479e-02
      -1.76349282e-02 -2.47423854e-02 -3.01126949e-02 -3.93674076e-02
      -6.26003742e-02 -2.42371541e-02 -5.03255660e-03 5.44338226e-02
      4.52447981e-02 5.02852947e-02 -6.38994016e-03 -3.83874364e-02
      -1.46257523e-02 -6.36112615e-02 -1.17021821e-01 -1.35129346e-02
      5.10004833e-02 -4.21409085e-02 -6.12291023e-02 -1.26697812e-02
      2.09677834e-02 -7.53855556e-02 -6.24474846e-02 -3.71106565e-02
      1.12940166e-02 7.20602795e-02 2.42682453e-02 2.48784982e-02
      -1.24079932e-03 -5.93814962e-02 -4.39723395e-02 -3.67743373e-02
      -6.60090074e-02 -1.05969971e-02 -1.50487386e-02 2.49588117e-02
      4.18422930e-02 9.56868054e-04 -3.26144621e-02 -3.93988602e-02
      -4.18443643e-02 3.70878167e-02 -1.36400471e-02 -2.58174632e-02
      1.00019323e-02 -1.99647080e-02 -5.53073771e-02 -2.51340251e-02
      -8.11655894e-02 -1.12786792e-01 -1.18924595e-01 -8.22558813e-03
      1.01507992e-01 1.09360479e-02 -1.09953545e-02 1.59187261e-02
      -2.54733954e-02 1.37848109e-02 6.05826080e-02 4.56774831e-02
      2.90328097e-02 3.67535762e-02 -8.82443320e-03 -2.87064444e-02
      -2.25387271e-02 -3.73543724e-02 -2.49882415e-02 -2.46670879e-02
      -2.77928822e-02 -7.96705019e-03 3.05541363e-02 3.52524407e-02
      5.20381145e-02 -1.29614146e-02 -4.03144769e-02 -1.28263533e-02
      -4.13160631e-03 7.25077540e-02 -5.22002727e-02 -1.56980395e-01
      -6.64541647e-02 -1.18439719e-01 -9.99260545e-02 -1.25243608e-02
      5.78316040e-02 -2.57393433e-04 -6.21785931e-02 -2.52561476e-02
      3.75489071e-02 3.90875228e-02 4.35781740e-02 4.09384482e-02
      7.03224987e-02 -4.45813909e-02 -1.08357789e-02 2.54654717e-02
      5.72257675e-03 6.00387938e-02 -3.58615406e-02 -6.98118210e-02
      -5.09313345e-02 -7.36127272e-02 2.65209889e-03 -2.14362685e-02
      -5.67417704e-02 -6.72852024e-02 -6.31297305e-02 -6.40681991e-03
      -2.97771655e-02 -1.27184326e-02 2.44513131e-03 6.52033463e-03
      1.22345965e-02 8.33324622e-03 -5.34734838e-02 -2.17398480e-02
      -2.70047840e-02 -6.36078371e-03 -4.99589033e-02 -3.03912032e-02
      1.08845877e-02 -4.85696690e-03 -1.97846983e-02 -2.10683979e-02
      4.37537991e-02 2.20213644e-02 -3.60822247e-04 1.34860864e-02
      2.47598980e-02 -3.21910940e-02 9.82627179e-03 3.54004689e-02
      1.00834304e-02 1.34857427e-02 -6.89936504e-02 -1.10813357e-01
      -8.67010280e-02 -7.22814277e-02 -2.94219945e-02 -2.74662599e-02
      -5.07227890e-03 -6.23185784e-02 -2.25531720e-02 -1.42031899e-02
      -4.12484109e-02 -4.17161807e-02 -3.01796105e-02 1.28612714e-02
      9.83894244e-03 -9.32487193e-03 -1.01767341e-02 -3.13169658e-02
      -3.35373618e-02 7.12092360e-03 -3.63091007e-02 -3.05172857e-02
      -8.98628030e-03 1.01058716e-02 3.57921906e-02 4.56484035e-03
      3.94295491e-02 -2.89443731e-02 -7.54607990e-02 -4.48670983e-02
      -3.88790704e-02 -3.59189995e-02 -2.59388443e-02 -2.69585382e-02
      -1.72108561e-02 -1.28761102e-02 -4.50294279e-02 -6.26094937e-02
      -3.12585756e-02 -2.45230794e-02 -3.04806139e-02 7.42574176e-03
      1.32539989e-02 -3.63502428e-02 -1.11928144e-02 -2.40979977e-02
      -4.23063152e-02 -5.54045364e-02 -4.47737426e-02 -7.86942616e-03
      -1.31135015e-02 -3.54999863e-02 -2.08176281e-02 -5.27357832e-02
      -2.68753655e-02 -7.17123179e-03 -1.19214766e-02 -2.11595520e-02
      -4.17353166e-03 2.02411395e-02 4.50783074e-02 1.81298777e-02
      1.56894419e-02 -6.91205859e-02 -1.07645310e-01 -7.40806535e-02
      -5.02495952e-02 -7.32447132e-02 -7.38841817e-02 -7.96128735e-02
      -4.07027937e-02 1.81588400e-02 8.52158479e-03 1.46195320e-02
      2.16466282e-02 -2.32198965e-02 -1.56289116e-02 2.07260326e-02
      6.58671430e-04 -4.55190381e-03 -1.86914317e-02 -3.35515104e-02
      -1.12393964e-02 -3.26805189e-02 -4.20291983e-02 -3.15933637e-02
      -3.14594768e-02 -4.62020971e-02 -2.63022128e-02 -1.82028934e-02
      -8.90280958e-03 -3.04260431e-03 -6.19762903e-03 -3.63555327e-02
      -1.33673912e-02 -2.93497113e-03 -2.49250066e-02 -6.60850760e-03
      -1.10892924e-02 -5.00527844e-02 -6.75354972e-02 -3.56507711e-02
      -1.45699922e-02 -8.99699405e-02 -1.05341122e-01 -6.49085045e-02
      -2.75456458e-02 6.89216927e-02 3.68726514e-02 3.77483293e-02
      9.87830665e-03 -7.25581273e-02 -1.45253511e-02 1.08526461e-02
      -3.41806635e-02 -5.33449044e-03 -2.97919493e-02 -2.26107892e-02
      -1.13962153e-02 -8.05990864e-03 -2.64186244e-02 -3.99124138e-02
      -2.51197955e-03 -4.51923301e-03 -8.65925942e-03 3.26461606e-02
      1.80585997e-03 2.79503409e-02 1.14677030e-04 -5.02844937e-02
      -5.42251728e-02 -6.27627373e-02 -9.95062664e-02 -2.74196565e-02
      2.24802792e-02 4.18939348e-03 1.35353571e-02 1.55820064e-02
      -1.59821026e-02 -6.27315864e-02 -7.60308057e-02 2.86942406e-04
      -1.39777521e-02 4.81202975e-02 1.89752579e-02 1.84551370e-03
      -4.17796895e-02 -8.51413906e-02 -2.29572859e-02 -6.61874842e-03
      -3.10360715e-02 -1.56002482e-02 -1.64369885e-02 9.72857466e-04
      -2.08451203e-03 -1.16987396e-02 -2.61413902e-02 -3.43207158e-02
      7.99653027e-03 2.74511967e-02 -1.94679368e-02 -2.34450307e-02
      -2.07315329e-02 4.19750763e-03 -1.22736199e-02 -3.63990441e-02
      -9.20973867e-02 -9.28228050e-02 -8.40480253e-02 -2.68198308e-02
      6.98955730e-02 3.67884599e-02 4.11653668e-02 8.03482160e-03
      -6.10971376e-02 2.59411018e-02 3.57951932e-02 5.94696179e-02
      -8.75979569e-03 2.15527997e-03 -2.24969070e-02 -8.18837062e-02
      -7.37700015e-02 -4.22702134e-02 -1.80037636e-02 1.84966102e-02
      5.51836006e-03 -1.37807317e-02 1.43728210e-02 -3.24213691e-03
      2.46854760e-02 -2.18794402e-03 -3.85178924e-02 7.23465579e-03
      -4.24936472e-04 3.41698714e-02 -7.09709525e-02 -1.44044578e-01
      -6.57307804e-02 -4.41875532e-02 -4.83906046e-02 8.49527656e-04
      5.53011037e-02 6.26709685e-03 -7.59783462e-02 -2.96697170e-02
      9.21594538e-03 1.35284849e-02 6.52891025e-03 2.22509596e-02
      5.14584333e-02 -2.57771760e-02 -9.09329019e-03 -5.23654977e-04
      7.07077212e-04 3.57344635e-02 -4.53365892e-02 -4.88450862e-02
      -3.52262594e-02 -3.72387618e-02 -1.86666125e-03 7.98978470e-03
      -2.65510641e-02 -3.76632437e-02 -7.71375299e-02 -3.03492118e-02
      -3.42506021e-02 -3.14843021e-02 -1.04064550e-02 -1.56582054e-02
      -1.05203339e-03 -2.90223095e-03 -5.40090427e-02 -2.81712506e-02
      -2.80695204e-02 -1.58770382e-02 -4.62743342e-02 -4.79723737e-02
      1.48227373e-02 -1.53125394e-02 -2.91891471e-02 -2.66378224e-02
      1.54270520e-02 -6.50610542e-03 -2.75888294e-02 -8.02625157e-03
      1.16068255e-02 -2.35726684e-02 -1.54360605e-03 2.38214601e-02
      -4.11724264e-04 -1.19485073e-02 -6.10184334e-02 -5.58976531e-02
      -4.84208986e-02 -4.34616096e-02 -3.46940272e-02 -2.94323545e-02
      1.76031813e-02 -5.37331700e-02 -4.30096760e-02 -3.14837918e-02
      -4.65807021e-02 -3.89369391e-02 -3.28548960e-02 -1.06402403e-02
      -4.70220717e-03 -4.55857925e-02 -2.15334799e-02 -1.15596065e-02
      -2.39313543e-02 2.53103697e-03 -7.18699116e-03 -3.48554142e-02
      -1.80268250e-02 -1.23920925e-02 1.11966264e-02 -8.09944700e-03
      1.76857803e-02 -4.08019498e-02 -6.78823292e-02 -4.43630479e-02
      -2.99369413e-02 -4.44032699e-02 -2.39587426e-02 -2.17174347e-02
      -3.80026437e-02 -4.40665036e-02 -2.88785566e-02 -1.92768518e-02
      -1.17556369e-02 -2.71527264e-02 -3.39180417e-02 1.77332002e-03
      7.33501278e-03 -5.97785711e-02 -3.84659246e-02 -2.83182375e-02
      -3.35022658e-02 -4.29698564e-02 -4.77016233e-02 -8.68752226e-03
      -2.49776747e-02 -5.59274554e-02 -2.87518594e-02 -1.61795951e-02
      -3.09892613e-02 -2.99135782e-02 9.97075438e-03 -1.39235044e-02
      -1.90625712e-02 -4.29908093e-03 3.19924243e-02 -1.55687099e-03
      -8.06621835e-03 -6.10579066e-02 -6.32574037e-02 -4.74168472e-02
      -4.00661640e-02 -6.94779307e-02 -4.25658002e-02 -6.82595819e-02
      -6.10125065e-02 -2.95358486e-02 1.29379435e-02 2.46613510e-02
      1.10336700e-02 -4.36896458e-02 -2.31300648e-02 1.92496236e-02
      -2.78407224e-02 -4.14136313e-02 -3.38619053e-02 -3.15539762e-02
      -1.82548501e-02 -1.42742842e-02 -4.17769849e-02 -1.70383491e-02
      -1.98664758e-02 -4.40425575e-02 -2.15644725e-02 -8.30895640e-03
      -3.58744040e-02 -3.55045497e-02 -1.06996214e-02 -3.05185989e-02
      -2.87852716e-02 -1.39165483e-02 -1.99671853e-02 -3.24318185e-02
      -4.15676311e-02 -3.01090833e-02 -2.10085362e-02 -1.39552886e-02
      -2.41972357e-02 -7.14746192e-02 -6.57228529e-02 -3.77133191e-02
      -5.04936278e-02 2.03213282e-02 1.96792576e-02 2.11284310e-02
      -1.72843486e-02 -6.63543120e-02 -1.18723335e-02 1.41507247e-02
      -4.05979417e-02 -3.63449790e-02 -3.41958925e-02 -3.47668417e-02
      -4.28231992e-02 6.68124855e-03 -1.72610972e-02 -3.64102609e-02
      2.67820004e-02 -4.12613759e-03 7.32184667e-03 1.60216708e-02
      -3.17628793e-02 8.60828906e-03 -1.05757536e-02 -5.39150499e-02
      -5.34655862e-02 -2.83083636e-02 -7.54808113e-02 -6.26981258e-02
      -3.71864475e-02 2.42592879e-02 3.81590649e-02 9.39464662e-03
      -3.71336713e-02 -6.32073730e-02 -6.85337558e-02 2.67902780e-02
      -4.65509668e-02 9.05958191e-03 -7.94958416e-03 -2.52689570e-02
      -6.46094754e-02 -5.82722388e-02 -1.18285213e-02 1.08229415e-02
      -1.08120730e-02 -2.99851242e-02 -3.19753215e-02 -2.85337958e-02
      -4.37974259e-02 -1.02458671e-02 -1.44735491e-02 -2.88893115e-02
      2.92628184e-02 2.56126770e-03 7.93007854e-03 4.12411615e-03
      -2.66586803e-02 1.61873549e-02 8.54621758e-04 -2.57831439e-02
      -5.52679859e-02 -4.02322151e-02 -3.02125961e-02 -6.11145087e-02
      -9.65889543e-04 3.76941487e-02 4.64817397e-02 -7.50098145e-03
      -5.23994230e-02 1.99978892e-03 -2.57948879e-03 5.48388213e-02
      -5.91709986e-02 -8.42357948e-02 -4.82980795e-02 -9.22653005e-02
      -9.26059633e-02 -1.55467177e-02 -1.47928111e-02 3.81992459e-02
      1.94039736e-02 -6.73758145e-03 -3.44520761e-03 -2.09561735e-02
      8.89573712e-03 1.32296362e-03 -3.18029262e-02 2.33323183e-02
      7.81817827e-03 -4.68880683e-02 -4.53837030e-02 -4.51237857e-02
      -4.58333232e-02 -2.03901529e-02 -4.35946509e-03 3.56530435e-02
      3.37721109e-02 -6.61047595e-03 -8.90357271e-02 -3.06489766e-02
      -2.52199918e-02 -1.30985528e-02 -3.54733504e-02 -1.10255266e-02
      1.81849431e-02 -7.54206581e-03 7.54429540e-03 -4.67678794e-04
      -2.32723281e-02 4.21234639e-03 -4.29245085e-02 -3.06755919e-02
      -4.63321991e-02 -1.92045253e-02 5.46765793e-03 3.38942260e-02
      -6.63613249e-03 -1.75520740e-02 -2.79527064e-02 -4.57467698e-02
      -2.48195138e-02 -2.80299596e-02 -1.08972350e-02 -4.05842885e-02
      -7.29887858e-02 -4.17792946e-02 -5.31177297e-02 -1.29916016e-02
      -1.63201224e-02 -1.02017680e-02 -2.35325806e-02 -4.40435149e-02
      6.78079261e-04 -2.41132248e-02 -1.84291173e-02 -3.60747017e-02
      -2.99460790e-03 -2.77463943e-02 -5.18916361e-02 -3.60870250e-02
      -1.11006545e-02 6.00292021e-03 8.28298181e-03 -1.33724604e-02
      -3.48077784e-03 -6.03884086e-03 -3.47884558e-02 1.91044516e-03
      -2.36894730e-02 -2.14990173e-02 -2.71443706e-02 -2.48798355e-02
      -4.08366788e-03 -4.91567813e-02 -2.01030578e-02 -3.53589617e-02
      -3.41061391e-02 -2.43316330e-02 -3.04922014e-02 -8.42079986e-03
      -6.84632063e-02 -8.45683292e-02 -5.03125452e-02 -1.77900922e-02
      -4.94802045e-03 -2.34537595e-03 8.92171357e-03 -1.09842746e-02
      -1.85401198e-02 -1.86086390e-02 5.42302197e-03 -2.27604993e-02
      -7.49132130e-03 -3.37067395e-02 -5.53530864e-02 -4.92402539e-02
      -3.05909384e-02 -1.10165048e-02 -6.25902833e-03 -4.59977984e-02
      -3.11505198e-02 -3.11219785e-02 -2.31980383e-02 1.30591309e-03
      1.93830591e-03 -1.46029284e-02 -3.33143286e-02 -3.50174978e-02
      -3.12280338e-02 -6.69226348e-02 -2.75756512e-02 -1.81456804e-02
      -1.47860041e-02 -2.26225313e-02 -3.33761200e-02 2.05885042e-02
      -2.81842444e-02 -8.15015063e-02 -6.45811260e-02 -2.97701210e-02
      -2.05246322e-02 -2.03853399e-02 8.66109598e-03 1.69656985e-02
      -1.97051354e-02 -4.65901941e-03 7.44187273e-03 -1.13863954e-02
      -1.39665287e-02 -2.95361876e-02 -1.79148819e-02 -2.87909657e-02
      -3.97689342e-02 -4.46277075e-02 -2.65143625e-02 -6.18918911e-02
      -4.63137776e-02 -2.20421609e-02 -6.84563350e-03 -5.05425176e-03
      -1.09559884e-02 -3.86957712e-02 -1.18200649e-02 -2.82883700e-02
      -5.68346754e-02 -7.67542869e-02 -3.85907665e-02 -1.69322677e-02
      -1.35113439e-02 5.36496984e-04 -1.60130188e-02 2.71138977e-02
      2.02011894e-02 -4.01654318e-02 -3.42321992e-02 -2.89018042e-02
      -3.91130894e-02 -3.12478915e-02 -2.32218821e-02 -1.44323660e-02
      -2.22207364e-02 -3.95502243e-03 -2.79647429e-02 -4.14875671e-02
      -3.82802114e-02 -1.48287313e-02 -1.01425173e-02 -7.72212679e-03
      -3.10302656e-02 -6.11122809e-02 -1.32643208e-02 -8.16188473e-03
      -3.87270451e-02 1.16428286e-02 -2.65480904e-03 7.02061411e-03
      -2.65343934e-02 -7.06898645e-02 1.89283397e-02 2.58817803e-03
      -5.26468344e-02 -8.00797567e-02 -4.97595817e-02 -2.87798680e-02
      -4.01834622e-02 5.81442146e-03 1.18548572e-02 -2.61795297e-02
      5.86316697e-02 -9.20220837e-03 1.39556760e-02 1.00999661e-02
      -2.87773162e-02 -2.81245932e-02 -3.11722178e-02 -5.44089377e-02
      -3.88120711e-02 -2.00046990e-02 -4.00592983e-02 -6.81255236e-02
      -4.82184887e-02 1.50407581e-02 -1.52242032e-03 -1.98155344e-02
      -5.01956493e-02 -6.21718951e-02 -1.48264244e-02 4.08466235e-02
      -5.08607849e-02 -2.19810717e-02 -2.42067669e-02 -1.29688615e-02
      -3.84227820e-02 -6.00325055e-02 3.38088237e-02 4.69740406e-02
      -6.27405103e-03 -5.46349771e-02 -5.16868606e-02 -3.78052741e-02
      -3.84949148e-02 -1.73360668e-02 -3.32850986e-03 -4.97407205e-02
      1.51026221e-02 -2.01652721e-02 3.18757780e-02 3.11783422e-02
      -6.70585269e-03 -1.14461193e-02 -2.33482453e-03 -2.34682504e-02
      -4.22032252e-02 1.39363483e-03 1.59705244e-02 -7.35591128e-02
      -2.53334921e-02 1.82417929e-02 2.64312942e-02 -2.36414354e-02
      -6.33472428e-02 -9.18979291e-03 -1.43044898e-02 4.89519201e-02
      -1.06620319e-01 -1.42708763e-01 -5.99807203e-02 -5.39990850e-02
      -5.65407015e-02 1.81368738e-03 -9.62888729e-03 7.68721551e-02
      1.02191810e-02 -5.90821588e-03 -4.25618514e-03 -1.88290384e-02
      -2.63690893e-02 -1.35046858e-02 -3.75610776e-02 1.00278268e-02
      -6.12529889e-02 -1.12469047e-01 -1.36338947e-02 3.93776856e-02
      -1.64033973e-03 -3.39928374e-04 3.55998427e-02 5.11641018e-02
      3.27467779e-03 -1.24472491e-02 -4.37824242e-02 -1.93771087e-02
      -6.83442354e-02 -3.04002799e-02 -3.21373567e-02 -3.99528891e-02
      -6.57328637e-03 -1.22001460e-02 3.81631311e-03 -1.75300110e-02
      -4.37565073e-02 -2.08703708e-02 -3.53490375e-02 -1.25887264e-02
      -5.02905101e-02 -3.92191224e-02 1.14233121e-02 3.42431962e-02
      1.32258637e-02 1.52490130e-02 3.98673816e-03 -5.60306832e-02
      -2.86681540e-02 -2.26503201e-02 -1.15912119e-02 -5.02777360e-02
      -1.40624359e-01 -6.67505860e-02 -5.62591553e-02 2.24941056e-02
      -1.10696042e-02 -1.44954561e-03 -1.11967698e-02 -2.67721005e-02
      -2.41437219e-02 -3.53462324e-02 1.43689467e-02 -3.31462920e-02
      -3.34758721e-02 -3.25172879e-02 -4.45414297e-02 -5.02455756e-02
      -3.37767974e-02 2.46200059e-03 1.71598997e-02 -5.91986366e-02
      -5.25095360e-03 7.67285586e-04 -1.33307958e-02 1.39734847e-02
      -7.87849165e-03 -1.98188238e-02 -2.69223191e-02 -4.97663356e-02
      -3.82555239e-02 -3.52453180e-02 5.57988649e-03 -4.14518267e-02
      -3.09334211e-02 -1.90248620e-02 -3.36147770e-02 -3.57171986e-03
      -9.93551090e-02 -1.03981704e-01 -6.56816363e-02 1.10827498e-02
      3.68864695e-03 -1.71570908e-02 8.88628978e-03 1.72095262e-02
      -2.71241963e-02 -5.57365362e-03 1.40160532e-03 -4.04418968e-02
      -2.94541754e-02 -1.85948312e-02 -2.95926668e-02 -5.10001592e-02
      -4.44695354e-02 1.40615599e-03 -1.35751870e-02 -6.37794733e-02
      -1.46701857e-02 -1.55073982e-02 -1.52201699e-02 -1.57310572e-02
      1.99218430e-02 4.00566816e-04 -3.19527313e-02 -1.00647524e-01
      -5.83853461e-02 -5.99791706e-02 6.94653718e-03 -1.51826795e-02
      -8.14464875e-03 -1.28110787e-02 -2.63880026e-02 4.39617448e-02
      -1.94654707e-02 -8.70829225e-02 -7.09406286e-02 -3.06309038e-03
      -1.54479314e-02 -2.93543488e-02 -2.89035086e-02 3.70813496e-02
      -2.71756947e-02 1.20662283e-02 -2.89072171e-02 -2.97829397e-02
      -1.73175298e-02 -7.78133748e-03 5.35364170e-03 -1.24410819e-02
      -4.24336903e-02 -1.96633525e-02 -2.35184170e-02 -5.51623255e-02
      -2.35303752e-02 -1.19145280e-02 -2.29281373e-02 -2.99312025e-02
      -6.32410543e-03 -2.75752917e-02 -1.29450462e-03 -8.01837519e-02
      -7.87000433e-02 -7.57546201e-02 -9.45196208e-03 -1.03240656e-02
      -1.62051059e-02 1.29253755e-03 6.96578575e-03 4.06796820e-02
      5.64108714e-02 -5.89067154e-02 -2.86128633e-02 1.40360743e-02
      -3.05601358e-02 -4.27826233e-02 -5.55716529e-02 -3.74560314e-03
      -2.40761228e-02 -1.32982880e-02 -4.18704711e-02 -3.66046987e-02
      -3.15352902e-02 -7.23568769e-03 -3.00152078e-02 -4.32856334e-03
      -2.72746757e-02 -3.40609290e-02 2.53659096e-02 -3.27655626e-03
      -1.24985082e-02 1.55417225e-03 -2.18548998e-02 8.41032714e-03
      -3.00417170e-02 -6.98940828e-02 4.24672030e-02 -9.13582928e-03
      -6.71381354e-02 -8.83655325e-02 -2.12763157e-02 -2.33267099e-02
      -3.77429873e-02 -1.72398537e-02 3.19230519e-02 -3.19996364e-02
      4.98294197e-02 -6.65624486e-03 2.91340649e-02 5.92330098e-02
      -7.17084156e-03 -5.70728183e-02 -5.15074879e-02 -4.86500077e-02
      -1.59493741e-02 -2.82476824e-02 -1.60681549e-02 -5.91523163e-02
      -5.01324348e-02 -3.91967967e-03 -3.75189707e-02 -3.43157761e-02
      -3.81851085e-02 -4.75617051e-02 2.78382171e-02 1.64718125e-02
      -3.05214040e-02 -2.04318259e-02 -2.05847453e-02 1.39254853e-02
      -1.24724321e-02 -6.73994794e-02 5.85665405e-02 6.53187931e-02
      -3.30831222e-02 -6.23291843e-02 -1.11095130e-03 -2.80232802e-02
      -4.68592085e-02 -4.71581556e-02 6.62205787e-03 -7.26357102e-02
      -4.46545593e-02 2.75666290e-03 4.00822349e-02 7.43974894e-02
      3.20838913e-02 -2.84223258e-02 -1.70440730e-02 -2.56779119e-02
      -1.09508699e-02 1.63583625e-02 2.43357848e-02 -6.61120489e-02
      -4.51876335e-02 -3.33469082e-03 1.64025463e-02 -3.82549576e-02
      -7.93740898e-02 -1.49157569e-02 -1.53550394e-02 -1.52444746e-02
      -1.10661641e-01 -9.23117399e-02 -4.13883254e-02 -1.38934804e-02
      -6.04203204e-03 1.33956010e-02 -1.65652949e-02 8.46702978e-02
      -2.76619382e-02 3.06988106e-04 6.00129217e-02 3.73105868e-03
      -5.45054972e-02 -3.74060497e-02 -3.94295976e-02 -2.88257264e-02
      -1.22944042e-01 -7.42614716e-02 -5.99826267e-03 6.75340220e-02
      4.45539355e-02 2.22100746e-02 4.28840294e-02 3.59947048e-02
      1.81407970e-03 -1.18503375e-02 -1.84398498e-02 -8.61338247e-03
      -4.87829261e-02 -4.13373187e-02 -1.51136322e-02 -2.84746010e-02
      -1.71478428e-02 -2.78986115e-02 -5.77848181e-02 -6.49214536e-02
      -3.08001358e-02 -1.46048497e-02 -7.10892072e-03 -1.78951304e-03
      -1.88429654e-02 -4.00664322e-02 4.65715723e-03 9.20235645e-03
      2.89469659e-02 5.34496643e-02 -1.30910305e-02 -5.41220456e-02
      -2.47407798e-02 -2.02008542e-02 -1.79364253e-02 -5.17635457e-02
      -1.25058070e-01 -1.00539483e-01 -4.11098897e-02 3.71311568e-02
      -1.35176266e-02 -1.97576322e-02 -1.07123367e-02 -3.63046154e-02
      -3.21593359e-02 -4.30628397e-02 1.50457742e-02 -2.78747194e-02
      -1.31114591e-02 -2.30068006e-02 -2.57413499e-02 -2.18839794e-02
      -4.08787355e-02 -4.24486445e-03 -6.08661100e-02 -1.02159970e-01
      -9.23338719e-03 6.85347151e-03 7.02210888e-03 -8.24995711e-03
      1.33731654e-02 -6.81774365e-03 -3.27278711e-02 -6.29978999e-02
      -5.65628000e-02 1.56953018e-02 6.53317804e-03 -3.78466882e-02
      -2.61295140e-02 -2.44348533e-02 -3.89734395e-02 -5.52715361e-03
      -7.03433603e-02 -1.11437209e-01 -6.84854090e-02 4.71245609e-02
      -2.80458038e-03 -2.89277788e-02 -4.81866021e-03 1.91589743e-02
      -3.15235071e-02 -3.21937278e-02 -3.45806889e-02 -3.50486934e-02
      -2.24873936e-03 6.78888382e-03 -3.11529310e-03 -1.65454671e-02
      -4.52094339e-02 2.64222994e-02 -5.38395941e-02 -9.05061364e-02
      -1.63442343e-02 5.63335379e-05 -2.22187932e-03 -4.68826927e-02
      3.74870258e-03 1.66063439e-02 -3.75592113e-02 -1.06042594e-01
      -9.26582143e-02 -1.76281109e-02 3.67069282e-02 -1.24241514e-02
      -1.78544912e-02 -1.70547217e-02 -3.15363817e-02 4.82901484e-02
      1.53749464e-02 -1.02103889e-01 -6.16574846e-02 4.85057682e-02
      -1.87455863e-02 -5.58763444e-02 -4.43947129e-02 4.66279797e-02
      -2.28734240e-02 -4.37510684e-02 -6.47514611e-02 -2.24978011e-02
      1.23774540e-03 2.12182924e-02 1.06229819e-02 7.94795528e-03
      -1.84680521e-02 4.02520075e-02 -1.05601856e-02 -6.90453425e-02
      -7.92158023e-03 2.71488959e-03 -1.86487921e-02 -3.92388180e-02
      -5.11200279e-02 -1.12012886e-02 -1.25749782e-02 -8.77483785e-02
      -1.03264570e-01 -5.97120374e-02 3.47940512e-02 -6.24329085e-03
      -3.12878713e-02 -1.55135980e-02 -2.94422801e-03 4.17364761e-02
      6.37351051e-02 -4.84208092e-02 -1.39108645e-02 7.66349211e-02
      -1.51477661e-02 -6.74708635e-02 -7.35574067e-02 1.99153703e-02
      6.59693591e-03 -5.28582186e-02 -4.93484139e-02 -4.01306972e-02
      -1.88741032e-02 1.24500291e-02 -4.06826995e-02 2.49047938e-04
      1.43727297e-02 -2.52358802e-03 5.93716055e-02 -2.22464148e-02
      2.86047067e-02 2.72153467e-02 -1.65379811e-02 -1.69571880e-02
      -6.31989166e-02 -8.70234147e-02 3.37932818e-02 -2.43082698e-02
      -1.03402391e-01 -9.53580290e-02 3.12538259e-02 -1.02019664e-02
      -5.15077263e-02 -3.47309224e-02 2.63595171e-02 -1.94385368e-02
      3.78737189e-02 2.05047857e-02 4.59990688e-02 1.17589250e-01
      2.05650721e-02 -7.99931735e-02 -6.19145334e-02 -1.51342116e-02
      4.54289429e-02 -3.23016830e-02 -1.38326073e-02 -5.55593111e-02
      -4.43663895e-02 -4.95826267e-03 -3.83007862e-02 -5.57992980e-02
      -1.03729274e-02 -5.74094169e-02 3.87773626e-02 -5.22581907e-03
      3.12657692e-02 3.12590748e-02 3.92548693e-03 3.70447733e-03
      -1.50751648e-02 -8.73212442e-02 5.54513969e-02 4.79263403e-02
      -9.23441499e-02 -7.50719979e-02 5.25460690e-02 -2.78917816e-03
      -6.19678311e-02 -5.98374568e-02 1.93511490e-02 -7.09959120e-02
      -3.91127542e-02 3.23902406e-02 4.48599234e-02 1.23711854e-01
      5.50299026e-02 -3.14705037e-02 -2.02886369e-02 -1.87526420e-02
      3.99223045e-02 2.26912163e-02 9.33372974e-03 -5.49260043e-02
      -3.73840854e-02 -1.80765218e-03 -1.75365116e-02 -7.51584545e-02
      -9.83645171e-02 -3.81319411e-02 -4.84426841e-02 -8.20387825e-02
      -4.47274297e-02 4.05176356e-02 5.17769111e-03 1.39177833e-02
      3.56224515e-02 7.80595606e-03 8.22282117e-03 6.43150434e-02
      -5.35863042e-02 -9.13570728e-03 1.09615035e-01 3.10132764e-02
      -6.03558160e-02 -4.28384170e-02 -3.50914546e-03 -4.56828289e-02
      -1.02719478e-01 -3.87977473e-02 -6.98767090e-03 9.57100615e-02
      6.02598786e-02 3.51459756e-02 3.04387026e-02 8.15345719e-03</_></support_vectors>
  <decision_functions>
    <_>
      <sv_count>1</sv_count>
      <rho>-4.9360140562057513e+00</rho>
      <alpha>
        1.</alpha>
      <index>
        0</index></_></decision_functions></my_svm>
</opencv_storage>
