<?xml version="1.0"?>
<opencv_storage>
<my_svm type_id="opencv-ml-svm">
  <svm_type>C_SVC</svm_type>
  <kernel><type>LINEAR</type></kernel>
  <C>1.0000000000000000e-02</C>
  <term_criteria><epsilon>1.1920928955078125e-07</epsilon>
    <iterations>1000</iterations></term_criteria>
  <var_all>1764</var_all>
  <var_count>1764</var_count>
  <class_count>2</class_count>
  <class_labels type_id="opencv-matrix">
    <rows>1</rows>
    <cols>2</cols>
    <dt>i</dt>
    <data>
      -1 1</data></class_labels>
  <sv_total>1</sv_total>
  <support_vectors>
    <_>
      9.50143710e-02 1.24641277e-01 1.19415745e-01 4.86006811e-02
      2.40943749e-02 1.73564833e-02 2.66353339e-02 2.75916401e-02
      6.57682270e-02 3.44648138e-02 -4.46946286e-02 -2.27356449e-01
      -8.59409645e-02 1.96196623e-02 3.13891061e-02 5.31877019e-02
      3.75156887e-02 -2.19713361e-03 6.89810663e-02 1.05477408e-01
      3.77092930e-03 6.13294728e-02 2.37125028e-02 5.96273541e-02
      3.19898017e-02 3.70631441e-02 1.16599329e-01 -2.23755892e-02
      -1.89467281e-01 -1.31406754e-01 -1.65549710e-01 -6.43248260e-02
      4.54554670e-02 5.96903600e-02 4.72914763e-02 -1.58882700e-02
      9.94472057e-02 1.42051682e-01 2.90724933e-02 2.69978326e-02
      3.83617394e-02 2.66894940e-02 4.14573774e-02 3.71482782e-02
      6.47014678e-02 -1.48881143e-02 -1.13191053e-01 -2.03667611e-01
      -1.61597021e-02 1.01689458e-01 4.95490991e-02 4.77492325e-02
      2.50539873e-02 -1.23334592e-02 5.36176898e-02 2.65037399e-02
      -1.42626166e-01 1.84714794e-02 4.77350317e-02 6.25794828e-02
      4.63707447e-02 4.99511696e-02 8.89957920e-02 -4.02295217e-02
      -1.35006040e-01 -3.06380447e-02 -4.29087281e-02 6.79163560e-02
      9.72215533e-02 7.81317055e-02 4.31855023e-02 -1.01788696e-02
      9.08136889e-02 1.03339978e-01 -6.32052049e-02 1.78567227e-02
      7.06496835e-02 3.64779010e-02 5.53757958e-02 4.32613902e-02
      4.01169546e-02 -6.62821159e-02 -1.24407381e-01 -1.58785015e-01
      5.55265956e-02 1.52634755e-01 5.55110723e-02 2.19231714e-02
      1.10595189e-02 -9.01914388e-03 3.36923674e-02 -5.82267493e-02
      -7.07863867e-02 1.98392663e-02 9.40400511e-02 7.53456950e-02
      7.12024122e-02 5.66204116e-02 5.48018254e-02 -3.99557203e-02
      -8.15264732e-02 1.75378043e-02 5.54568246e-02 1.22850344e-01
      9.28942263e-02 6.37255535e-02 4.29768972e-02 -5.32176532e-03
      5.36501445e-02 1.99788120e-02 -1.05434231e-01 3.20849121e-02
      1.13084741e-01 4.92095761e-02 5.68214394e-02 3.53850760e-02
      1.91966277e-02 -1.16253652e-01 -1.06378287e-01 -9.61671174e-02
      9.29850787e-02 1.48241654e-01 4.09000777e-02 1.06287273e-02
      1.74093861e-02 -3.65590379e-02 3.53890099e-03 -9.58960578e-02
      1.00629041e-02 6.78459629e-02 1.47962302e-01 9.42013860e-02
      8.65433365e-02 5.13598695e-02 3.11521310e-02 -1.55438837e-02
      4.93282732e-03 6.41110167e-02 1.08893014e-01 1.11141562e-01
      7.42880329e-02 7.69238621e-02 5.55782132e-02 1.06638565e-03
      -1.84301604e-02 -4.40533720e-02 -1.00798018e-01 5.75811714e-02
      1.49511606e-01 5.47471009e-02 3.61425057e-02 2.15990134e-02
      6.78174058e-03 -1.53407827e-01 -8.26583207e-02 -4.73023672e-03
      8.07581991e-02 6.95203692e-02 2.53733294e-03 -5.52237034e-03
      3.60526727e-03 -8.77372250e-02 -1.87055897e-02 -5.70599660e-02
      5.55318482e-02 9.95872319e-02 1.66400000e-01 9.17341486e-02
      6.35465756e-02 3.35101895e-02 8.11831374e-03 3.89878713e-02
      9.54214036e-02 1.08825453e-01 7.71416724e-02 1.37772664e-01
      8.56298730e-02 9.10533741e-02 4.02204022e-02 6.91137929e-03
      -7.83485919e-02 -6.33113757e-02 -7.33612254e-02 7.91751370e-02
      1.49518549e-01 4.40238491e-02 1.37356846e-02 1.93271618e-02
      -2.48594433e-02 -1.43985584e-01 -3.63114476e-02 6.46708459e-02
      3.27537544e-02 -4.47519496e-02 -4.12625819e-02 -4.34977710e-02
      -3.33757587e-02 -1.03006139e-01 6.24560891e-03 2.37224288e-02
      1.06541649e-01 1.24060154e-01 1.28755584e-01 6.51494414e-02
      5.86750843e-02 4.04208638e-02 1.03349807e-02 8.05897713e-02
      1.61807969e-01 1.21974975e-01 2.74977218e-02 6.90532029e-02
      8.70441571e-02 3.81911062e-02 8.48758314e-03 2.97476854e-02
      -1.22382052e-01 -5.92109524e-02 -2.66261064e-02 7.49141052e-02
      8.97240341e-02 9.80992150e-03 1.44484628e-04 6.84803911e-03
      -6.90043569e-02 -8.74860659e-02 2.94189509e-02 8.57502595e-02
      -1.42971082e-02 -1.25928462e-01 -7.85806254e-02 -9.17161182e-02
      -7.75261819e-02 -8.54454637e-02 5.72041571e-02 1.14844285e-01
      1.50562555e-01 1.11163378e-01 1.57290041e-01 8.34112987e-02
      9.06318575e-02 4.37134244e-02 3.41549069e-02 1.05355054e-01
      2.33909637e-01 6.13694936e-02 -3.41187865e-02 -2.30945200e-02
      2.42553055e-02 -1.62627194e-02 -3.69228199e-02 3.54190320e-02
      1.00186303e-01 1.66471928e-01 1.84711874e-01 7.37927109e-02
      4.31540981e-02 2.09485646e-02 2.66175810e-02 2.82054357e-02
      7.62903169e-02 -6.97152689e-04 -1.30561307e-01 -1.50127202e-01
      -1.18322492e-01 1.14680743e-02 3.39013711e-02 6.20019510e-02
      4.32336368e-02 1.59229860e-02 6.03672415e-02 7.10444972e-02
      -5.12741730e-02 2.38192687e-03 -3.96117717e-02 5.25616072e-02
      8.31340440e-03 -1.80508802e-03 7.21958876e-02 -3.04917675e-02
      -1.05744861e-01 -7.55009502e-02 -1.43287569e-01 -9.69187170e-02
      4.05397877e-04 -1.23853320e-02 -3.11210752e-02 -5.48005477e-02
      9.48893130e-02 1.43619224e-01 7.30994642e-02 2.92017013e-02
      4.12692726e-02 2.65935864e-02 4.04530987e-02 3.80253866e-02
      7.07449466e-02 -5.13965487e-02 -1.60715207e-01 -9.11087245e-02
      -3.83650139e-02 1.10331662e-01 6.16053455e-02 5.84324561e-02
      2.72784866e-02 -3.78979399e-04 2.60325670e-02 1.61800440e-02
      -8.79769623e-02 -4.57952321e-02 -7.74001703e-03 4.93575148e-02
      3.12904594e-03 -5.03642438e-03 3.81844528e-02 -4.43940572e-02
      -9.25443619e-02 -2.85412073e-02 -3.83386761e-02 -4.18941397e-03
      5.03946394e-02 5.29973162e-03 -2.01063734e-02 -6.01556823e-02
      6.27137125e-02 4.59363610e-02 -3.72097343e-02 3.99129326e-03
      7.04489201e-02 3.77533548e-02 6.00837581e-02 4.60263826e-02
      4.43460606e-02 -7.88042247e-02 -1.01124607e-01 -5.64089306e-02
      5.52153029e-02 1.56652167e-01 5.85777275e-02 3.38798054e-02
      1.58375651e-02 -8.86974763e-03 1.45355985e-02 -2.60811243e-02
      -4.69970927e-02 -1.52439950e-02 4.11369279e-02 4.67510261e-02
      2.24463772e-02 -1.39494590e-03 4.36379993e-03 -3.73302549e-02
      -3.41195278e-02 1.62018891e-02 3.35077904e-02 4.68412973e-02
      5.76697215e-02 7.73163792e-03 -5.56449685e-03 -4.70540375e-02
      1.12096593e-02 -6.09535500e-02 -3.84253375e-02 2.51444131e-02
      1.30222499e-01 5.66880070e-02 6.56823441e-02 3.71475294e-02
      2.97611728e-02 -8.46548453e-02 -6.32035583e-02 -1.19355787e-02
      1.07090555e-01 1.17149703e-01 3.00101042e-02 3.45085226e-02
      2.88898479e-02 -2.55487710e-02 1.32560625e-03 -3.97856459e-02
      4.07876680e-03 4.83677275e-02 7.46992901e-02 6.03409857e-02
      3.01756524e-02 1.33380876e-03 -1.33541478e-02 1.11013362e-02
      4.26238030e-02 6.71818107e-02 6.72054067e-02 6.86258227e-02
      4.53488007e-02 2.18174532e-02 6.10688934e-03 -2.23613326e-02
      -4.94474098e-02 -8.12711194e-02 -2.88518425e-02 6.54769167e-02
      1.66506261e-01 5.90868779e-02 3.68026681e-02 1.83957443e-02
      1.05094872e-02 -9.11411643e-02 -2.39068922e-02 5.71941957e-02
      7.22941756e-02 3.06962002e-02 6.41703280e-03 4.35932055e-02
      1.60147026e-02 -5.84719218e-02 -6.19171187e-03 -9.92226508e-03
      4.02509645e-02 7.70814493e-02 8.67727101e-02 6.45026192e-02
      1.78130735e-02 -2.22960836e-03 -2.14998573e-02 6.41520768e-02
      1.10995039e-01 1.02115653e-01 5.52906357e-02 9.91264135e-02
      4.48147580e-02 3.86851057e-02 2.71469890e-03 1.36195021e-02
      -7.19639584e-02 -4.62171249e-02 -4.69465461e-03 9.45321321e-02
      1.35502905e-01 3.68921608e-02 2.43487470e-02 2.45803762e-02
      -1.32158622e-02 -7.53982961e-02 3.75748463e-02 1.00663505e-01
      -8.89857858e-03 -3.15484405e-02 -8.24851822e-03 7.39635481e-03
      -2.53935158e-02 -6.27300665e-02 2.77289860e-02 5.79910949e-02
      8.64017680e-02 7.03349262e-02 5.92015460e-02 3.92363146e-02
      1.71430670e-02 6.38943212e-03 -3.05006094e-03 1.25977293e-01
      1.31795779e-01 1.08522862e-01 2.30970867e-02 -2.32706070e-02
      5.86731322e-02 4.34884503e-02 -1.95694361e-02 4.40793782e-02
      -6.67963251e-02 -2.16260683e-02 4.39306647e-02 6.61080927e-02
      4.75279465e-02 6.14161603e-03 3.94023284e-02 1.54577410e-02
      -4.25802805e-02 -3.59866880e-02 1.18513688e-01 9.12606493e-02
      -7.96299279e-02 -7.74029642e-02 -4.35959734e-02 -7.08182827e-02
      -7.64527693e-02 -6.70761615e-02 7.87498429e-02 1.31483629e-01
      1.12504669e-01 6.84267804e-02 8.85936394e-02 4.01654728e-02
      4.05484959e-02 1.55358603e-02 3.19884606e-02 1.88007742e-01
      1.58787787e-01 6.47038221e-02 -3.68653908e-02 -1.20049186e-01
      3.08336914e-02 1.35765402e-02 -5.88507093e-02 7.58663341e-02
      9.23880562e-02 1.55362889e-01 1.81280389e-01 8.58441815e-02
      4.59153540e-02 2.70550270e-02 1.43879279e-02 1.68235283e-02
      7.53249675e-02 -9.98085365e-03 -1.17506966e-01 -8.86794031e-02
      -1.23417094e-01 -1.81044489e-02 1.45058790e-02 3.42247859e-02
      2.42751651e-02 5.45154558e-03 7.98694566e-02 5.80702275e-02
      -4.70510684e-02 -5.86640686e-02 -1.06882446e-01 3.98651250e-02
      1.49977021e-02 -1.05736917e-02 4.12446856e-02 -3.20384838e-02
      -5.15390150e-02 -4.89302389e-02 -1.10813357e-01 -8.28700438e-02
      -2.87301000e-02 -5.69526479e-02 -7.74425864e-02 -6.91008195e-02
      7.37551376e-02 9.70552564e-02 -3.21405218e-03 2.77616493e-02
      3.69235016e-02 2.03631539e-02 1.94136109e-02 2.13081185e-02
      6.44212440e-02 -3.34556438e-02 -1.24706663e-01 -2.77291406e-02
      -5.16388305e-02 6.09702058e-02 5.37726581e-02 4.79427911e-02
      1.50644714e-02 -1.69140026e-02 3.80603522e-02 2.04220302e-02
      -2.61232033e-02 -6.90676942e-02 -4.39706706e-02 3.76983583e-02
      -4.24328446e-03 -2.21410282e-02 1.22840032e-02 -4.17293236e-02
      -2.63553541e-02 -9.13005695e-03 -1.48763321e-02 -2.12457571e-02
      6.88486407e-03 -4.68760096e-02 -5.97877912e-02 -6.37370050e-02
      3.71061303e-02 -1.27334874e-02 -4.79336567e-02 -4.90702083e-03
      5.00329137e-02 2.46865340e-02 3.84345800e-02 2.85594948e-02
      3.58280763e-02 -4.92841788e-02 -6.94137290e-02 6.79445360e-03
      3.06300670e-02 8.98156166e-02 4.83803451e-02 2.83828769e-02
      5.32524101e-03 -2.43200473e-02 1.64818559e-02 1.44065414e-02
      -3.69242462e-03 -2.34475229e-02 1.58981550e-02 2.37593465e-02
      -1.26209026e-02 -3.29403207e-02 -1.56118525e-02 -3.09271906e-02
      2.46515516e-02 5.35988770e-02 3.04501951e-02 3.07966173e-02
      4.36627530e-02 -1.56971850e-02 -2.86542363e-02 -4.15509939e-02
      2.36125826e-03 -8.56124163e-02 -6.00695517e-03 1.40006654e-02
      1.01195388e-01 4.81188893e-02 5.31763732e-02 2.17687003e-02
      1.44041013e-02 -4.29936498e-02 -2.53515188e-02 4.25344519e-02
      6.88614547e-02 4.60135788e-02 1.05406251e-02 3.53793986e-02
      1.51678473e-02 -2.56545767e-02 -3.77803715e-03 6.43976731e-03
      1.98794305e-02 4.46889214e-02 3.46127227e-02 2.43440680e-02
      -2.33671237e-02 -3.90954763e-02 -3.08910608e-02 1.85317714e-02
      8.14739913e-02 8.04792568e-02 4.95361798e-02 5.57338670e-02
      3.90304402e-02 6.29178202e-03 -4.62976238e-03 7.23017799e-03
      -2.94925887e-02 -7.60597810e-02 9.92687605e-03 5.14923111e-02
      1.26685604e-01 5.01208790e-02 2.71127671e-02 3.03918100e-03
      -6.91661425e-03 -2.67453883e-02 2.32417658e-02 8.08923021e-02
      2.20898502e-02 3.48523073e-02 -1.08273607e-03 4.84229177e-02
      1.39052402e-02 -2.50671227e-02 -1.55032789e-02 2.53572911e-02
      4.59149927e-02 6.28051311e-02 4.76806574e-02 4.43741232e-02
      -9.48876608e-03 -2.24664267e-02 -2.86163036e-02 9.21498388e-02
      8.50076899e-02 6.60547465e-02 3.99930663e-02 7.66706690e-02
      1.20101916e-02 1.96645572e-03 -4.92662715e-04 6.23119734e-02
      -3.31272408e-02 -2.97168083e-02 3.57842073e-02 7.02666491e-02
      6.46812767e-02 1.60848945e-02 1.34348301e-02 3.70629202e-03
      -1.37378983e-02 -2.46154778e-02 1.19891845e-01 7.15287998e-02
      -4.86623943e-02 3.73297348e-03 1.39714954e-02 3.93334813e-02
      -1.70755610e-02 -3.49271409e-02 2.23662946e-02 7.59605765e-02
      7.46669248e-02 3.73376869e-02 2.82282997e-02 3.92343737e-02
      1.02624521e-02 3.15543357e-03 9.58666019e-03 1.60431728e-01
      5.68764545e-02 8.22977796e-02 -1.35436179e-02 -1.46617424e-02
      1.60295032e-02 -1.78126916e-02 -2.25921106e-02 1.12459011e-01
      -1.62465516e-02 8.96623265e-03 7.17807487e-02 1.67647190e-02
      1.96789540e-02 -1.99743151e-03 4.05185185e-02 1.10471873e-02
      -2.22505499e-02 3.07795051e-02 1.99780479e-01 1.61764789e-02
      -1.10066324e-01 -5.50097600e-02 -1.15481084e-02 -2.13709138e-02
      -7.04890564e-02 -4.71636578e-02 9.05602723e-02 1.01454072e-01
      6.65927529e-02 3.99382748e-02 5.09224795e-02 2.18201894e-02
      1.55061809e-02 1.31390980e-02 6.37542456e-02 2.26555765e-01
      5.13240173e-02 7.15699866e-02 -7.75736868e-02 -9.42260176e-02
      4.02407302e-03 -4.94502895e-02 -3.94314304e-02 1.57522723e-01
      9.29809138e-02 1.34597585e-01 1.02581955e-01 7.03851208e-02
      1.89010501e-02 3.48829031e-02 -2.25362834e-04 -1.25689083e-04
      6.77124783e-02 -5.86485676e-03 -5.97375706e-02 -3.60351615e-02
      -1.20116547e-01 -5.40008396e-02 -2.04368290e-02 -2.03306954e-02
      -1.82900503e-02 -1.64619870e-02 8.87303725e-02 8.77023190e-02
      -5.04760630e-02 -8.82207751e-02 -1.31902501e-01 -1.46298632e-02
      -2.24312451e-02 5.70242386e-03 3.07844151e-02 -1.69533435e-02
      2.10679788e-02 -3.85600282e-03 -4.06515300e-02 -2.67162472e-02
      -4.45538424e-02 -4.77862954e-02 -6.84403405e-02 -6.21321127e-02
      5.61318584e-02 6.77806437e-02 -3.39545980e-02 9.85223567e-04
      1.21872257e-02 1.18993027e-02 -1.35906441e-02 -4.94796550e-03
      4.73506711e-02 -3.29929888e-02 -6.27615675e-02 1.97648141e-03
      -4.99354005e-02 -1.90324651e-03 2.19122358e-02 2.09910353e-03
      -1.45049123e-02 -3.58280987e-02 5.03050871e-02 6.25970736e-02
      5.49514219e-03 -6.25442937e-02 -4.44622338e-02 -3.31364619e-03
      -3.32414471e-02 -1.57399382e-02 6.36616675e-03 -2.26298049e-02
      4.44084890e-02 4.38718162e-02 3.15884836e-02 2.78501138e-02
      -7.28074554e-03 -3.76205668e-02 -4.25937735e-02 -4.34048921e-02
      1.84754934e-02 -2.24241056e-03 -1.60854515e-02 -2.64486913e-02
      2.18394063e-02 1.38703512e-03 -5.50273759e-03 -3.84026510e-03
      1.44960554e-02 -4.45097275e-02 -2.75877286e-02 2.37305816e-02
      1.04712332e-02 2.56268308e-02 2.97123827e-02 -2.00263667e-03
      -1.36449104e-02 -4.37036082e-02 2.02379879e-02 7.06750825e-02
      4.02747467e-02 -1.37075514e-03 2.17562839e-02 3.01101361e-04
      -1.81430671e-02 -3.43382917e-02 -1.46028455e-02 3.90348979e-03
      6.03279136e-02 6.59941211e-02 2.96393950e-02 5.16480878e-02
      4.34935391e-02 -8.08499567e-03 -1.60772540e-02 -1.15167992e-02
      -1.66263953e-02 -4.64687645e-02 -4.61652828e-03 1.53001820e-04
      4.08658162e-02 2.22812295e-02 7.89342262e-03 -6.31585065e-03
      -1.57008898e-02 -2.44322401e-02 2.26116795e-02 5.33473417e-02
      2.39938516e-02 1.43059380e-02 5.38941752e-03 3.08875204e-03
      -1.06526511e-02 -3.81967016e-02 -3.95132229e-04 6.29245639e-02
      6.72785640e-02 6.45815581e-02 5.17309420e-02 6.48200093e-03
      -2.24628225e-02 -3.52285504e-02 -2.52112094e-02 4.49857190e-02
      7.74525404e-02 5.53116687e-02 3.45890298e-02 5.74889109e-02
      5.21494709e-02 3.43244635e-02 3.06995865e-02 4.23164852e-02
      -4.07087021e-02 -4.12324145e-02 1.65790960e-03 3.48375104e-02
      5.39663509e-02 3.49143483e-02 2.57926382e-04 -1.53663540e-02
      -3.42134722e-02 1.11053251e-02 7.03624636e-02 6.47039264e-02
      -1.45301793e-03 4.12968397e-02 -1.13995222e-03 1.90697163e-02
      -1.62872095e-02 -2.03082319e-02 1.47469272e-03 6.22190796e-02
      6.08237982e-02 5.18621206e-02 5.69041632e-02 4.31029908e-02
      -8.56167357e-03 -1.65470373e-02 -1.50069417e-02 9.38898399e-02
      7.43888542e-02 1.33310324e-02 1.75743494e-02 5.72153032e-02
      9.60815419e-03 3.15065086e-02 5.90502247e-02 1.16474614e-01
      -2.79910360e-02 -8.06332845e-03 3.32943574e-02 3.51048186e-02
      6.37424132e-03 9.98539943e-03 -3.97717208e-03 -1.19585181e-02
      -3.28737982e-02 5.13769723e-02 1.19188122e-01 4.37536314e-02
      -2.79839654e-02 -4.11722809e-03 1.96076129e-02 2.21208856e-02
      -4.79912795e-02 -1.38093783e-02 3.90383676e-02 8.03477094e-02
      4.47769985e-02 4.47851839e-03 3.66714261e-02 5.86562604e-02
      4.30595018e-02 2.94334907e-02 3.07956096e-02 1.40432224e-01
      3.15851755e-02 6.18852722e-03 -4.41609025e-02 2.34383941e-02
      -1.94538273e-02 -5.97755658e-03 5.27401082e-02 1.74003258e-01
      -1.15373742e-03 4.59127314e-02 5.00614680e-02 -3.05584283e-03
      1.45469327e-02 -1.23788952e-03 1.79538243e-02 -7.21719954e-03
      -2.09313687e-02 1.26654327e-01 1.69085220e-01 -2.88079455e-02
      -8.78080502e-02 -1.17793068e-01 -1.42557270e-04 -1.92273576e-02
      -8.27762261e-02 9.24428180e-03 8.80716071e-02 8.25892836e-02
      1.68945957e-02 1.08609013e-02 3.02513484e-02 3.11093330e-02
      5.21087646e-02 6.19105063e-02 9.78234932e-02 1.97697952e-01
      -3.30906943e-03 -2.23133960e-04 -8.30342248e-02 -1.79552138e-02
      -3.54110412e-02 -3.43745872e-02 4.06167321e-02 1.96812034e-01
      1.10866733e-01 1.17068924e-01 4.25370112e-02 4.90293689e-02
      -2.84826029e-02 4.21649478e-02 1.02453390e-02 -3.78406397e-03
      6.13165013e-02 4.56008455e-03 -9.91140376e-04 -3.23197665e-03
      -4.84550968e-02 -4.52964120e-02 -3.83862108e-02 -5.86671196e-02
      -6.71702251e-02 -3.68273780e-02 7.34791532e-02 1.30939424e-01
      -7.05487654e-03 -8.30241740e-02 -1.16328649e-01 -8.87162164e-02
      -8.65843520e-02 -1.76809113e-02 1.40984086e-02 -3.42879966e-02
      6.22299910e-02 8.45651850e-02 4.19577397e-02 3.54496725e-02
      -5.11893369e-02 -7.26790773e-03 -6.15296438e-02 -5.85278869e-02
      6.30813837e-02 6.61432222e-02 1.59465950e-02 -3.43955093e-04
      -1.11350166e-02 1.45653663e-02 -2.01739240e-02 -2.18435805e-02
      3.25061455e-02 -2.97486596e-02 -1.26833552e-02 2.32657585e-02
      1.58940293e-02 -6.62686303e-03 -4.11580375e-04 -4.19355892e-02
      -5.79929426e-02 -5.09605668e-02 2.54946295e-02 1.01164512e-01
      5.46952747e-02 -3.90610546e-02 -4.59223427e-02 -7.16272071e-02
      -7.11230338e-02 -5.81681207e-02 -1.61359645e-02 -2.84669083e-02
      4.64851707e-02 9.12285373e-02 8.67772400e-02 9.59911719e-02
      4.47848253e-03 1.69667583e-02 -1.15859252e-03 -3.54208238e-02
      1.37815280e-02 2.57621296e-02 9.68306698e-03 -5.77301066e-03
      7.95619469e-03 -9.09908023e-03 -3.08581199e-02 -3.91734242e-02
      -6.32529287e-03 -3.74735557e-02 2.21229773e-02 5.80789000e-02
      2.96133347e-02 1.68697704e-02 3.51776220e-02 -1.74619351e-02
      -2.82697212e-02 -4.46251035e-02 -1.07090781e-02 8.45152959e-02
      1.07277893e-01 3.52141038e-02 2.82042827e-02 -4.13902961e-02
      -2.17718794e-03 -4.98916879e-02 -3.67238447e-02 -1.28317522e-04
      2.75545567e-02 6.93264455e-02 3.22312936e-02 1.01204708e-01
      5.94154038e-02 3.42545249e-02 1.75398756e-02 6.74151676e-03
      -2.99927648e-02 -1.07734250e-02 1.91027136e-03 2.75379643e-02
      1.47476420e-02 1.60144677e-03 -3.22169550e-02 -4.58435565e-02
      -4.39150408e-02 -4.12610592e-03 6.39512166e-02 6.64945468e-02
      1.86751615e-02 1.98587440e-02 2.41621137e-02 -9.34466603e-04
      -1.38215991e-02 -1.49712292e-02 -2.14920063e-02 5.83802611e-02
      1.00011662e-01 8.95316526e-02 7.25237802e-02 -8.63171881e-05
      8.01356137e-03 -7.81625323e-03 -2.73394547e-02 2.91967560e-02
      2.43703909e-02 3.56958322e-02 -5.73087716e-03 6.87151328e-02
      7.68292248e-02 8.05077553e-02 5.33324815e-02 5.09536415e-02
      -5.12072183e-02 -8.33637454e-03 1.06890947e-02 4.32241485e-02
      2.46334225e-02 2.97983978e-02 -1.67985279e-02 -3.22651677e-02
      -5.11563681e-02 6.11466318e-02 6.66409209e-02 5.16124927e-02
      6.71485439e-03 4.60703187e-02 -1.54212362e-03 -9.96572198e-04
      -1.46593386e-02 2.67257020e-02 -1.34655433e-02 2.56449096e-02
      4.71893996e-02 4.32766974e-02 9.97721329e-02 4.92695495e-02
      2.06997152e-02 1.06517421e-02 -7.09443679e-03 6.01875782e-02
      2.59841662e-02 -5.03172316e-02 -1.54703250e-02 2.76408363e-02
      3.95974219e-02 9.69401002e-02 9.05265883e-02 1.11646883e-01
      -2.45151278e-02 2.73005273e-02 4.10541072e-02 8.46574362e-03
      -3.69951501e-03 3.03941369e-02 -1.71314250e-03 -8.16275831e-03
      -2.34755594e-02 1.36501312e-01 4.16454189e-02 4.40530404e-02
      -2.70056669e-02 -1.07023064e-02 3.16962111e-03 -2.18513161e-02
      -3.81438248e-02 6.89966902e-02 2.04480160e-02 2.33818851e-02
      1.64368171e-02 -2.84666568e-02 5.88955618e-02 7.58329406e-02
      7.50116482e-02 4.89060506e-02 3.89064774e-02 8.84178281e-02
      1.16148619e-02 -1.07622668e-01 -3.55041102e-02 -1.09782652e-03
      2.11258838e-03 6.04039580e-02 9.39880833e-02 1.51632860e-01
      3.71172242e-02 5.15010357e-02 3.40371877e-02 -4.62188059e-03
      1.13602737e-02 9.44717508e-03 6.62959740e-03 -6.76821161e-04
      2.06325315e-02 2.06136525e-01 5.50992899e-02 5.85745496e-04
      -1.09377153e-01 -1.12353258e-01 -1.07292328e-02 -6.03643879e-02
      -5.51005714e-02 1.11114666e-01 4.94608656e-02 2.65149083e-02
      -4.78797629e-02 -3.33202556e-02 7.66481878e-03 5.59893735e-02
      1.06773697e-01 9.04641300e-02 9.33066159e-02 1.33800209e-01
      -1.61753166e-02 -1.19661048e-01 -3.86428386e-02 -1.09827127e-02
      -1.05099436e-02 3.51457149e-02 7.57481381e-02 1.68020800e-01
      1.28640965e-01 1.31849274e-01 3.09804250e-02 3.54816802e-02
      -5.25470227e-02 3.11818607e-02 5.53163188e-03 1.50618842e-02
      6.26536608e-02 4.56289873e-02 6.69381618e-02 3.28101590e-02
      6.24569580e-02 3.95605676e-02 -1.39893210e-02 -4.67305072e-02
      -5.13834953e-02 -6.68815477e-03 2.50848308e-02 1.14055000e-01
      5.32742999e-02 -4.19139713e-02 -1.30245402e-01 -1.57297641e-01
      -1.60216317e-01 -8.04494917e-02 -2.39175931e-02 -7.06182420e-02
      2.17017103e-02 1.60673216e-01 1.03633277e-01 6.81047216e-02
      -3.95185538e-02 2.25515272e-02 -7.51201957e-02 -8.92397165e-02
      7.80675188e-02 9.34494063e-02 3.57063524e-02 2.31130756e-02
      1.32921189e-02 1.98065247e-02 -2.02502813e-02 -8.13435856e-03
      2.96832323e-02 1.13209598e-02 6.50292337e-02 6.41465709e-02
      9.77499783e-02 7.15850145e-02 1.19131561e-02 -3.83089222e-02
      -4.25711460e-02 -1.54666696e-02 -4.14732546e-02 6.54431581e-02
      9.91059691e-02 5.53140230e-03 -4.67026606e-02 -1.27559066e-01
      -1.10689893e-01 -1.34324580e-01 -6.31241053e-02 -5.72431125e-02
      3.98257095e-03 1.02803968e-01 1.19617254e-01 1.41043752e-01
      3.35414261e-02 4.61556539e-02 1.76530704e-02 -5.49616292e-02
      2.75491048e-02 7.69290403e-02 3.21776941e-02 4.22344506e-02
      4.43358347e-02 9.22051084e-04 -2.43305005e-02 -3.08307279e-02
      -2.19570473e-03 7.52412993e-03 7.62487724e-02 7.41687492e-02
      6.76657706e-02 7.43533969e-02 5.88301234e-02 3.98793537e-03
      -1.74178388e-02 -1.25006288e-02 -8.50715339e-02 7.29776314e-03
      1.39482126e-01 6.65978119e-02 3.07584852e-02 -6.79554716e-02
      -7.53877917e-03 -8.47173184e-02 -9.74008217e-02 -4.84716780e-02
      -3.83776729e-04 5.91162853e-02 4.57346812e-02 1.51125953e-01
      7.93146044e-02 5.90025187e-02 4.05615047e-02 -5.08251833e-03
      -6.32484490e-03 4.58377302e-02 4.71326709e-02 7.91401938e-02
      4.93678078e-02 8.33883695e-03 -3.40677015e-02 -4.48249727e-02
      -3.24791931e-02 3.43791768e-02 9.14718583e-02 4.66559902e-02
      3.89755629e-02 6.69829920e-02 6.55368343e-02 4.41592149e-02
      2.77804099e-02 2.86503602e-02 -9.41199586e-02 -2.40051989e-02
      9.02707502e-02 9.30091143e-02 9.80947539e-02 3.31769488e-03
      2.15127952e-02 -7.96458125e-03 -8.51827264e-02 -3.05273179e-02
      -4.38833423e-02 2.41072979e-02 -2.42395438e-02 9.57048610e-02
      9.10100564e-02 9.88881066e-02 6.30219057e-02 3.75582390e-02
      -2.18943842e-02 4.26077358e-02 4.57492955e-02 6.02882504e-02
      6.12401552e-02 4.55377102e-02 -4.82093776e-03 -2.85200980e-02
      -3.95238325e-02 8.41001049e-02 6.50371611e-02 1.25316819e-02
      1.66784581e-02 6.46914914e-02 2.43966077e-02 3.92101146e-02
      4.90617715e-02 9.34657380e-02 -7.66953975e-02 -3.77894677e-02
      2.29551308e-02 3.60056050e-02 1.30402446e-01 5.61841689e-02
      3.85431089e-02 2.86752004e-02 -3.83279324e-02 1.68055762e-02
      -6.88437745e-02 -7.99735188e-02 -4.57549766e-02 1.48712918e-02
      6.72964081e-02 1.11469828e-01 8.24013725e-02 7.75272101e-02
      6.55652781e-04 5.40266782e-02 2.90881507e-02 -7.25799473e-04
      3.42756733e-02 6.40187711e-02 4.16249633e-02 1.91678498e-02
      -1.65695313e-03 1.36576965e-01 4.78473958e-03 1.07892125e-03
      -5.58144115e-02 1.91911682e-02 -9.11111850e-03 -3.32638971e-03
      3.88131104e-02 1.56473771e-01 -4.91775498e-02 -5.47803268e-02
      -6.04723766e-03 -4.33980376e-02 8.73068348e-02 7.99664631e-02
      8.74242112e-02 6.08555302e-02 2.29436159e-02 4.71716300e-02
      -3.90467532e-02 -1.55735403e-01 -3.51382680e-02 -2.57440563e-02
      4.01275828e-02 8.55199546e-02 8.57636556e-02 1.01048283e-01
      5.65261804e-02 4.53080945e-02 -1.37798749e-02 -9.67521500e-03
      2.78900210e-02 3.95212770e-02 4.92103882e-02 5.46986461e-02
      7.16254488e-02 2.07690775e-01 -3.06842942e-02 -2.34187767e-02
      -1.47464857e-01 -4.86920737e-02 -3.07981130e-02 -3.92819457e-02
      2.45445035e-02 1.94319054e-01 -1.08815869e-02 -9.02985260e-02
      -8.40039849e-02 -8.21514875e-02 6.03466062e-03 7.02677518e-02
      1.15648113e-01 8.46539736e-02 6.15323633e-02 8.46380368e-02
      -1.75339691e-02 -1.08586773e-01 -1.11092702e-02 -2.98114605e-02
      2.75528878e-02 6.19952679e-02 7.11404532e-02 1.24491073e-01
      1.37255579e-01 1.75352216e-01 4.08047996e-02 2.91697662e-02
      -2.14261189e-02 -7.91402441e-03 -4.56964858e-02 2.80344207e-02
      6.58736750e-02 6.96121752e-02 1.51379347e-01 1.22190937e-01
      1.59707561e-01 1.21107332e-01 2.55610868e-02 2.38955114e-02
      -2.14152155e-03 3.86148132e-02 -3.44454646e-02 5.45153171e-02
      7.66461417e-02 5.24228020e-03 -1.12391531e-01 -1.71707213e-01
      -2.16985628e-01 -1.47267789e-01 -8.42165202e-02 -1.04248017e-01
      -6.10532984e-02 9.89036113e-02 1.14255697e-01 1.05173528e-01
      -4.16972935e-02 -5.79262196e-05 -1.20229967e-01 -1.38176337e-01
      8.07026699e-02 1.51922017e-01 8.80540684e-02 5.58139421e-02
      3.69128734e-02 9.80892964e-03 -2.65162513e-02 -1.80984091e-03
      3.45622823e-02 6.32737577e-02 1.14660658e-01 1.25409380e-01
      1.72145963e-01 1.74189702e-01 6.76152930e-02 4.18326072e-02
      2.55602151e-02 3.91198471e-02 -1.26621231e-01 -1.23603139e-02
      8.38814527e-02 3.90671715e-02 -3.43412310e-02 -1.39981762e-01
      -1.62394613e-01 -1.90974370e-01 -1.50117233e-01 -8.67584497e-02
      -4.23780233e-02 1.93808414e-02 1.02665611e-01 1.65877432e-01
      4.94602136e-02 4.85770069e-02 -5.89946285e-03 -1.00510761e-01
      4.58036028e-02 1.28175780e-01 1.19596958e-01 1.01688489e-01
      8.95511732e-02 1.94429625e-02 1.96989588e-02 -3.74734472e-03
      1.73675455e-02 6.41100705e-02 9.18042734e-02 9.01748985e-02
      1.14394143e-01 1.69337735e-01 1.08920954e-01 6.65099695e-02
      4.18789275e-02 4.46263403e-02 -1.68790847e-01 -8.92979279e-02
      5.93299344e-02 6.58233613e-02 5.10560721e-02 -6.53832480e-02
      -5.76989874e-02 -1.42840207e-01 -1.89521268e-01 -1.01196259e-01
      -3.21864337e-02 2.18727486e-03 5.02086654e-02 1.71216816e-01
      8.56443644e-02 7.54217058e-02 3.34059075e-02 -4.72943820e-02
      2.18382850e-02 8.89692232e-02 1.13988020e-01 1.29828602e-01
      1.19811453e-01 4.41519767e-02 2.31784843e-02 1.19803743e-02
      7.23285461e-03 6.60091564e-02 7.32193738e-02 3.08714360e-02
      6.01667054e-02 1.35359809e-01 1.10325567e-01 1.08202621e-01
      7.54167661e-02 6.59158304e-02 -1.71447292e-01 -1.08490847e-01
      -1.24560688e-02 6.54956400e-02 1.13731384e-01 1.19907372e-02
      2.44656182e-03 -5.74136227e-02 -1.66479498e-01 -7.27221444e-02
      -9.34009627e-02 -3.84629099e-03 -1.31498231e-02 1.21559419e-01
      8.45444277e-02 9.07910988e-02 5.78798279e-02 5.88729279e-03
      1.12279607e-02 4.52786833e-02 6.04978316e-02 7.94788599e-02
      1.36769772e-01 8.09189975e-02 4.95809056e-02 2.49383487e-02
      4.90108971e-04 7.27139339e-02 5.83231971e-02 -4.95922901e-02
      2.53925081e-02 8.63703340e-02 6.86386079e-02 1.12794831e-01
      1.03965640e-01 1.12259693e-01 -1.68889031e-01 -9.62906182e-02
      -6.30508810e-02 2.16648355e-02 1.32486314e-01 5.52957505e-02
      4.02786992e-02 9.25539900e-03 -1.10231906e-01 -8.92565772e-03
      -9.55267251e-02 -5.15586473e-02 -4.60828319e-02 5.11715785e-02
      6.78879842e-02 9.35501158e-02 6.53877556e-02 4.62170579e-02
      2.79918984e-02 3.02520785e-02 4.35321033e-03 -2.54038069e-03
      9.59842727e-02 1.00339465e-01 9.89028588e-02 6.42378032e-02
      3.12732011e-02 9.69542116e-02 1.12930164e-02 -9.51742828e-02
      -5.46408184e-02 3.29493247e-02 2.50446238e-02 7.02263713e-02
      1.01693921e-01 1.65137187e-01 -1.44417882e-01 -1.33136764e-01
      -5.54032549e-02 -4.34049368e-02 9.84318405e-02 6.80980980e-02
      7.66527206e-02 4.85494025e-02 -3.52113210e-02 2.54970603e-02
      -3.21710594e-02 -5.58815747e-02 -4.12681065e-02 6.13647141e-03
      5.07408641e-02 7.40841106e-02 6.85818940e-02 6.46212772e-02
      5.14425263e-02 3.09767947e-02 -6.72023743e-02 -1.81926116e-02
      4.83064018e-02 7.90397078e-02 1.20184518e-01 1.08133398e-01
      8.92872289e-02 1.51754379e-01 -4.26081344e-02 -1.11682825e-01
      -1.12913892e-01 -5.26182260e-03 6.72806636e-04 3.72136571e-02
      8.29058960e-02 2.06136152e-01 -7.38530308e-02 -1.85451686e-01
      -9.42710042e-02 -1.02864347e-01 3.17855775e-02 6.40149787e-02
      9.35791209e-02 6.81591630e-02 1.69951431e-02 4.37040366e-02
      -1.68921426e-02 -1.67803597e-02 -9.46377777e-03 -7.40981055e-03
      3.73628810e-02 5.07617332e-02 5.64376079e-02 9.18903053e-02</_></support_vectors>
  <decision_functions>
    <_>
      <sv_count>1</sv_count>
      <rho>1.0863219987863715e+00</rho>
      <alpha>
        1.</alpha>
      <index>
        0</index></_></decision_functions></my_svm>
</opencv_storage>
