<?xml version="1.0"?>
<opencv_storage>
<my_svm type_id="opencv-ml-svm">
  <svm_type>C_SVC</svm_type>
  <kernel><type>LINEAR</type></kernel>
  <C>1.0000000000000000e-02</C>
  <term_criteria><epsilon>1.1920928955078125e-07</epsilon>
    <iterations>1000</iterations></term_criteria>
  <var_all>1764</var_all>
  <var_count>1764</var_count>
  <class_count>2</class_count>
  <class_labels type_id="opencv-matrix">
    <rows>1</rows>
    <cols>2</cols>
    <dt>i</dt>
    <data>
      -1 1</data></class_labels>
  <sv_total>1</sv_total>
  <support_vectors>
    <_>
      1.62446760e-02 -1.43964440e-01 -1.43988967e-01 -9.70967934e-02
      7.91025981e-02 9.12796631e-02 1.15688443e-01 1.07329465e-01
      8.99038166e-02 -7.33931661e-02 -1.18606746e-01 -6.54431880e-02
      7.11680353e-02 1.10247187e-01 7.58699477e-02 9.45212096e-02
      8.08710083e-02 1.53426239e-02 6.73877746e-02 5.69789950e-03
      -8.65438655e-02 -1.06114268e-01 -3.59610133e-02 4.17353399e-02
      5.75232916e-02 5.11516109e-02 5.97378016e-02 -9.88396909e-03
      -3.61688808e-02 -5.90583682e-02 -5.48846135e-03 3.32585499e-02
      -5.47112059e-03 7.26666534e-03 2.84029301e-02 8.33515078e-03
      -3.15010361e-02 -1.34810090e-01 -1.25705764e-01 1.09832808e-02
      1.06404163e-01 8.18239525e-02 1.06008753e-01 1.01396665e-01
      6.84685260e-02 -9.34610963e-02 -8.81986097e-02 1.04968436e-02
      6.19814955e-02 6.97772801e-02 4.98307720e-02 4.90757450e-02
      3.58282812e-02 -3.55366580e-02 2.84294467e-02 -3.55259143e-02
      -7.34454915e-02 -4.16951552e-02 1.75388530e-02 2.63749845e-02
      3.63412052e-02 4.52051163e-02 3.53116579e-02 -2.72369850e-02
      -3.54432128e-02 -3.71442549e-02 -1.95502602e-02 1.05165523e-02
      -2.42426209e-02 -1.00903306e-02 1.63894128e-02 1.34219590e-03
      -6.56489059e-02 -1.15031622e-01 -5.87804802e-02 4.70747091e-02
      9.92524922e-02 6.72595948e-02 9.43269059e-02 8.38876516e-02
      3.20949256e-02 -7.67415315e-02 -4.03638147e-02 4.74951714e-02
      4.22631055e-02 4.52903844e-02 2.81710643e-02 1.41852004e-02
      -1.05864070e-02 -5.43263927e-02 1.57274510e-04 -3.84146422e-02
      -3.58396061e-02 -2.67979479e-03 2.79057976e-02 -2.54430156e-03
      1.81784108e-02 3.53769176e-02 9.72197950e-03 -2.89767571e-02
      -3.11087947e-02 -2.75866501e-02 -3.00848894e-02 2.43281806e-03
      -2.79711206e-02 -3.76572576e-03 1.50423674e-02 -2.99678161e-03
      -7.77723417e-02 -7.06554577e-02 1.25974446e-04 5.58183305e-02
      7.79326931e-02 5.60823455e-02 7.34663978e-02 6.04137331e-02
      1.12417724e-03 -4.53332178e-02 5.51785901e-03 5.81110008e-02
      2.80899033e-02 3.03414017e-02 2.19985005e-02 -2.22336873e-02
      -4.51989025e-02 -5.50224632e-02 -1.06178951e-02 -2.46123727e-02
      -1.35676535e-02 -3.74013884e-03 1.50117036e-02 -2.21634861e-02
      -4.29834938e-03 2.93370336e-02 9.85176954e-03 -2.81920601e-02
      -2.13646442e-02 -1.70685519e-02 -2.12738849e-02 2.21793470e-03
      -5.13303792e-03 1.18438192e-02 9.55116644e-04 -1.44401947e-02
      -5.88427857e-02 -2.47876327e-02 4.53128330e-02 4.68944013e-02
      5.94721176e-02 4.28820811e-02 3.70121598e-02 2.53949147e-02
      -2.67870855e-02 -6.05772715e-03 3.96502726e-02 6.25041649e-02
      2.72703264e-02 3.42151970e-02 2.89244950e-02 -6.16946295e-02
      -8.36075544e-02 -4.33953069e-02 -1.09797828e-02 -1.38409007e-02
      -3.21225729e-03 -1.08965850e-02 1.47507340e-03 -2.57485826e-02
      -1.02580423e-02 3.24498229e-02 1.20927608e-02 -1.71883889e-02
      -1.71882391e-03 8.07865895e-03 -2.04028771e-03 1.56205175e-02
      1.74175333e-02 1.47588435e-03 -3.11777145e-02 -3.25814113e-02
      -2.49477550e-02 1.21946745e-02 6.31480366e-02 3.44058648e-02
      4.78422716e-02 3.83570604e-02 -2.64949584e-03 -3.16347070e-02
      -4.49840315e-02 3.94129083e-02 6.63440078e-02 6.13867678e-02
      2.79947296e-02 4.58628908e-02 2.17648111e-02 -9.42854211e-02
      -8.89411569e-02 -2.49709766e-02 -5.92980627e-03 -4.94186208e-03
      -2.41777184e-03 -3.29534779e-03 1.11986343e-02 -5.63033298e-03
      2.53045489e-03 2.40673516e-02 6.72434550e-03 2.24782359e-02
      3.61519344e-02 4.18154411e-02 1.48046464e-02 9.05204751e-03
      -5.79937827e-03 -5.24981357e-02 -5.73774055e-02 -2.03321036e-02
      7.64343748e-03 4.80399169e-02 6.68793768e-02 3.02429702e-02
      4.50337902e-02 4.08250503e-02 -5.87775186e-02 -8.21862817e-02
      -4.34900038e-02 8.08502734e-02 6.88883290e-02 5.28260060e-02
      2.90183928e-02 4.47372571e-02 -4.59298398e-03 -1.09646462e-01
      -8.70116055e-02 7.12996209e-03 9.57313646e-03 9.24047828e-03
      1.37837324e-02 4.92802402e-03 2.52735540e-02 1.83755849e-02
      3.53597384e-03 -5.68275223e-04 3.81355843e-04 7.23927766e-02
      6.43620938e-02 6.46830574e-02 2.33519319e-02 -2.19907705e-02
      -8.22495073e-02 -7.72067830e-02 -4.87805568e-02 3.66530232e-02
      5.87587319e-02 -6.94924891e-02 -1.10671461e-01 -1.02275290e-01
      3.64972837e-02 7.28326142e-02 8.81728455e-02 9.07980502e-02
      8.70187059e-02 -3.73234190e-02 -7.79936761e-02 -6.13294132e-02
      4.69799340e-02 8.81409943e-02 3.76659930e-02 6.32556081e-02
      6.82176575e-02 2.46094856e-02 4.95180860e-02 4.48645055e-02
      -5.43913506e-02 -8.44343528e-02 -4.55812067e-02 1.41956033e-02
      3.52316834e-02 1.86552741e-02 2.89377719e-02 3.77535052e-03
      2.54735005e-05 -2.96783969e-02 -2.26547252e-02 1.02844406e-02
      -1.14058694e-02 -2.26879027e-02 -9.80867073e-03 -1.07759945e-02
      1.97161045e-02 -8.70974883e-02 -1.00403346e-01 -6.97488943e-03
      8.33615735e-02 6.13887943e-02 7.80650824e-02 8.61222893e-02
      7.00656325e-02 -5.78309819e-02 -5.85435480e-02 -8.88221152e-03
      3.40209454e-02 4.63896319e-02 1.37139326e-02 3.59407850e-02
      5.01898974e-02 -1.33373332e-03 1.94543190e-02 8.69332254e-03
      -4.47729826e-02 -4.06084470e-02 -2.48832612e-06 1.09186666e-02
      1.12035628e-02 7.16493698e-03 7.42982468e-03 -3.33620189e-03
      -4.57523484e-03 -2.62261387e-02 -3.01905088e-02 -5.22564398e-03
      -2.17788778e-02 -2.35372465e-02 -1.23501560e-02 -4.03295457e-03
      -1.51931429e-02 -7.39251673e-02 -4.56856452e-02 2.87027340e-02
      8.61411169e-02 4.31215614e-02 6.94018975e-02 7.44952783e-02
      4.22088765e-02 -5.17061315e-02 -3.28838453e-02 1.76384915e-02
      1.28085511e-02 2.89876349e-02 7.89936516e-04 1.57813523e-02
      3.25463675e-02 -1.36395069e-02 6.82279700e-03 -4.08374981e-05
      -1.85401253e-02 -9.80939064e-03 1.16124405e-02 -9.21166409e-03
      -1.63536537e-02 -3.31678335e-03 -9.57066007e-03 -7.86256883e-03
      -1.03029609e-02 -3.21161374e-02 -3.14938277e-02 -7.73726404e-03
      -1.22930827e-02 -7.61921285e-03 -6.20589126e-03 8.28397169e-04
      -3.37991826e-02 -4.49157506e-02 -3.33331898e-03 3.51179950e-02
      6.29833564e-02 2.97106672e-02 5.69295511e-02 6.44781590e-02
      2.53039673e-02 -3.31284702e-02 -8.71189346e-04 3.45850401e-02
      7.19742011e-03 2.49654055e-02 6.15857309e-03 1.04107689e-02
      -2.44027306e-03 -2.62585543e-02 8.59912671e-03 1.73819403e-03
      -1.18504176e-02 -1.00990692e-02 5.99717163e-03 -2.11701673e-02
      -2.41706315e-02 1.22837466e-03 -3.42954020e-03 -1.46538503e-02
      -1.47521021e-02 -3.01767010e-02 -2.76686866e-02 -3.19360872e-03
      4.16828552e-03 1.24115143e-02 -8.35551415e-03 -6.90009352e-03
      -3.36918719e-02 -2.05840748e-02 1.79287009e-02 1.99828837e-02
      3.88496891e-02 1.72669329e-02 3.65765505e-02 5.34269623e-02
      1.06888423e-02 -4.35007829e-03 2.61292979e-02 4.89458703e-02
      1.75188631e-02 3.85544710e-02 2.13094968e-02 -2.48942524e-02
      -4.81800176e-02 -3.11426055e-02 7.36016175e-03 -6.70504596e-05
      -1.26989270e-02 -1.41052678e-02 -1.79793313e-03 -1.91325247e-02
      -1.83405057e-02 6.21324871e-03 2.76585831e-03 -9.65352077e-03
      -1.25828991e-02 -9.56065208e-03 -1.42448936e-02 3.42541933e-03
      1.91505793e-02 1.22022899e-02 -1.97008848e-02 -1.45365456e-02
      -1.76333375e-02 1.88802811e-03 3.69570814e-02 9.10357945e-03
      2.98652630e-02 1.69999152e-02 1.65865496e-02 2.28555407e-02
      -1.18890731e-02 2.98055541e-02 5.46412729e-02 5.88426441e-02
      2.72465311e-02 4.66437936e-02 5.18494518e-03 -7.11495951e-02
      -7.20055848e-02 -2.23130211e-02 -5.46520576e-03 -9.52750910e-03
      -1.86031349e-02 -1.33822458e-02 5.54383732e-03 -2.64386530e-03
      5.83546134e-05 2.60357256e-03 -1.78159971e-03 1.71402227e-02
      1.04657793e-02 2.66026743e-02 1.26228621e-03 -6.80380128e-03
      -1.12272259e-02 -2.23440360e-02 -2.85061616e-02 1.79587223e-03
      5.22197736e-03 2.64853183e-02 5.07248156e-02 1.46874730e-02
      3.57744843e-02 3.01418565e-02 -2.24214066e-02 -3.52404937e-02
      -2.41989791e-02 7.05159456e-02 6.58257604e-02 6.07113279e-02
      3.17201614e-02 3.06840949e-02 -5.20473905e-02 -8.55697021e-02
      -7.02207685e-02 1.17672393e-02 -2.34149001e-03 -1.08340457e-02
      -8.97760689e-03 -5.12565812e-03 1.14091663e-02 1.90464240e-02
      8.11660569e-03 -1.58285699e-03 1.23916857e-03 6.07788153e-02
      4.40836772e-02 5.66549599e-02 -9.61241836e-04 -4.19699103e-02
      -8.42753872e-02 -5.92412762e-02 -9.28697921e-03 4.99198735e-02
      7.21499771e-02 1.21181412e-02 -8.67841616e-02 -9.01315138e-02
      -1.61717311e-02 5.59138320e-02 6.56301156e-02 6.11825176e-02
      6.69007450e-02 1.35351089e-03 -3.03436089e-02 -4.03337963e-02
      2.06371993e-02 5.58182970e-02 6.35000272e-03 2.66596116e-02
      4.35554273e-02 1.59750972e-02 2.68504340e-02 4.05973233e-02
      3.11859860e-03 -5.70313744e-02 -4.03573178e-02 -1.92829426e-02
      1.51033392e-02 2.09377967e-02 1.66790038e-02 2.93131499e-03
      1.24416118e-02 1.00846402e-03 -1.95651185e-02 -1.43420435e-02
      -7.64642190e-03 -3.28092091e-02 -1.85806789e-02 -1.34758474e-02
      4.29356322e-02 -1.38285346e-02 -7.18401670e-02 -1.62745118e-02
      4.69545685e-02 4.49522063e-02 5.24572581e-02 5.95633946e-02
      5.08959368e-02 -1.47658205e-02 -2.24281084e-02 -1.18948519e-02
      6.06952189e-03 2.57861763e-02 -1.65026449e-02 -8.98104685e-04
      3.45305800e-02 1.07846214e-02 1.58814108e-03 1.54245039e-02
      -8.84241983e-03 -3.04973889e-02 -1.29450429e-02 6.87209796e-03
      2.08850671e-03 4.23806394e-03 -1.03875028e-03 1.01911249e-02
      1.50665753e-02 -1.36400936e-02 -2.24201865e-02 -1.46037806e-02
      -7.23606208e-03 -2.47750059e-02 -2.30930708e-02 -2.66245729e-03
      2.00270172e-02 -1.27274832e-02 -2.38457434e-02 1.63652636e-02
      6.31061196e-02 2.19339263e-02 4.06268798e-02 5.26852645e-02
      2.97458861e-02 -1.34693161e-02 -1.26755992e-02 -4.63251397e-03
      -1.06007410e-02 1.41240265e-02 -1.82455461e-02 5.45559451e-04
      3.45978066e-02 1.17709106e-02 -1.03841035e-03 9.45953652e-03
      4.84989607e-04 -1.03106108e-02 -1.05035014e-03 -1.99726503e-03
      -2.61584781e-02 -1.11165866e-02 -1.41995838e-02 5.30369952e-03
      1.01130102e-02 -2.17220411e-02 -2.25924384e-02 -1.31475814e-02
      6.86937338e-03 -5.23619447e-03 -1.28230294e-02 4.17252211e-03
      9.92214400e-03 -2.21406925e-03 1.22178439e-03 1.13623329e-02
      3.84076424e-02 4.25905967e-03 2.37876382e-02 4.68690731e-02
      2.45786421e-02 -1.01810610e-02 -2.12123198e-03 6.08546054e-03
      -7.53437728e-03 1.56767424e-02 1.52948327e-04 1.59241240e-02
      1.91976670e-02 3.01556126e-03 7.85890501e-03 1.57795697e-02
      -3.97405075e-03 -8.56140722e-03 1.84118771e-03 -5.04787266e-03
      -2.50983685e-02 -1.38654457e-02 -6.76838588e-03 -1.97402947e-03
      1.75593363e-03 -2.16501616e-02 -1.53743513e-02 -5.81575045e-03
      1.42343566e-02 1.44298440e-02 -6.91832090e-03 1.60476065e-03
      2.20024213e-03 -5.97360231e-05 -7.52710039e-05 -5.09715639e-03
      1.18387043e-02 -8.13727360e-03 1.09438263e-02 4.49016318e-02
      2.25556828e-02 -2.99667288e-03 1.32627990e-02 2.23435853e-02
      8.57804623e-03 2.60006711e-02 2.16823891e-02 2.59297481e-03
      -1.47623178e-02 -1.66907255e-02 1.15037439e-02 1.59880724e-02
      -1.08761545e-02 -1.12584680e-02 -1.14747742e-03 4.82216274e-04
      -8.99296720e-03 -5.31259226e-03 1.86837430e-03 8.77299067e-03
      -3.75469727e-03 -1.09382961e-02 -9.17795766e-03 -5.03864791e-03
      2.02179924e-02 2.04606820e-02 -6.22540759e-03 1.52519660e-03
      -5.66547550e-03 2.08115531e-03 2.26979982e-03 -1.22313350e-02
      7.44227553e-03 -2.88382103e-03 1.36668505e-02 2.74780504e-02
      8.88054259e-03 1.82875562e-02 3.50242592e-02 4.29091640e-02
      1.73541848e-02 2.08810437e-02 -4.03380627e-03 -4.80205752e-02
      -4.16927934e-02 -1.25378352e-02 2.16961908e-03 6.01970078e-03
      -1.72231924e-02 -1.01791462e-02 2.66034796e-04 6.35900069e-03
      4.24238620e-03 -6.59260026e-04 7.08621985e-04 2.86171287e-02
      9.63110104e-03 1.19792223e-02 -1.30053544e-02 -1.26273315e-02
      -3.77740245e-03 3.52524919e-03 1.52147107e-03 1.80397574e-02
      -2.65139184e-04 7.96929188e-03 1.41558694e-02 -2.84277438e-03
      1.55332023e-02 1.67024545e-02 1.19152805e-03 -5.36473887e-03
      -6.10216428e-03 5.69205806e-02 5.32156564e-02 5.60852699e-02
      2.20428053e-02 -1.46033084e-02 -8.42119381e-02 -7.21491873e-02
      -4.09245007e-02 2.84638833e-02 4.25155694e-03 -7.41426274e-03
      -1.67011302e-02 -7.42725097e-03 -1.06156722e-03 1.52785927e-02
      1.12366006e-02 9.52137460e-04 1.95809407e-03 6.11398108e-02
      4.13928702e-02 3.06924991e-02 -4.48522270e-02 -4.77303602e-02
      -6.76033720e-02 -1.96752455e-02 2.94250697e-02 5.83559275e-02
      5.92362173e-02 5.46015128e-02 -4.79970574e-02 -7.15832040e-02
      -3.95234376e-02 3.78487110e-02 5.47945350e-02 3.05124633e-02
      4.17323820e-02 1.65173635e-02 1.19678164e-02 -1.27103273e-02
      3.66691547e-03 2.92797219e-02 -2.52324789e-05 -3.70164937e-03
      1.11322459e-02 -2.48760055e-03 9.09277145e-03 2.66503375e-02
      3.01849972e-02 -3.40983123e-02 -4.16023545e-02 -4.36421335e-02
      -1.57429036e-02 1.97905768e-02 1.60954129e-02 -1.72817730e-04
      1.39110023e-02 2.12447103e-02 -6.79223286e-03 -3.06993835e-02
      -7.95122329e-03 -1.04129370e-02 4.20683483e-03 2.18066317e-03
      3.50420512e-02 2.74741575e-02 -3.56150717e-02 -2.25488152e-02
      1.64591447e-02 3.54126953e-02 3.50740850e-02 2.34628022e-02
      2.58527752e-02 6.22139964e-03 9.82439145e-03 -6.82413392e-03
      -6.18869765e-03 1.22583266e-02 -1.81797929e-02 -2.14717016e-02
      8.65536556e-03 2.64057098e-03 -1.16343228e-02 6.57584751e-03
      2.15078183e-02 -2.07214579e-02 -3.43094580e-02 -4.29589581e-03
      4.79892688e-03 1.57976206e-02 1.38786705e-02 1.75974313e-02
      2.85949372e-02 3.71847861e-03 -1.34577835e-02 -2.27842666e-02
      -5.43273520e-03 -1.42137818e-02 -4.20783646e-03 1.14322267e-02
      2.32452080e-02 2.43803449e-02 -3.87922581e-03 9.24279355e-03
      3.65879387e-02 1.12503767e-02 1.14448322e-02 1.86628681e-02
      9.81613807e-03 3.53523926e-03 7.42156012e-03 -1.22028533e-02
      -1.58559177e-02 9.63126495e-03 -1.47088980e-02 -1.02039827e-02
      8.21365230e-03 7.11679505e-03 -9.06777382e-03 7.12838350e-03
      2.11965945e-02 -7.31105218e-03 -1.76856630e-02 2.44949588e-05
      -5.02582453e-03 1.08911451e-02 5.45853004e-03 1.91411804e-02
      2.82692537e-02 -7.60971569e-03 -1.82299204e-02 -1.12027675e-02
      8.48323572e-03 -4.82024997e-03 -4.28504311e-03 1.50435138e-02
      2.30096187e-02 2.67474093e-02 1.46240741e-03 3.75835545e-04
      2.42201835e-02 -3.93650448e-03 -7.25104194e-03 1.69738177e-02
      1.08658830e-02 -1.70534628e-03 2.61278776e-03 -5.07790782e-03
      -1.01790000e-02 1.51548190e-02 5.45402896e-03 1.25391353e-02
      4.02546162e-03 1.66450371e-03 5.77071449e-03 2.19397973e-02
      8.78534559e-03 -9.13330633e-03 -5.65357646e-03 3.30385170e-03
      -1.00791221e-02 4.34398744e-03 6.73436141e-03 1.45208910e-02
      2.28434894e-02 -1.22186970e-02 -7.36951269e-03 -5.91940014e-03
      1.50259584e-02 1.53155997e-02 -3.86217097e-03 1.16659924e-02
      1.60046685e-02 1.98645946e-02 -4.47021518e-03 -1.18438629e-02
      8.41781870e-03 -9.28097032e-03 -7.46391295e-03 1.64048355e-02
      9.88742150e-03 -1.91664835e-03 2.58068857e-03 8.26861709e-03
      1.44780683e-03 1.89994331e-02 2.14552376e-02 1.52730187e-02
      -5.36235422e-03 -6.54197345e-03 1.99135505e-02 3.09036244e-02
      -3.79677746e-03 -1.75171532e-02 -4.52559488e-03 3.65454028e-03
      -3.58364498e-03 -4.49049519e-04 9.00861621e-03 2.05137711e-02
      1.35565717e-02 -1.36768259e-02 -2.60290131e-03 -1.16048967e-02
      1.92683861e-02 2.08829679e-02 3.07991845e-03 9.13544558e-03
      1.38040865e-04 5.05932188e-03 -9.20388754e-03 -1.71060674e-02
      4.10189480e-03 -3.91400931e-03 6.65803719e-03 9.23924334e-03
      3.60567844e-03 1.32937944e-02 2.15555951e-02 3.22902016e-02
      6.72767218e-03 1.48173864e-03 -9.67728626e-03 -1.76664758e-02
      -1.61839444e-02 4.40332480e-03 1.66951176e-02 2.44938396e-02
      -1.45330206e-02 -1.39793819e-02 -7.13890372e-03 2.66352529e-03
      1.99048058e-03 -1.80829817e-03 7.62508530e-03 3.55083309e-02
      1.48154832e-02 -2.46301070e-02 -2.23365631e-02 -2.49835830e-02
      4.35996521e-03 1.28612192e-02 2.11509503e-02 2.37120818e-02
      -7.64246238e-03 -5.18700806e-03 -6.98268740e-03 -1.15280198e-02
      5.07310918e-03 1.37084788e-02 8.64735153e-03 3.03933484e-04
      -7.71412102e-04 5.29019311e-02 4.84639183e-02 4.90438491e-02
      6.07640482e-04 -4.39228974e-02 -8.59056860e-02 -4.95183542e-02
      -1.02818832e-02 4.11638841e-02 1.84291229e-02 9.50605329e-03
      -1.45677319e-02 -3.95796215e-03 -1.16019705e-02 6.94127986e-03
      7.25518400e-03 6.40898885e-04 7.63795990e-03 6.18835986e-02
      3.30900438e-02 -5.24722338e-02 -7.02348202e-02 -4.82677519e-02
      -3.12752873e-02 1.72739010e-02 5.28521277e-02 5.68590946e-02
      3.87699194e-02 4.86780219e-02 9.88079514e-03 -4.88455668e-02
      -4.33895960e-02 9.51772183e-03 4.53153849e-02 2.43693609e-02
      2.89763603e-02 4.75649023e-03 1.78497303e-02 1.41110485e-02
      3.32043710e-04 6.79439213e-03 3.63394502e-03 -1.77563503e-02
      -3.43157933e-03 -5.74798649e-03 1.01798251e-02 2.29384210e-02
      4.44176160e-02 -5.35122398e-03 -4.20921072e-02 -6.11730218e-02
      -6.77807480e-02 -2.98183039e-02 2.16898657e-02 4.98858513e-03
      1.55772269e-02 2.95076780e-02 4.15514922e-03 -2.75735389e-02
      -1.50320875e-02 5.13044512e-03 2.03715935e-02 2.94204671e-02
      1.23465406e-02 2.52495650e-02 1.09424256e-03 -2.32893433e-02
      -7.46335974e-03 2.46357191e-02 2.52092369e-02 1.24404188e-02
      1.31543446e-02 6.35138107e-03 1.87639520e-02 -6.70402587e-05
      -1.04621621e-02 -2.48305174e-03 -4.88602789e-03 -1.93967521e-02
      -8.67064670e-03 -1.67263299e-03 -8.62735789e-03 4.37020510e-03
      3.40753794e-02 -3.36946035e-03 -3.66666541e-02 -2.93464288e-02
      -1.62215233e-02 -4.28989111e-03 2.68281884e-02 2.04360224e-02
      3.42554413e-02 1.48462616e-02 -7.69215543e-03 -2.30229441e-02
      -1.56645477e-02 -7.48570962e-03 1.55999763e-02 3.25785093e-02
      4.90455655e-03 2.08761860e-02 9.24610533e-03 -2.65550427e-03
      1.33548826e-02 1.00743789e-02 -1.02916434e-02 2.55967514e-03
      -1.67578284e-03 4.08731820e-03 1.80193707e-02 -9.34913941e-03
      -1.54350568e-02 3.64910869e-04 2.86594825e-03 -7.64315575e-03
      -5.90478908e-03 1.85886468e-03 -8.04956909e-03 4.38209344e-03
      3.16816866e-02 1.11312176e-04 -2.26948932e-02 -1.35563603e-02
      3.35302204e-03 2.58591659e-02 2.83610113e-02 2.74101179e-02
      3.95459421e-02 1.23791676e-02 -1.59640014e-02 -1.59415826e-02
      -1.84278924e-03 -1.31499190e-02 9.46443586e-04 2.57899165e-02
      7.07404688e-03 2.28676610e-02 2.38656159e-03 -7.63135310e-03
      1.55877173e-02 -4.99996415e-04 -1.65756717e-02 3.62376886e-04
      -2.67768651e-03 -4.10767039e-03 1.02533130e-02 -1.23685738e-02
      -6.62629399e-03 6.47446560e-03 1.36801545e-02 1.14080282e-02
      -1.68136868e-03 -2.44411669e-04 1.08135426e-02 2.51537357e-02
      2.10124832e-02 -4.99112997e-03 -8.03556200e-03 -4.45876596e-03
      -3.36103747e-03 2.84024756e-02 2.90570948e-02 2.33921222e-02
      3.19791026e-02 4.77087684e-03 -3.69988708e-03 -1.11762034e-02
      2.25926936e-03 -5.58896270e-03 -1.07933339e-02 9.86670796e-03
      7.73593504e-03 2.01490819e-02 -6.21714303e-03 -1.30876321e-02
      6.37551071e-03 -5.60547996e-05 -4.47856542e-03 4.55851341e-03
      -1.18665199e-03 3.37160472e-03 -1.43212813e-03 -2.43559247e-03
      -2.57696561e-03 5.95637644e-03 2.02826355e-02 1.92448106e-02
      -4.79706243e-04 1.02090300e-03 2.76927892e-02 3.97603475e-02
      1.24397120e-02 -1.37729496e-02 -9.54100490e-03 -3.77608184e-03
      -9.24441684e-03 7.71032413e-03 1.90002359e-02 2.29878221e-02
      3.82490503e-03 -2.67970935e-02 4.22254810e-03 -4.65827109e-03
      8.65061209e-03 5.25426166e-03 -1.96217326e-04 2.66042654e-03
      -3.84470425e-03 5.67318173e-03 -1.42258834e-02 -1.32400254e-02
      1.77886069e-03 3.03011551e-03 3.32904281e-03 3.36676836e-03
      -3.29877948e-03 2.36418545e-02 1.39876856e-02 1.92841850e-02
      -9.40067507e-03 -1.20267747e-02 -8.87627993e-03 1.36074855e-03
      1.67501788e-03 1.54656656e-02 2.27884986e-02 3.40269208e-02
      2.91617215e-03 -1.13186659e-02 -1.11268181e-02 -8.95677693e-03
      -1.45946601e-02 -1.02309091e-02 4.36626701e-03 3.33301909e-02
      -1.57706775e-02 -6.88702539e-02 -2.36256663e-02 -9.16662998e-03
      1.55535843e-02 2.70856898e-02 2.63855699e-02 1.50776105e-02
      -1.23881139e-02 -1.09252715e-02 -1.49160074e-02 -1.34197334e-02
      -4.50352533e-03 1.19503122e-02 8.92050005e-03 2.03291955e-03
      8.36688036e-04 5.84923737e-02 4.39570807e-02 3.33864391e-02
      -4.40111309e-02 -4.50499207e-02 -7.38782287e-02 -2.02151816e-02
      1.63250081e-02 5.04222512e-02 2.02694759e-02 7.55872298e-03
      -2.03194041e-02 -8.31848185e-04 -6.96665328e-03 1.68563638e-04
      -5.73793519e-03 -6.77669700e-03 -1.93908613e-03 5.46270013e-02
      -1.60070993e-02 -8.62620622e-02 -6.75633028e-02 -4.14916761e-02
      1.71274673e-02 5.35269268e-02 5.43447100e-02 4.56796736e-02
      2.01222450e-02 3.06912661e-02 3.29272225e-02 -3.01048588e-02
      -4.76762652e-02 -2.46872623e-02 8.42251163e-03 3.16411182e-02
      2.31869482e-02 -3.14258947e-03 1.52141741e-02 2.62438431e-02
      -2.15848908e-03 -1.89185012e-02 4.61060647e-03 -1.27272513e-02
      8.03196244e-03 6.71136752e-03 2.56715752e-02 3.14416699e-02
      5.28323948e-02 2.99638063e-02 -2.20516231e-02 -5.86723909e-02
      -8.95231515e-02 -7.53549412e-02 1.30140618e-03 5.79130230e-03
      2.33648419e-02 3.93275842e-02 2.32298840e-02 -1.85139012e-02
      -2.27995701e-02 1.07208332e-02 -1.46119446e-02 1.31842569e-02
      -5.06041525e-03 9.87790897e-03 2.05583312e-02 -1.92911383e-02
      -2.59470176e-02 7.02927168e-03 1.24400426e-02 2.00814344e-02
      1.68568939e-02 1.07141379e-02 2.51858793e-02 3.57189402e-03
      -1.26741668e-02 -1.77078843e-02 1.27277675e-03 -1.57551821e-02
      -3.77359660e-03 6.30225334e-03 2.81315274e-03 1.65381003e-02
      4.28476371e-02 2.41970196e-02 -2.53887177e-02 -3.84232290e-02
      -5.52400574e-02 -6.58087656e-02 -8.58435815e-04 5.35624009e-03
      3.65815200e-02 3.11773233e-02 9.29237995e-03 -1.07576782e-02
      -2.20871586e-02 -5.47422376e-03 6.65868819e-03 9.83321760e-03
      -1.20302234e-02 6.33000350e-03 1.90492049e-02 -8.09291005e-03
      -1.32976398e-02 3.98046291e-03 -1.26168607e-02 5.72089618e-03
      1.71770714e-03 1.23898042e-02 2.49398164e-02 -9.73603036e-03
      -1.77527424e-02 -1.13222394e-02 6.41745562e-03 -5.75018954e-03
      -8.14251974e-03 5.72850090e-03 -5.98124741e-03 1.54516865e-02
      3.52733769e-02 1.73346773e-02 -1.68165527e-02 -2.93012634e-02
      2.13681394e-03 -1.71685964e-02 5.12239058e-03 7.66462926e-03
      3.13286893e-02 2.74815336e-02 3.65875917e-03 -7.71395490e-03
      -1.51243163e-02 -1.30527141e-02 -8.85440386e-04 -4.23766999e-03
      -2.89131259e-03 1.48259075e-02 4.73875646e-03 -1.51606342e-02
      -2.70427973e-03 2.20920565e-03 -1.71769448e-02 -1.46325375e-03
      -1.44331099e-03 2.39319610e-03 1.71831716e-02 -1.56651102e-02
      -8.68168008e-03 -7.27378856e-03 1.10998517e-02 1.09337745e-02
      -8.64475407e-03 2.12045293e-03 3.83541570e-03 3.22143771e-02
      3.36365923e-02 8.54019169e-03 4.58863826e-04 -1.20402630e-02
      3.41431377e-03 2.01753825e-02 8.17928184e-03 1.94295088e-03
      -7.44969444e-03 4.52302163e-03 2.07855105e-02 4.16677678e-03
      -7.55611993e-03 -7.95720145e-03 -1.01369014e-02 -1.72207989e-02
      5.98535268e-03 2.26796959e-02 -5.30319475e-03 -1.78143550e-02
      -3.17903399e-03 3.63607425e-03 -6.66875346e-03 -3.77359422e-04
      -2.85635790e-04 1.21815549e-02 5.28640766e-03 -1.56597793e-02
      -7.05373893e-03 -9.39772185e-03 1.38380993e-02 1.69030838e-02
      1.40558626e-03 4.98863449e-03 1.15772672e-02 4.03892063e-02
      3.00530586e-02 5.31725865e-03 2.25220295e-03 -4.02312214e-03
      -1.01214144e-02 1.32517610e-02 -4.00618929e-03 -1.09388039e-03
      -5.47794625e-02 -4.67203818e-02 1.76945813e-02 2.92387139e-02
      8.64552427e-03 1.11762322e-02 3.06718796e-03 -1.45798251e-02
      -3.96482553e-03 1.64448787e-02 -1.92628074e-02 -1.73997134e-02
      -7.36915553e-03 2.50139693e-03 -4.10692068e-03 -3.58352554e-03
      -1.86564133e-03 3.41141224e-02 1.40727796e-02 -1.49605954e-02
      -2.83742603e-02 -2.25339476e-02 -4.87451674e-03 7.06664147e-03
      1.76589638e-02 1.78985856e-02 3.97460349e-03 1.17917676e-02
      1.46103557e-02 1.18308300e-02 4.52952692e-03 -4.67321789e-03
      -1.47583038e-02 -4.77790367e-03 -1.78248771e-02 6.63813669e-03
      -7.40889832e-02 -7.09911510e-02 -1.53833702e-02 4.38115075e-02
      3.85852642e-02 4.34214883e-02 3.29757109e-02 8.53853673e-03
      5.71057526e-03 5.57019841e-03 -1.84189267e-02 -1.19537804e-02
      -1.34866731e-02 7.20601715e-03 2.24555470e-03 1.13106030e-03
      2.03090976e-03 6.05459847e-02 3.84378508e-02 -3.16828601e-02
      -7.88684487e-02 -5.24884090e-02 -4.05166857e-02 7.21337786e-03
      4.67864275e-02 5.01296371e-02 -1.76415476e-03 -4.57720533e-02
      -4.47153077e-02 2.49780491e-02 3.07846107e-02 6.71738433e-03
      3.91300448e-04 -1.47030549e-03 -1.37354666e-02 3.21554244e-02
      -7.37509802e-02 -8.53383243e-02 -6.44643009e-02 2.55960617e-02
      6.08234555e-02 7.43035898e-02 5.87404929e-02 4.27396223e-02
      1.54230697e-02 2.40084436e-02 4.25749496e-02 -8.17787368e-03
      -4.83456552e-02 -4.73048016e-02 -5.03591821e-02 -2.81066587e-03
      2.27745567e-02 -3.63905769e-04 1.37081482e-02 3.22008580e-02
      3.27355601e-03 -2.52031945e-02 -1.70515943e-03 4.63864068e-03
      2.31033526e-02 2.97370721e-02 4.15641256e-02 4.52589169e-02
      6.04994968e-02 5.73064834e-02 2.47655977e-02 -3.46110910e-02
      -1.07738510e-01 -9.42871943e-02 -3.63160856e-02 -2.51553468e-02
      2.70837620e-02 4.60683629e-02 4.48406711e-02 1.77107882e-02
      -1.68345105e-02 1.16316713e-02 -5.61062582e-02 -4.86800186e-02
      -1.05769914e-02 3.14692524e-03 2.88778841e-02 -6.80198008e-03
      -3.63145359e-02 -1.59520544e-02 -1.03553422e-02 8.36901274e-03
      2.57296115e-02 1.29295355e-02 3.15900296e-02 1.30909905e-02
      -1.19876554e-02 -2.41760984e-02 -7.64042977e-03 -1.02955569e-02
      8.13739374e-03 2.55388413e-02 2.79475655e-03 2.84546111e-02
      5.17641380e-02 5.08256629e-02 4.52273758e-03 -3.12662944e-02
      -6.43950924e-02 -8.39552358e-02 -5.48282638e-02 -5.43811545e-02
      1.42113036e-02 3.49189751e-02 3.19389068e-02 2.31734775e-02
      -1.29066687e-02 1.33467438e-02 -1.77096222e-02 -4.55865823e-02
      -1.66900959e-02 -1.43178180e-03 2.34067794e-02 -4.62951744e-03
      -2.53735445e-02 -1.01768030e-02 -2.39480939e-03 1.84994079e-02
      1.96570512e-02 1.93088055e-02 3.54462862e-02 5.82476193e-03
      -2.07547601e-02 -1.73080359e-02 -3.39534529e-03 -1.56398825e-02
      -5.50799258e-03 1.42975505e-02 -3.29068080e-02 2.02443302e-02
      4.24707308e-02 3.80498804e-02 1.11497669e-02 -2.44207829e-02
      -2.48318026e-03 -6.21458031e-02 -5.54966666e-02 -5.50138801e-02
      -2.04883553e-02 1.66949127e-02 3.78891230e-02 2.69453991e-02
      1.55053369e-03 6.72436738e-03 2.86251097e-03 -4.82424349e-02
      -4.71761357e-03 1.59343276e-02 1.20972628e-02 -1.39576718e-02
      -1.62996221e-02 -6.59461739e-03 -1.26995323e-02 1.24124568e-02
      1.35274958e-02 9.23095923e-03 2.18861252e-02 -3.64575069e-03
      -8.72915890e-03 -1.23994453e-02 -1.52931630e-03 -6.38726680e-03
      -1.52094616e-02 2.45156651e-03 -4.89301980e-02 1.95621420e-02
      3.89621109e-02 2.90722940e-02 3.25655192e-02 -7.32035283e-03
      2.29705218e-02 -1.18901618e-02 -4.90763597e-02 -4.52187657e-02
      -6.66357726e-02 -1.77520830e-02 5.33645116e-02 4.53893505e-02
      1.38581870e-02 1.23908790e-02 1.23484991e-02 -4.29707877e-02
      1.19103352e-02 3.35519053e-02 7.84880854e-03 -1.89196765e-02
      -1.13141425e-02 -1.05797767e-03 -1.70185883e-02 -5.54112310e-04
      9.86641925e-03 1.53821008e-02 1.72945391e-03 -3.12466826e-02
      -9.30762966e-04 -7.88032357e-03 9.51837806e-04 6.18410486e-05
      -7.18473736e-03 2.23547220e-03 -4.82105017e-02 3.36895231e-04
      3.09517644e-02 3.23901512e-02 3.91476154e-02 1.20038232e-02
      1.78109258e-02 1.66199990e-02 -4.65064533e-02 -4.52795513e-02
      -9.13424492e-02 -7.31492788e-02 4.65353653e-02 7.72050768e-02
      3.56086828e-02 3.42875905e-02 3.43201570e-02 -2.91277412e-02
      9.68489703e-03 3.01201381e-02 -3.19160521e-03 -1.19348411e-02
      -6.01507025e-03 -8.44866794e-04 -1.66684818e-02 -1.17521221e-02
      1.64761057e-03 3.41643579e-02 -1.93329225e-03 -7.28195235e-02
      -1.83186661e-02 -8.65517650e-03 4.83422866e-03 1.26037318e-02
      1.96316913e-02 1.16684409e-02 -4.99486588e-02 -5.92238419e-02
      -3.30425426e-03 4.88045551e-02 4.70159203e-02 2.23847181e-02
      1.71095487e-02 1.82408597e-02 -4.39344794e-02 -3.56536582e-02
      -1.14989132e-01 -7.71982223e-02 1.98601913e-02 9.88695472e-02
      6.13062605e-02 6.56538755e-02 5.67838252e-02 9.27978940e-03
      1.85518004e-02 1.49465054e-02 -1.76469926e-02 2.87575135e-03
      -1.97101431e-03 1.18085369e-03 -9.64684226e-03 -8.72818287e-03
      -2.40601134e-03 5.68875112e-02 7.00595789e-03 -1.10322647e-01
      -8.04690868e-02 -3.35861258e-02 6.37957314e-03 4.01750021e-02
      4.73204255e-02 3.93038653e-02 -5.07697240e-02 -1.16174236e-01
      -7.06874430e-02 5.51668368e-02 7.79558644e-02 2.99877934e-02
      3.02336104e-02 3.14503349e-02 -2.87774019e-02 9.63599980e-03
      -1.21409632e-01 -9.18795466e-02 -2.27366332e-02 9.54588130e-02
      8.01910758e-02 8.72777477e-02 7.49238357e-02 5.15293628e-02</_></support_vectors>
  <decision_functions>
    <_>
      <sv_count>1</sv_count>
      <rho>-1.0035930730253397e+00</rho>
      <alpha>
        1.</alpha>
      <index>
        0</index></_></decision_functions></my_svm>
</opencv_storage>
